tree
version=v3
num_class=1
num_tree_per_iteration=1
label_index=0
max_feature_idx=215
objective=regression
feature_names=MACD_id0 MACD_id1 MACD_id2 MACD_id3 MACD_id4 MACD_id5 MACD_id6 MACD_id7 MACD_id8 MACD_id9 MACD_id10 MACD_id11 MACD_id12 MACD_id13 Volume_Ratio_id0 Volume_Ratio_id1 Volume_Ratio_id2 Volume_Ratio_id3 Volume_Ratio_id4 Volume_Ratio_id5 Volume_Ratio_id6 Volume_Ratio_id7 Volume_Ratio_id8 Volume_Ratio_id9 Volume_Ratio_id10 Volume_Ratio_id11 Volume_Ratio_id12 Volume_Ratio_id13 RSI_id0 RSI_id1 RSI_id2 RSI_id3 RSI_id4 RSI_id5 RSI_id6 RSI_id7 RSI_id8 RSI_id9 RSI_id10 RSI_id11 RSI_id12 RSI_id13 log_close/mean_60_id0 log_return_60_id0 log_close/mean_300_id0 log_return_300_id0 log_close/mean_900_id0 log_return_900_id0 log_close/mean_60_id1 log_return_60_id1 log_close/mean_300_id1 log_return_300_id1 log_close/mean_900_id1 log_return_900_id1 log_close/mean_60_id2 log_return_60_id2 log_close/mean_300_id2 log_return_300_id2 log_close/mean_900_id2 log_return_900_id2 log_close/mean_60_id3 log_return_60_id3 log_close/mean_300_id3 log_return_300_id3 log_close/mean_900_id3 log_return_900_id3 log_close/mean_60_id4 log_return_60_id4 log_close/mean_300_id4 log_return_300_id4 log_close/mean_900_id4 log_return_900_id4 log_close/mean_60_id5 log_return_60_id5 log_close/mean_300_id5 log_return_300_id5 log_close/mean_900_id5 log_return_900_id5 log_close/mean_60_id6 log_return_60_id6 log_close/mean_300_id6 log_return_300_id6 log_close/mean_900_id6 log_return_900_id6 log_close/mean_60_id7 log_return_60_id7 log_close/mean_300_id7 log_return_300_id7 log_close/mean_900_id7 log_return_900_id7 log_close/mean_60_id8 log_return_60_id8 log_close/mean_300_id8 log_return_300_id8 log_close/mean_900_id8 log_return_900_id8 log_close/mean_60_id9 log_return_60_id9 log_close/mean_300_id9 log_return_300_id9 log_close/mean_900_id9 log_return_900_id9 log_close/mean_60_id10 log_return_60_id10 log_close/mean_300_id10 log_return_300_id10 log_close/mean_900_id10 log_return_900_id10 log_close/mean_60_id11 log_return_60_id11 log_close/mean_300_id11 log_return_300_id11 log_close/mean_900_id11 log_return_900_id11 log_close/mean_60_id12 log_return_60_id12 log_close/mean_300_id12 log_return_300_id12 log_close/mean_900_id12 log_return_900_id12 log_close/mean_60_id13 log_return_60_id13 log_close/mean_300_id13 log_return_300_id13 log_close/mean_900_id13 log_return_900_id13 mean_close/mean_60 mean_log_returns_60 log_close/mean_60-mean_close/mean_60_id0 log_return_60-mean_log_returns_60_id0 log_close/mean_60-mean_close/mean_60_id1 log_return_60-mean_log_returns_60_id1 log_close/mean_60-mean_close/mean_60_id2 log_return_60-mean_log_returns_60_id2 log_close/mean_60-mean_close/mean_60_id3 log_return_60-mean_log_returns_60_id3 log_close/mean_60-mean_close/mean_60_id4 log_return_60-mean_log_returns_60_id4 log_close/mean_60-mean_close/mean_60_id5 log_return_60-mean_log_returns_60_id5 log_close/mean_60-mean_close/mean_60_id6 log_return_60-mean_log_returns_60_id6 log_close/mean_60-mean_close/mean_60_id7 log_return_60-mean_log_returns_60_id7 log_close/mean_60-mean_close/mean_60_id8 log_return_60-mean_log_returns_60_id8 log_close/mean_60-mean_close/mean_60_id9 log_return_60-mean_log_returns_60_id9 log_close/mean_60-mean_close/mean_60_id10 log_return_60-mean_log_returns_60_id10 log_close/mean_60-mean_close/mean_60_id11 log_return_60-mean_log_returns_60_id11 log_close/mean_60-mean_close/mean_60_id12 log_return_60-mean_log_returns_60_id12 log_close/mean_60-mean_close/mean_60_id13 log_return_60-mean_log_returns_60_id13 mean_close/mean_300 mean_log_returns_300 log_close/mean_300-mean_close/mean_300_id0 log_return_300-mean_log_returns_300_id0 log_close/mean_300-mean_close/mean_300_id1 log_return_300-mean_log_returns_300_id1 log_close/mean_300-mean_close/mean_300_id2 log_return_300-mean_log_returns_300_id2 log_close/mean_300-mean_close/mean_300_id3 log_return_300-mean_log_returns_300_id3 log_close/mean_300-mean_close/mean_300_id4 log_return_300-mean_log_returns_300_id4 log_close/mean_300-mean_close/mean_300_id5 log_return_300-mean_log_returns_300_id5 log_close/mean_300-mean_close/mean_300_id6 log_return_300-mean_log_returns_300_id6 log_close/mean_300-mean_close/mean_300_id7 log_return_300-mean_log_returns_300_id7 log_close/mean_300-mean_close/mean_300_id8 log_return_300-mean_log_returns_300_id8 log_close/mean_300-mean_close/mean_300_id9 log_return_300-mean_log_returns_300_id9 log_close/mean_300-mean_close/mean_300_id10 log_return_300-mean_log_returns_300_id10 log_close/mean_300-mean_close/mean_300_id11 log_return_300-mean_log_returns_300_id11 log_close/mean_300-mean_close/mean_300_id12 log_return_300-mean_log_returns_300_id12 log_close/mean_300-mean_close/mean_300_id13 log_return_300-mean_log_returns_300_id13 mean_close/mean_900 mean_log_returns_900 log_close/mean_900-mean_close/mean_900_id0 log_return_900-mean_log_returns_900_id0 log_close/mean_900-mean_close/mean_900_id1 log_return_900-mean_log_returns_900_id1 log_close/mean_900-mean_close/mean_900_id2 log_return_900-mean_log_returns_900_id2 log_close/mean_900-mean_close/mean_900_id3 log_return_900-mean_log_returns_900_id3 log_close/mean_900-mean_close/mean_900_id4 log_return_900-mean_log_returns_900_id4 log_close/mean_900-mean_close/mean_900_id5 log_return_900-mean_log_returns_900_id5 log_close/mean_900-mean_close/mean_900_id6 log_return_900-mean_log_returns_900_id6 log_close/mean_900-mean_close/mean_900_id7 log_return_900-mean_log_returns_900_id7 log_close/mean_900-mean_close/mean_900_id8 log_return_900-mean_log_returns_900_id8 log_close/mean_900-mean_close/mean_900_id9 log_return_900-mean_log_returns_900_id9 log_close/mean_900-mean_close/mean_900_id10 log_return_900-mean_log_returns_900_id10 log_close/mean_900-mean_close/mean_900_id11 log_return_900-mean_log_returns_900_id11 log_close/mean_900-mean_close/mean_900_id12 log_return_900-mean_log_returns_900_id12 log_close/mean_900-mean_close/mean_900_id13 log_return_900-mean_log_returns_900_id13
feature_infos=[-0.0401611328125:0.0933837890625] [-29.3125:25.09375] [-3.53125:2.57421875] [-0.00036263465881347656:0.00032305717468261719] [-2.1815299987792969e-05:3.2961368560791016e-05] [-0.0250091552734375:0.023223876953125] [-1.5693359375:1.3125] [-0.05206298828125:0.042510986328125] [-0.002105712890625:0.001495361328125] [-0.309326171875:0.295654296875] [-20.65625:64.4375] [-0.513671875:0.4189453125] [-0.00048112869262695312:0.00077342987060546875] [-9.2566013336181641e-05:0.00010257959365844727] [0:66.875] [0:79.1875] [0:85.8125] [0:77.4375] [0:167.75] [0:128.625] [0:75.125] [0:118.375] [0:148] [0:150.125] [0:87.625] [0:175.375] [0:136.625] [0:98.1875] [0:100] [0:75.625] [0:74.375] [0:68.125] [0:76.5625] [0:69.375] [0:77.75] [0:71.5625] [0:66] [0:69.0625] [0:100] [0:68.125] [0:76.0625] [0:67.6875] [-0.2080078125:0.1695556640625] [-0.29541015625:0.346435546875] [-0.345703125:0.245849609375] [-0.458251953125:0.307861328125] [-0.4482421875:0.317626953125] [-0.52880859375:0.521484375] [-0.150634765625:0.150146484375] [-0.2008056640625:0.289794921875] [-0.2203369140625:0.1536865234375] [-0.31787109375:0.1962890625] [-0.32470703125:0.2103271484375] [-0.472900390625:0.31103515625] [-0.27734375:0.27978515625] [-0.294921875:0.35400390625] [-0.29833984375:0.263671875] [-0.373291015625:0.2998046875] [-0.3857421875:0.288330078125] [-0.5107421875:0.445556640625] [-0.1925048828125:0.143310546875] [-0.2344970703125:0.304931640625] [-0.251220703125:0.1260986328125] [-0.355712890625:0.223876953125] [-0.34375:0.1763916015625] [-0.424072265625:0.334716796875] [-0.1781005859375:0.23486328125] [-0.303466796875:0.297607421875] [-0.231201171875:0.359375] [-0.310791015625:0.59716796875] [-0.3095703125:0.52490234375] [-0.34814453125:0.66943359375] [-0.24755859375:0.10791015625] [-0.263916015625:0.209716796875] [-0.264404296875:0.186279296875] [-0.37255859375:0.299072265625] [-0.356689453125:0.2296142578125] [-0.42333984375:0.318359375] [-0.204833984375:0.1385498046875] [-0.235107421875:0.318359375] [-0.2425537109375:0.1805419921875] [-0.31884765625:0.25537109375] [-0.33154296875:0.1669921875] [-0.49609375:0.322021484375] [-0.1912841796875:0.1590576171875] [-0.68359375:0.219970703125] [-0.27783203125:0.196533203125] [-0.361328125:0.2386474609375] [-0.35595703125:0.240234375] [-0.515625:0.356201171875] [-0.19384765625:0.140625] [-0.246826171875:0.31494140625] [-0.318603515625:0.1448974609375] [-0.444580078125:0.299072265625] [-0.43798828125:0.1904296875] [-0.4599609375:0.4921875] [-0.174072265625:0.180908203125] [-0.1998291015625:0.260009765625] [-0.2176513671875:0.1485595703125] [-0.345947265625:0.232421875] [-0.35205078125:0.199462890625] [-0.466064453125:0.334716796875] [-0.375732421875:0.319580078125] [-0.429443359375:0.3857421875] [-0.402099609375:0.277587890625] [-0.5068359375:0.423583984375] [-0.4228515625:0.338134765625] [-0.8251953125:0.5341796875] [-0.161376953125:0.1829833984375] [-0.202880859375:0.27783203125] [-0.25537109375:0.1422119140625] [-0.349365234375:0.25390625] [-0.35400390625:0.195556640625] [-0.4755859375:0.34912109375] [-0.1685791015625:0.162109375] [-0.1986083984375:0.2822265625] [-0.222900390625:0.29345703125] [-0.309326171875:0.41064453125] [-0.300048828125:0.46923828125] [-0.413818359375:0.63427734375] [-0.205810546875:0.2052001953125] [-0.2462158203125:0.2286376953125] [-0.289794921875:0.288818359375] [-0.35498046875:0.431884765625] [-0.36376953125:0.369384765625] [-0.480224609375:0.403564453125] [-0.156982421875:0.135498046875] [-0.2020263671875:0.2470703125] [-0.179443359375:0.109619140625] [-0.2489013671875:0.189453125] [-0.0596923828125:0.0560302734375] [-0.07501220703125:0.09710693359375] [-0.1488037109375:0.269287109375] [-0.25048828125:0.349853515625] [-0.09478759765625:0.07733154296875] [-0.11181640625:0.10137939453125] [-0.16650390625:0.2239990234375] [-0.28564453125:0.276123046875] [-0.0975341796875:0.0989990234375] [-0.1251220703125:0.1478271484375] [-0.054718017578125:0.0595703125] [-0.199951171875:0.0860595703125] [-0.0955810546875:0.1396484375] [-0.61474609375:0.197998046875] [-0.08642578125:0.1136474609375] [-0.1339111328125:0.1669921875] [-0.07440185546875:0.073974609375] [-0.08843994140625:0.1064453125] [-0.337646484375:0.2978515625] [-0.387451171875:0.373779296875] [-0.0767822265625:0.07958984375] [-0.12005615234375:0.1024169921875] [-0.08782958984375:0.1339111328125] [-0.1917724609375:0.204345703125] [-0.08502197265625:0.11700439453125] [-0.11383056640625:0.18603515625] [-0.2357177734375:0.142822265625] [-0.322998046875:0.210205078125] [-0.205322265625:0.220703125] [-0.2464599609375:0.2705078125] [-0.055328369140625:0.093505859375] [-0.09259033203125:0.10736083984375] [-0.12103271484375:0.25390625] [-0.310302734375:0.27734375] [-0.11322021484375:0.09613037109375] [-0.1201171875:0.12310791015625] [-0.1610107421875:0.326904296875] [-0.25048828125:0.541015625] [-0.116455078125:0.1622314453125] [-0.1552734375:0.255859375] [-0.05487060546875:0.0986328125] [-0.20556640625:0.1341552734375] [-0.124755859375:0.1673583984375] [-0.1904296875:0.2177734375] [-0.159423828125:0.1278076171875] [-0.2108154296875:0.168701171875] [-0.0859375:0.11712646484375] [-0.08953857421875:0.157470703125] [-0.2371826171875:0.235107421875] [-0.361572265625:0.358154296875] [-0.12939453125:0.10467529296875] [-0.2249755859375:0.146728515625] [-0.0975341796875:0.25244140625] [-0.1827392578125:0.35595703125] [-0.1326904296875:0.26220703125] [-0.1807861328125:0.367919921875] [-0.329833984375:0.1641845703125] [-0.45458984375:0.302978515625] [-0.2415771484375:0.274169921875] [-0.2607421875:0.47314453125] [-0.09326171875:0.1077880859375] [-0.138671875:0.1373291015625] [-0.16162109375:0.242919921875] [-0.3251953125:0.335205078125] [-0.126708984375:0.11920166015625] [-0.1484375:0.17626953125] [-0.2403564453125:0.462646484375] [-0.31884765625:0.58251953125] [-0.1517333984375:0.1893310546875] [-0.17822265625:0.27099609375] [-0.101318359375:0.115234375] [-0.2117919921875:0.1688232421875] [-0.14208984375:0.18115234375] [-0.2197265625:0.29736328125] [-0.1964111328125:0.1490478515625] [-0.2244873046875:0.2293701171875] [-0.092529296875:0.125244140625] [-0.1402587890625:0.2064208984375] [-0.260009765625:0.279052734375] [-0.53759765625:0.4306640625] [-0.170166015625:0.1414794921875] [-0.228271484375:0.21728515625] [-0.10400390625:0.3974609375] [-0.2110595703125:0.53466796875] [-0.1600341796875:0.333984375] [-0.243408203125:0.38330078125]
tree_sizes=3327 3230 3265 3269 3331 3270 3145 3226 3334 3282 3279 3268 3247 3286 3247 3246 3263 3209 3235 3272 3132 3171 3194 3186 3168 3106 3115 3214 3203 3124 3270 3161 3095 3032 3240 3172 3118 3227 3154 3091 3126 3216 3198 3175 3183 3146 3230 3155 3166 3113 3166 3152 3052 3275 3094 3258 3121 3167 3056 3111 3090 3240 3132 3179 3056 3214 3121 3196 3179 3118 3241 3101 3161 3104 3192 3127 3236 3088 3120 3183 3117 3177 3110 3087 3228 3182 3212 3243 3174 3038 3218 3147 3027 3189 3097 3078 2948 3178 3033 3217 3158 3027 3130 3192 3219 3095 3135 3188 3131 2970 3110 3189 3069 3134 3088 3032 3188 3175 3169 3220 3115 2924 3225 3149 3100 3067 3194 3101 2990 2927 2913 3099 3262 3095 3064 3290 3138 3167 3044 3159 3123 3166 3093 3158 3049 3100 3194 3241

Tree=0
num_leaves=31
num_cat=0
split_feature=142 172 140 87 142 136 138 197 208 63 130 208 138 202 132 173 69 156 36 172 54 143 7 13 63 141 204 211 40 121
split_gain=0.140936 0.118407 0.0459976 0.0453056 0.0301963 0.0277958 0.0228376 0.0217177 0.0208857 0.0254913 0.023291 0.0168654 0.01796 0.0158339 0.0134365 0.0133626 0.0246613 0.0121344 0.0108995 0.0103158 0.0100089 0.011185 0.00940613 0.0084417 0.0080878 0.0111077 0.00711841 0.00529677 0.00502598 0.00478096
threshold=0.0017313957214355471 -0.0056476593017578116 -0.0022974014282226558 -0.056503295898437493 -0.0043163299560546866 -0.0023317337036132808 -0.0038728713989257808 0.045669555664062507 -0.043167114257812493 -0.0036687850952148433 0.00093817710876464855 -0.019676208496093747 0.0016779899597167971 0.0036287307739257817 -0.0019097328186035154 0.011974334716796877 -0.014507293701171873 -0.0083732604980468733 43.984375000000007 -0.0028848648071289058 -0.0040493011474609366 0.011234283447265627 0.00042307376861572271 -8.4936618804931624e-06 -0.10629272460937499 -0.00077033042907714833 -0.018821716308593747 0.00074315071105957042 50.609375000000007 -0.068969726562499986
decision_type=6 6 6 4 6 6 6 4 6 6 6 6 6 6 6 6 6 4 6 4 6 6 4 4 4 6 4 4 6 6
left_child=1 3 6 8 5 -5 7 13 24 -10 -11 22 -13 -2 -15 -8 23 20 27 -3 21 -4 -7 -17 25 -1 -25 28 -19 -12
right_child=2 19 17 4 -6 11 15 -9 9 10 29 12 -14 14 -16 16 -18 18 -20 -21 -22 -23 -24 26 -26 -27 -28 -29 -30 -31
leaf_value=3.2949282078889732e-05 9.4502469741997779e-06 4.5587993397290991e-05 -1.9402524852380729e-05 6.6681960113190876e-05 5.1682292341032835e-05 0.00010438737210028705 -3.4590063136579046e-06 -4.6061559340006514e-05 0.00017644432635808608 1.8696622191491103e-05 3.2949282078889732e-05 0.00012625502858945131 0.00023634647986478047 -0.0003573028238757468 -9.377754144235492e-05 -0.00020385787907164533 -0.00014123459634666829 9.3985526665436891e-05 1.2358994239866068e-05 2.9511866895072128e-05 1.3603335297476177e-05 -0.00011768328416535638 -1.0375393388599983e-05 0.00019952182967612685 0.00011669742680823937 0.00049674379743161088 -1.4865424565176311e-06 2.1753027267817697e-05 2.3379324870611187e-05 0.00060953424791454166
leaf_weight=454 1233 210482 26257 62186 127387 23397 38739 7749 3739 254 58 20384 9680 2957 1543 812 10103 13660 248277 696380 29278 6299 3003 734 15139 590 10490 12742 4975 1432
leaf_count=454 1233 210482 26257 62186 127387 23397 38739 7749 3739 254 58 20384 9680 2957 1543 812 10103 13660 248277 696380 29278 6299 3003 734 15139 590 10490 12742 4975 1432
internal_value=3.29493e-05 4.42226e-05 1.10782e-06 8.1416e-05 7.3494e-05 9.66902e-05 -4.43926e-05 -0.00012061 0.000170156 0.000280742 0.000488944 0.000129273 0.000162585 -0.000216742 -0.000272857 -2.70786e-05 -6.72173e-05 1.10928e-05 1.68766e-05 3.32142e-05 -1.46399e-05 -3.92311e-05 9.03374e-05 -2.89143e-06 0.000131043 0.000313485 1.40199e-05 5.17865e-05 7.37291e-05 0.000586612
internal_weight=0 1.17456e+06 415848 267703 246037 118650 74360 13482 21666 5483 1744 56464 30064 5733 4500 60878 22139 341488 279654 906862 61834 32556 26400 12036 16183 1044 11224 31377 18635 1490
internal_count=1590413 1174565 415848 267703 246037 118650 74360 13482 21666 5483 1744 56464 30064 5733 4500 60878 22139 341488 279654 906862 61834 32556 26400 12036 16183 1044 11224 31377 18635 1490
is_linear=0
shrinkage=1


Tree=1
num_leaves=31
num_cat=0
split_feature=142 172 86 172 173 18 132 107 50 35 81 140 73 111 170 90 126 139 106 102 73 152 211 136 149 71 209 97 106 147
split_gain=0.161847 0.0709653 0.0667255 0.0441392 0.0357084 0.0359459 0.0361919 0.0274152 0.0207814 0.0206814 0.0191635 0.0191255 0.018625 0.0156801 0.0116655 0.0128524 0.0116343 0.0104268 0.0101962 0.00974674 0.00954511 0.0102962 0.00902876 0.008793 0.007772 0.00709697 0.00682659 0.00569051 0.00515004 0.00490654
threshold=-0.0016093254089355467 -0.0073528289794921866 -0.024177551269531247 0.0038785934448242192 0.036605834960937507 0.0091896057128906267 -0.0018267631530761717 0.21051025390625003 -0.0015387535095214842 55.796875000000007 0.13800048828125003 -0.0022058486938476558 -0.028984069824218747 -0.12548828124999997 -0.0060787200927734366 0.0041866302490234384 2.9057264328002933e-05 0.0026445388793945317 0.065063476562500014 0.0025415420532226567 -0.073181152343749986 -0.0038423538208007808 -0.0044307708740234366 -0.0022497177124023433 -0.0076656341552734366 0.060165405273437507 -0.0072383880615234366 0.027450561523437503 -0.023628234863281247 0.0011458396911621096
decision_type=6 6 6 4 6 6 6 4 6 6 6 4 4 4 6 4 4 6 4 4 6 4 4 6 4 4 6 6 4 6
left_child=1 2 7 16 11 14 9 8 -1 17 28 12 20 24 15 -6 -2 -7 -4 -13 21 -5 27 -10 -9 -14 -8 -21 -3 -16
right_child=3 10 18 4 5 6 26 13 23 -11 -12 19 25 -15 29 -17 -18 -19 -20 22 -22 -23 -24 -25 -26 -27 -28 -29 -30 -31
leaf_value=0.00013944841750382727 -1.3053083103611099e-05 7.5086387152098499e-05 7.4666674791686239e-05 0 4.4025629507602932e-05 -0.00036937315295127913 -4.4851194212387974e-05 0 0 0 -0.0006866588783984469 -4.1960262271444821e-05 -7.8501027525313747e-05 7.3823429304004673e-05 4.7005620403149848e-05 -0.00022208349523879584 2.3310852123203061e-06 -2.7894304041723101e-05 3.2003179570994838e-05 1.4379418156665239e-06 -0.00016805331597829405 -0.00078566033148074572 -2.4281997644427837e-05 0.00030897563421490728 0.00059710560614599875 -2.8463611950454203e-05 -0.00017171581352911632 0.00011878829979060152 1.2728631404077096e-05 -5.0562275545286635e-05
leaf_weight=10481 397360 5649 32324 86 927 4688 6860 68 452 1000 155 56630 24358 17400 6481 2020 394385 576 92250 78405 1800 261 97869 6493 360 26066 2800 1725 317588 2896
leaf_count=10481 397360 5649 32324 86 927 4688 6860 68 452 1000 155 56630 24358 17400 6481 2020 394385 576 92250 78405 1800 261 97869 6493 360 26066 2800 1725 317588 2896
internal_value=0 3.07283e-05 6.5465e-05 -1.34175e-05 -3.35657e-05 -0.000102173 -0.000165547 0.000143091 0.000200997 -0.000286496 1.34793e-05 -2.67258e-05 -6.16435e-05 8.50046e-05 -1.8147e-05 -0.000129505 -5.35678e-06 -0.000337012 4.32848e-05 -1.87899e-05 -0.000248535 -0.00058779 -1.12705e-05 0.000290047 0.000476317 -5.3157e-05 -8.43638e-05 4.29418e-06 1.39e-05 1.40717e-05
internal_weight=0 483220 159828 1.10719e+06 315448 28248 15924 35254 17426 6264 323392 287200 52571 17828 12324 2947 791745 5264 124574 234629 2147 347 177999 6945 428 50424 9660 80130 323237 9377
internal_count=1590413 483220 159828 1107193 315448 28248 15924 35254 17426 6264 323392 287200 52571 17828 12324 2947 791745 5264 124574 234629 2147 347 177999 6945 428 50424 9660 80130 323237 9377
is_linear=0
shrinkage=0.0636454


Tree=2
num_leaves=31
num_cat=0
split_feature=142 85 24 85 96 172 136 142 37 141 90 199 201 164 132 55 55 169 88 4 184 189 203 87 60 99 125 78 78 103
split_gain=0.156153 0.0501698 0.0398129 0.0404997 0.0389666 0.0344613 0.0215637 0.0194603 0.0173199 0.0162408 0.0150309 0.015627 0.0146862 0.0145788 0.0130667 0.0126398 0.0140621 0.0317801 0.011938 0.0207044 0.0118346 0.0113253 0.00937673 0.00900772 0.00882319 0.0086361 0.0081861 0.00757259 0.00730715 0.00866758
threshold=-0.0044956207275390616 0.035964965820312507 0.044006347656250007 -0.024971008300781247 -0.0082969665527343733 -0.00028121471405029291 -0.0026903152465820308 0.0039386749267578134 41.109375000000007 -0.0021028518676757808 3.2484531402587897e-05 0.0057430267333984384 -0.018562316894531247 -0.0016808509826660154 -8.5383653640747057e-05 -0.058059692382812493 -0.10195922851562499 0.0013594627380371096 -0.035079956054687493 3.6060810089111332e-06 0.0026865005493164067 0.016242980957031253 0.0041828155517578134 -0.033508300781249993 -0.0037374496459960933 -0.0022001266479492183 0.36694335937500006 -0.00061440467834472645 -0.0020380020141601558 -0.11419677734374999
decision_type=6 6 6 4 4 4 4 6 6 6 6 6 6 6 6 4 6 6 6 4 6 4 6 6 6 6 4 4 4 6
left_child=2 4 8 18 7 27 9 26 22 13 11 -8 -13 14 24 16 17 -9 19 25 -12 -14 -1 -10 -3 -4 -2 -6 -7 -30
right_child=1 6 3 -5 5 28 10 15 23 -11 20 12 21 -15 -16 -17 -18 -19 -20 -21 -22 -23 -24 -25 -26 -27 -28 -29 29 -31
leaf_value=0.00029313646438020892 -2.073746259170248e-05 0 0.00013041011592917462 6.7097608174133109e-05 -1.4350102428957745e-06 -2.5399265668574666e-05 -5.9719051013303027e-05 -0.0015489568036048979 6.9173357793138822e-05 -5.2719353098481485e-05 -0.00016586140205788951 -0.00010149554190454709 0.00027143099299815085 -0.00010282736652539273 -0.00012175593842700216 -8.9093318733569332e-05 -0.0001757065794405997 0 0.0001357637463064381 0.00052458370654709298 1.4390544395768964e-05 -2.6733855699961029e-05 0 2.3623532796757946e-05 -0.00050519075764834248 0.00033283179185716622 -0.00010203693259104311 1.2820889629735883e-05 -3.9230639244450063e-06 -2.2159884750031223e-05
leaf_weight=1611 49607 167 3462 41533 236088 154156 6668 112 22358 2661 5966 808 1847 1818 921 19051 1018 106 8312 1136 1617 505 518 103632 1715 1629 5872 403836 359186 152497
leaf_count=1611 49607 167 3462 41533 236088 154156 6668 112 22358 2661 5966 808 1847 1818 921 19051 1018 106 8312 1136 1617 505 518 103632 1715 1629 5872 403836 359186 152497
internal_value=0 -7.22388e-06 5.50971e-05 0.000100081 -5.59647e-06 -3.00028e-06 -9.72053e-05 -4.99921e-05 3.5204e-05 -0.000190729 -5.65674e-05 -1.87847e-06 0.00011184 -0.000264476 -0.000359834 -0.000103861 -0.000309835 -0.000810261 0.000192478 0.000263909 -0.000123972 0.000196295 0.000217288 3.19158e-05 -0.00046219 0.000200426 -2.98182e-05 7.52046e-06 -1.31509e-05 -9.40951e-06
internal_weight=0 1.40622e+06 184191 56072 1.38153e+06 1.30576e+06 24693 75766 128119 7282 17411 9828 3160 4621 2803 20287 1236 218 14539 6227 7583 2352 2129 125990 1882 5091 55479 639924 665839 511683
internal_count=1590413 1406222 184191 56072 1381529 1305763 24693 75766 128119 7282 17411 9828 3160 4621 2803 20287 1236 218 14539 6227 7583 2352 2129 125990 1882 5091 55479 639924 665839 511683
is_linear=0
shrinkage=0.0636454


Tree=3
num_leaves=31
num_cat=0
split_feature=172 172 85 196 199 142 78 18 200 84 2 140 129 133 91 27 87 36 203 148 202 35 29 136 142 121 67 78 132 84
split_gain=0.103815 0.108363 0.0703363 0.0351891 0.0382379 0.0216342 0.0208489 0.0161001 0.0143252 0.0133209 0.0125518 0.0241593 0.037602 0.0125255 0.0257586 0.0122524 0.0119267 0.0119255 0.0111541 0.013857 0.00987511 0.0128927 0.00975089 0.00845988 0.00819485 0.00786481 0.00780616 0.00765638 0.00745508 0.00729757
threshold=0.031227111816406253 -0.0039386749267578116 -0.046218872070312493 -0.010494232177734373 -0.00023305416107177732 -0.0012459754943847654 -0.0016551017761230467 0.024742126464843753 0.010120391845703127 -0.0030755996704101558 0.0059719085693359384 -1.1235475540161131e-05 -0.0030450820922851558 -0.0020494461059570308 -0.065307617187499986 2.5732421875000004 0.13885498046875003 62.390625000000007 -0.0080528259277343733 0.00092911720275878917 -0.0083274841308593733 48.890625000000007 54.203125000000007 -0.0053958892822265616 -0.00018382072448730466 0.027450561523437503 -0.060653686523437493 -0.00068163871765136708 -0.0025796890258789058 0.0086860656738281267
decision_type=6 6 4 6 6 4 4 6 6 4 6 6 6 6 4 4 6 4 6 4 6 6 6 4 6 4 6 4 6 4
left_child=1 2 18 4 23 16 15 24 -6 20 -10 12 -12 14 -5 -7 -3 28 19 -1 21 -9 29 -2 27 -20 -15 -4 -8 -19
right_child=3 5 7 13 8 6 17 9 10 -11 11 -13 -14 26 -16 -17 -18 22 25 -21 -22 -23 -24 -25 -26 -27 -28 -29 -30 -31
leaf_value=4.0480602697232005e-05 -0.00039178261656558241 8.5946558878885255e-06 2.1875312129589459e-06 -0.0016447294934182227 1.7460252484147825e-05 -2.2452334054571542e-05 -2.9246037933354955e-05 2.5628505212850378e-05 0 2.2645441643382426e-05 0.002174748318112671 6.0689709415768325e-05 0 0.00010414220133421657 -0.00031670531605303761 -6.4846314138798709e-05 -0.00053224584131962192 1.7597054927718635e-05 0.00012142033581130009 0.00025964310742435163 2.7515794885175575e-05 9.5799206024243586e-05 -3.1853009673191089e-05 -0.00013736597017360177 -1.2997933672064372e-05 -0.00011793021106930697 -0.00019152591762837534 2.9614869418206362e-05 -6.5649329198177698e-06 7.5716915749043102e-05
leaf_weight=1751 763 255116 69079 69 3122 238610 67469 16413 242 93535 79 227 63 289 3845 32261 162 34991 2443 7172 29871 37351 11064 5348 37842 616 3017 110892 514105 12606
leaf_count=1751 763 255116 69079 69 3122 238610 67469 16413 242 93535 79 227 63 289 3845 32261 162 34991 2443 7172 29871 37351 11064 5348 37842 616 3017 110892 514105 12606
internal_value=0 1.68071e-06 2.99718e-05 -0.000156145 -7.41051e-05 -8.1679e-06 -1.27673e-05 2.52857e-05 8.16355e-05 3.96108e-05 0.000365726 0.000598473 0.00126422 -0.000264321 -0.000347562 -2.75987e-05 8.14493e-06 -6.45139e-06 0.00018223 0.000219592 5.82697e-05 7.48671e-05 2.07613e-05 -0.000173529 1.3513e-05 6.46101e-05 -0.000157706 1.92332e-05 -9.24138e-06 3.35434e-05
internal_weight=0 1.57335e+06 406965 17064 9844 1.16638e+06 911106 394983 3733 177170 611 369 142 7220 3914 270871 255278 640235 11982 8923 83635 53764 58661 6111 217813 3059 3306 179971 581574 47597
internal_count=1590413 1573349 406965 17064 9844 1166384 911106 394983 3733 177170 611 369 142 7220 3914 270871 255278 640235 11982 8923 83635 53764 58661 6111 217813 3059 3306 179971 581574 47597
is_linear=0
shrinkage=0.0636454


Tree=4
num_leaves=31
num_cat=0
split_feature=142 202 140 42 107 86 106 202 78 18 140 148 211 70 60 8 172 140 119 47 33 172 190 92 119 147 7 70 115 124
split_gain=0.117725 0.0645031 0.036607 0.0251292 0.023427 0.0228503 0.0318241 0.0257109 0.0186268 0.0162476 0.0146411 0.0138842 0.011649 0.0115659 0.0113718 0.0110878 0.0102566 0.0097849 0.0089729 0.00876747 0.00803954 0.0107991 0.025585 0.00726245 0.00651496 0.00602563 0.00593034 0.00588028 0.00558799 0.00547272
threshold=-0.0010104179382324217 -0.019645690917968747 0.0032663345336914067 -0.019813537597656247 0.13885498046875003 0.011386871337890627 0.065063476562500014 0.024024963378906253 -0.00015860795974731443 3.1220703125000004 -5.2839517593383782e-05 -0.0008213520050048827 -0.010204315185546873 -0.010616302490234373 -0.010128021240234373 3.8743019104003912e-07 -0.0044155120849609366 0.0012946128845214846 0.48901367187500006 -0.035537719726562493 49.515625000000007 0.018730163574218753 0.014827728271484377 -0.0030946731567382808 0.065643310546875014 -0.0011477470397949217 0.0014548301696777346 0.031044006347656253 -0.067932128906249986 -0.010074615478515623
decision_type=6 6 4 4 4 4 4 6 6 6 6 6 4 4 6 6 4 6 4 6 6 6 6 4 6 6 6 4 6 4
left_child=1 2 4 20 17 8 7 25 14 -4 23 -11 15 -14 -5 19 27 -1 -10 -8 21 28 -23 -9 -17 -7 -18 -3 -2 -6
right_child=3 16 9 5 29 6 12 10 18 11 -12 -13 13 -15 -16 24 26 -19 -20 -21 -22 22 -24 -25 -26 -27 -28 -29 -30 -31
leaf_value=7.6910541766525393e-05 -0.00019166692874150832 3.5485256904266628e-05 0.00017013599247974641 -4.2135870574348683e-05 6.7650355069401308e-05 -8.4151021510117012e-05 0.00013890904816696219 -0.00012117813046553953 8.445577190887812e-08 1.9605911356461654e-05 -5.4827835678357348e-06 0.00077580289348939144 -0.00014598510218176298 -2.7710236171957893e-05 -1.267067998863382e-05 -9.210436459431998e-06 1.0342143653332912e-05 0.00017777114552101404 5.0497613099759134e-05 2.1174011869589453e-05 -5.7986435147492472e-06 -8.7579181357619565e-05 -0.00092386789495651448 -0.00026799081144942221 -0.00010953280166530674 -2.5356921311377879e-05 -2.2695837410616404e-05 1.4498558077280231e-05 -5.8515928271763667e-05 2.1342152933247975e-06
leaf_weight=12416 2647 120796 10196 63793 7529 14522 3129 3133 371706 234 1996 381 3644 74006 355834 26829 292252 7023 14918 19897 2599 565 253 4709 3032 17143 23358 108410 4112 19351
leaf_count=12416 2647 120796 10196 63793 7529 14522 3129 3133 371706 234 1996 381 3644 74006 355834 26829 292252 7023 14918 19897 2599 565 253 4709 3032 17143 23358 108410 4112 19351
internal_value=0 2.2181e-05 8.6618e-05 -1.35213e-05 6.11675e-05 -1.24561e-05 -3.35604e-05 -8.22829e-05 -7.92021e-06 0.000193204 -0.000173351 0.000531506 -1.78677e-05 -3.36018e-05 -1.72127e-05 4.73781e-06 1.53757e-05 0.000114712 2.09774e-06 3.83218e-05 -0.000113331 -0.000146745 -0.000379695 -0.000212723 -2.02813e-05 -5.31523e-05 7.8138e-06 2.56736e-05 -0.000114579 2.14642e-05
internal_weight=0 601946 57130 988467 46319 978291 172040 41503 806251 10811 9838 615 130537 77650 419627 52887 544816 19439 386624 23026 10176 7577 818 7842 29861 31665 315610 229206 6759 26880
internal_count=1590413 601946 57130 988467 46319 978291 172040 41503 806251 10811 9838 615 130537 77650 419627 52887 544816 19439 386624 23026 10176 7577 818 7842 29861 31665 315610 229206 6759 26880
is_linear=0
shrinkage=0.0636454


Tree=5
num_leaves=31
num_cat=0
split_feature=142 142 142 4 84 202 84 104 190 87 87 142 40 120 50 180 63 162 7 124 210 55 78 91 202 4 172 185 134 140
split_gain=0.100017 0.0881601 0.0589661 0.0209682 0.0546262 0.0206414 0.0179442 0.0153966 0.0153097 0.0147997 0.0186032 0.0134953 0.0113016 0.00955074 0.00952214 0.00863755 0.0100801 0.0162323 0.00838252 0.00780344 0.00773964 0.00749541 0.00715278 0.00755725 0.00693319 0.00644846 0.00639686 0.00566782 0.00553298 0.00663427
threshold=-0.036666870117187493 -0.0042743682861328116 0.0032205581665039067 -5.6326389312744132e-06 0.013660430908203127 0.0076694488525390634 -0.00057625770568847645 0.035140991210937507 0.0014204978942871096 -0.064788818359374986 0.10510253906250001 -0.0007278919219970702 59.890625000000007 -0.0084114074707031233 -0.00064539909362792958 -0.00047504901885986323 -0.055465698242187493 0.00035631656646728521 -0.00052809715270996083 0.0045986175537109384 -0.0033540725708007808 -0.041625976562499993 -0.0029115676879882808 0.028396606445312503 0.0098915100097656267 4.6789646148681649e-06 -0.0017170906066894529 0.035995483398437507 -0.0028238296508789058 0.00030457973480224615
decision_type=4 6 6 6 6 6 4 4 6 4 6 6 4 4 6 6 6 6 6 4 6 6 4 4 6 4 4 4 6 4
left_child=15 7 11 6 13 -6 27 18 -7 14 28 -3 -8 24 -9 16 -1 -18 -2 -14 -17 -22 23 -13 -5 -23 -15 -4 29 -11
right_child=1 2 3 4 5 8 12 9 -10 10 -12 22 19 26 -16 20 17 -19 -20 -21 21 25 -24 -25 -26 -27 -28 -29 -30 -31
leaf_value=0 0.00010615708351346611 8.1064459356533719e-06 -5.859883072498187e-05 -3.6078706466044772e-05 -2.4001178756213915e-05 -0.00011756909699119548 -1.5363189834959796e-05 0.00014579463102659063 -0.00023477549983790777 -1.85457464338835e-05 -0.00023917365702736364 -1.2383091322503563e-05 0.00016852784267571113 4.1789600225955041e-05 -5.0158632930023526e-05 0 0 0.00070179265337203076 5.0028066840101294e-05 2.380999732015308e-05 0 0.00022918396151565425 -2.7966518028338223e-06 -5.4980134327224595e-05 -0.00014755014938422622 0.00051139433817236357 -2.5095272678410504e-05 -0.0001638370054215678 3.358703333809133e-05 3.4922615890735e-05
leaf_weight=57 17488 468653 14233 6308 6710 16327 111231 6398 7433 21625 1070 101684 1866 6030 970 303 150 677 37385 12188 382 2282 541753 21054 4460 683 71286 2944 90395 16388
leaf_count=57 17488 468653 14233 6308 6710 16327 111231 6398 7433 21625 1070 101684 1866 6030 970 303 150 677 37385 12188 382 2282 541753 21054 4460 683 71286 2944 90395 16388
internal_value=0 -8.6477e-07 -6.44571e-06 -3.37183e-05 -5.35967e-05 -0.000127292 -1.69913e-05 3.95821e-05 -0.000155355 2.78352e-05 2.25894e-05 -1.40355e-07 -8.39202e-06 -2.7804e-05 0.000116432 0.000298429 0.000507043 0.000569246 6.83973e-05 4.49102e-05 0.000240496 0.000269135 -5.99615e-06 -1.99044e-05 -8.47018e-05 0.000303305 -1.95387e-05 -7.81781e-05 2.49782e-05 3.8158e-06
internal_weight=0 1.58588e+06 1.39416e+06 261016 118554 30470 142462 191719 23760 136846 129478 1.13314e+06 125285 88084 7368 4534 884 827 54873 14054 3650 3347 664491 122738 10768 2965 77316 17177 128408 38013
internal_count=1590413 1585879 1394160 261016 118554 30470 142462 191719 23760 136846 129478 1133144 125285 88084 7368 4534 884 827 54873 14054 3650 3347 664491 122738 10768 2965 77316 17177 128408 38013
is_linear=0
shrinkage=0.0636454


Tree=6
num_leaves=31
num_cat=0
split_feature=172 172 35 24 84 142 63 93 146 84 87 187 148 84 132 93 142 202 121 34 4 130 135 7 107 111 129 22 61 87
split_gain=0.101594 0.0713508 0.0570029 0.0285546 0.0239973 0.0220526 0.0190351 0.0159926 0.0148598 0.0220462 0.0140773 0.0136993 0.0226719 0.0132092 0.0119217 0.0113933 0.00999317 0.00925618 0.0116183 0.00901292 0.00843023 0.00768199 0.0068896 0.00683058 0.00664116 0.00652012 0.0127627 0.00874759 0.0061097 0.00717491
threshold=-0.0075321197509765616 0.020744323730468753 52.765625000000007 0.073883056640625014 0.013660430908203127 0.0026483535766601567 -0.10086059570312499 0.050933837890625007 0.0013298988342285158 -0.027610778808593747 0.014060974121093752 0.086639404296875014 -0.014987945556640623 -0.0012211799621582029 -0.0005047321319580077 0.10687255859375001 -0.00033843517303466791 -0.010120391845703123 -0.049804687499999993 48.390625000000007 4.3213367462158212e-06 0.0015091896057128908 -0.0059413909912109366 -0.0016407966613769529 -0.10739135742187499 -0.10195922851562499 -0.017097473144531247 1.5981445312500002 -0.020469665527343747 -0.082672119140624986
decision_type=6 4 4 6 6 4 4 4 6 4 6 4 6 4 6 4 6 6 4 6 4 6 6 6 6 4 6 4 4 6
left_child=3 5 4 6 19 16 17 10 -5 20 22 -4 24 -7 -12 -15 -2 18 -1 28 -10 -22 -6 -23 -13 26 -8 -28 29 -3
right_child=1 2 11 8 7 13 25 -9 9 -11 14 12 -14 15 -16 -17 -18 -19 -20 -21 21 23 -24 -25 -26 -27 27 -29 -30 -31
leaf_value=0.00071647201479783679 6.2233697002614496e-06 0 0 5.3683508147966753e-05 -0.000264427267468995 -5.921134905609057e-05 -0.00037924223453085346 1.4099640814758721e-05 0.00017922505774119248 8.3252002353463854e-05 -0.00030362494517127464 -0.00086109717530569413 0 -2.000335120266662e-05 -0.00010919179603403012 2.1283753920126476e-05 -6.0082916909770701e-06 -1.8354658863736529e-05 0.0001642248182499869 2.2660707708991473e-05 0 0.00090427006212852887 -3.8757474564813806e-05 0.00033427239408819647 0 2.428033811399615e-05 0 0.00046305939984080894 -5.0985587271404514e-05 -0.00034947093444720625
leaf_weight=313 582195 168 19287 31386 866 30955 88 996 4438 15900 8040 237 676 207077 2072 30550 504814 175 682 2895 138 181 2595 1045 92 138929 180 510 2127 806
leaf_count=313 582195 168 19287 31386 866 30955 88 996 4438 15900 8040 237 676 207077 2072 30550 504814 175 682 2895 138 181 2595 1045 92 138929 180 510 2127 806
internal_value=0 -6.01064e-06 -8.89029e-05 4.31459e-05 -0.00016368 -3.49283e-06 2.78735e-05 -0.000208406 8.31769e-05 0.000124614 -0.000226666 -1.18197e-05 -0.000240694 -1.98262e-05 -0.000266405 -1.45848e-05 5.18774e-07 0.000285541 0.000365244 -5.05998e-05 0.000233384 0.000389924 -0.000102908 0.000440992 -0.000673756 2.55242e-05 0.00021344 0.000327738 -0.000127422 -0.000267056
internal_weight=0 1.39645e+06 40857 193965 20565 1.35559e+06 140877 14569 53088 21702 13573 20292 1005 268582 10112 237627 1.08701e+06 1170 995 5996 5802 1364 3461 1226 329 139707 778 690 3101 974
internal_count=1590413 1396448 40857 193965 20565 1355591 140877 14569 53088 21702 13573 20292 1005 268582 10112 237627 1087009 1170 995 5996 5802 1364 3461 1226 329 139707 778 690 3101 974
is_linear=0
shrinkage=0.0636454


Tree=7
num_leaves=31
num_cat=0
split_feature=142 172 143 166 132 94 73 85 103 176 146 138 118 172 78 120 7 104 86 80 153 172 1 93 199 107 126 166 91 81
split_gain=0.0747064 0.0760145 0.0342063 0.0222203 0.0180504 0.0235362 0.0309776 0.0269489 0.0218106 0.0219706 0.0136639 0.0159673 0.0128284 0.0120088 0.0117127 0.015693 0.00983521 0.0148154 0.00853755 0.0081172 0.00810648 0.00687133 0.0083169 0.00949107 0.00674593 0.00620342 0.00588423 0.00763142 0.00575995 0.00533053
threshold=0.00031554698944091802 -0.010570526123046873 0.014774322509765627 -0.0029573440551757808 -0.0018830299377441404 0.025642395019531253 -0.053909301757812493 0.045349121093750007 0.023643493652343753 0.0082817077636718767 0.0017695426940917971 0.0016360282897949221 -0.10220336914062499 0.013996124267578127 -0.00035846233367919916 -0.022010803222656247 -0.00061202049255371083 -0.0069561004638671866 0.025184631347656253 0.011837005615234377 0.017326354980468753 -0.0022745132446289058 4.5683593750000009 -0.070037841796874986 -0.0018067359924316404 -0.15753173828124997 -0.010868072509765623 -9.9837779998779283e-05 1.0000000180025095e-35 -0.041625976562499993
decision_type=6 6 4 6 6 4 4 6 4 6 6 6 4 6 4 6 6 6 4 4 4 6 4 6 6 6 6 4 6 4
left_child=1 3 14 12 5 6 8 -8 9 -4 -5 -12 -1 -9 15 -2 17 -13 20 24 -16 -3 -23 -24 -7 -26 -6 -28 -29 -14
right_child=2 21 4 10 26 19 7 13 -10 -11 11 16 29 -15 18 -17 -18 -19 -20 -21 -22 22 23 -25 25 -27 27 28 -30 -31
leaf_value=0.00034481109696687441 -8.3245892974340217e-05 1.1396047696235988e-05 -0.0015871937852993667 6.9984998319677047e-05 -0.00015212426197186327 0 -8.2641469888985412e-05 8.9353902058980345e-06 0 0 7.2768999858007456e-05 0.00015698289713553029 9.9946352362532484e-05 -0.00030650767148477043 -2.7397048829523745e-06 -1.6976806036973496e-05 0.00011739123326756103 0.00040977458098350486 -4.4503108126596419e-05 -8.4287085077792441e-05 4.4542317162817915e-05 6.6959253620022098e-08 -0.00064051628318687428 -4.9359149814546754e-05 0.00022585880507403338 -5.6028365420613812e-05 -5.8346646121704988e-05 2.2599320803525829e-05 -4.8033547298803505e-05 2.6462075380982616e-05
leaf_weight=558 15557 391130 144 29199 1671 2509 14337 378 84 63 7357 2638 4709 3804 290447 273424 3678 2080 18839 2771 15461 417718 170 689 1270 240 16542 14205 6966 51775
leaf_count=558 15557 391130 144 29199 1671 2509 14337 378 84 63 7357 2638 4709 3804 290447 273424 3678 2080 18839 2771 15461 417718 170 689 1270 240 16542 14205 6966 51775
internal_value=0 1.18869e-05 -1.6002e-05 6.36905e-05 -6.00052e-05 -0.000102089 -0.000138751 -0.000126781 -0.000805443 -0.00115449 9.7511e-05 0.000146853 3.65761e-05 -0.000271734 -1.12998e-05 -2.06356e-05 0.000208616 0.000274102 -2.91139e-06 0 -2.64007e-07 5.32902e-06 -2.77529e-07 -0.000197921 5.72575e-05 0.00016369 -3.19812e-05 -2.59553e-05 0 3.30558e-05
internal_weight=0 911701 678712 101994 64984 25600 18810 18519 291 207 44952 15753 57042 4182 613728 288981 8396 4718 324747 6790 305908 809707 418577 859 4019 1510 39384 37713 21171 56484
internal_count=1590413 911701 678712 101994 64984 25600 18810 18519 291 207 44952 15753 57042 4182 613728 288981 8396 4718 324747 6790 305908 809707 418577 859 4019 1510 39384 37713 21171 56484
is_linear=0
shrinkage=0.0636454


Tree=8
num_leaves=31
num_cat=0
split_feature=142 142 140 208 88 136 29 72 102 205 160 168 133 153 125 173 132 211 35 7 169 165 141 78 4 124 154 173 202 173
split_gain=0.0669605 0.0836787 0.0259628 0.0199805 0.0210034 0.0178793 0.0135773 0.0133368 0.0124441 0.00990443 0.00975351 0.00959805 0.0140105 0.0132641 0.00954682 0.00908421 0.00898583 0.0089559 0.00927102 0.00873498 0.0078866 0.00829727 0.00786368 0.00776826 0.00755949 0.021846 0.00726638 0.0072132 0.00689325 0.00667219
threshold=0.0044803619384765634 -0.0067272186279296866 -0.0018525123596191404 -0.040451049804687493 -0.039077758789062493 0.0019559860229492192 53.390625000000007 -0.00056815147399902333 0.0019750595092773442 -0.054855346679687493 0.0056591033935546884 -0.0043392181396484366 0.00060629844665527355 0.0021448135375976567 -0.098724365234374986 0.013896942138671877 0.0020761489868164067 -0.0082359313964843733 61.578125000000007 -0.00018662214279174802 -0.042800903320312493 0.00026142597198486334 -0.0015330314636230467 -0.0025358200073242183 5.0663948059082042e-07 -0.0048274993896484366 -0.00063729286193847645 0.00082755088806152355 0.012645721435546877 0.0036325454711914067
decision_type=6 4 4 6 6 4 6 4 4 6 4 6 6 6 6 6 6 6 4 6 6 4 6 6 4 6 6 4 6 6
left_child=1 3 5 6 24 11 14 9 26 23 -7 12 13 15 22 -2 -6 18 -10 -9 21 -12 -1 -3 -5 -26 28 -21 -4 -13
right_child=2 7 8 4 16 10 -8 19 17 -11 20 29 -14 -15 -16 -17 -18 -19 -20 27 -22 -23 -24 -25 25 -27 -28 -29 -30 -31
leaf_value=2.7510464989478297e-05 -0.00013425263659428387 -4.8596819446689527e-05 -4.5523698461957458e-05 0.0001539112907593746 5.0150731776699803e-05 -2.0184159340755236e-05 -1.9988427028784633e-05 1.753960904925903e-05 1.2098989680775232e-05 -3.7403861105012352e-06 0 -1.2912054508508365e-05 -2.0308741785964033e-05 -4.396360687357546e-05 3.9469456544477073e-05 -0.00036335284013480488 0.00013155261855835794 -2.366433183387519e-05 0.00033117643828458877 7.9444132438660763e-06 -9.4162263454842249e-05 -0.0008681891832850756 0.00016230537048904741 -5.6738791478833171e-06 0.00010384294143846791 0.00062566749829201312 -2.3485041064143059e-05 -6.8847469771740847e-06 -0.00013502468167991748 -0.00010645840319249693
leaf_weight=3344 1562 38776 9909 5233 21961 24971 12517 194915 37272 486482 163 4882 2149 1537 45104 2663 8393 57612 379 320958 4222 128 5497 33263 936 663 19199 225484 6787 13452
leaf_count=3344 1562 38776 9909 5233 21961 24971 12517 194915 37272 486482 163 4882 2149 1537 45104 2663 8393 57612 379 320958 4222 128 5497 33263 936 663 19199 225484 6787 13452
internal_value=0 4.75067e-06 -3.5803e-05 5.97862e-05 9.76063e-05 -7.23772e-05 3.82288e-05 3.42059e-07 -2.00618e-05 -7.06385e-06 -3.70136e-05 -0.0001111 -0.000172914 -0.000225255 5.22236e-05 -0.000284953 7.35293e-05 -7.70315e-06 1.60232e-05 5.95688e-06 -0.000124278 -0.000468353 0.000114303 -2.91425e-05 0.000200692 0.000337057 -5.2128e-05 1.7773e-06 -8.34879e-05 -8.29832e-05
internal_weight=0 1.40353e+06 186887 103648 37186 55729 66462 1.29988e+06 131158 558521 29484 26245 7911 5762 53945 4225 30354 95263 37651 741357 4513 291 8841 72039 6832 1599 35895 546442 16696 18334
internal_count=1590413 1403526 186887 103648 37186 55729 66462 1299878 131158 558521 29484 26245 7911 5762 53945 4225 30354 95263 37651 741357 4513 291 8841 72039 6832 1599 35895 546442 16696 18334
is_linear=0
shrinkage=0.0636454


Tree=9
num_leaves=31
num_cat=0
split_feature=142 173 142 70 85 18 132 132 109 152 140 202 178 137 179 72 211 195 78 187 110 181 135 138 196 78 119 140 102 89
split_gain=0.0619292 0.0440798 0.0427596 0.033346 0.0290029 0.019442 0.0140352 0.0188023 0.0203276 0.0137726 0.0151694 0.0101607 0.0161484 0.0100574 0.0146689 0.00954964 0.00836893 0.00810629 0.00739544 0.0090229 0.0119265 0.00816572 0.00689809 0.0065161 0.00903284 0.00631408 0.00898564 0.00622567 0.00764291 0.00549164
threshold=8.5622072219848646e-05 -0.022163391113281247 0.0082511901855468767 -0.0040950775146484366 -0.060134887695312493 0.17205810546875003 -0.00028717517852783198 -0.0034971237182617183 -0.053909301757812493 -0.011508941650390623 -0.0014872550964355467 0.038864135742187507 0.010517120361328127 0.0023031234741210942 -0.018852233886718747 -0.0020036697387695308 -0.0047893524169921866 0.0016036033630371096 -0.0026216506958007808 0.043807983398437507 -0.0020570755004882808 0.0062694549560546884 0.0022363662719726567 0.00023490190505981448 -0.038818359374999993 -0.0041599273681640616 0.23205566406250003 0.00036227703094482427 -0.0091133117675781233 0.028396606445312503
decision_type=6 6 4 4 4 6 6 6 4 6 6 6 4 4 4 6 6 6 4 4 4 6 6 6 4 6 4 6 6 6
left_child=1 4 15 6 13 -6 7 8 -4 18 11 -11 -13 22 -15 25 17 -12 -5 21 -21 -20 -1 24 29 26 -2 -7 -29 -3
right_child=2 23 3 9 5 27 -8 -9 -10 10 16 12 -14 14 -16 -17 -18 -19 19 20 -22 -23 -24 -25 -26 -27 -28 28 -30 -31
leaf_value=0.00025285018051373568 -2.6543493993263616e-05 -1.4220800712122016e-05 -0.0011444528485723296 -4.9825071519356902e-05 2.3973276285426987e-05 5.6463733246133432e-05 -5.9420721644371996e-05 -0.00011778868754892684 -0.00026872011200802733 -6.1392091206319716e-05 5.4452202591908208e-05 -0.00035401235429096485 -8.2595870337143397e-05 -0.00013796999799733063 0.00032464911326164192 -2.8989015609125743e-06 -4.7686879758277239e-05 -3.748653103604037e-05 0.00019001443987540722 0.00039845107661863751 -0.00015196244255402552 0 -0.00023430225811315987 1.4194159073233874e-05 3.1293307815590896e-06 -9.9742174385124381e-06 -0.00010377729390534064 4.405766156381583e-05 0.00017270027678804113 -0.00028448753087151796
leaf_weight=195 74220 943 132 1966 35300 8038 6891 7038 3293 20946 9485 1435 3367 222 2913 451225 16681 6280 2969 173 1012 940 278 349520 448821 117278 6997 3253 7898 704
leaf_count=195 74220 943 132 1966 35300 8038 6891 7038 3293 20946 9485 1435 3367 222 2913 451225 16681 6280 2969 173 1012 940 278 349520 448821 117278 6997 3253 7898 704
internal_value=0 1.15813e-05 -1.36159e-05 -5.67987e-05 6.51694e-05 5.2975e-05 -0.000135746 -0.00018349 -0.00031071 -3.53977e-05 -4.58122e-05 -8.254e-05 -0.000169267 0.000241947 0.000283466 -8.08493e-06 -1.58549e-05 1.61644e-05 4.6722e-05 8.91361e-05 -4.90205e-05 0.000137729 0 7.65663e-06 2.52586e-06 -1.97417e-05 -3.35225e-05 0.000104952 0.000137538 -0.000145839
internal_weight=0 858085 732328 82608 58097 54489 17354 10463 3425 65254 58194 25748 4802 3608 3135 649720 32446 15765 7060 5094 1185 3909 473 799988 450468 198495 81217 19189 11151 1647
internal_count=1590413 858085 732328 82608 58097 54489 17354 10463 3425 65254 58194 25748 4802 3608 3135 649720 32446 15765 7060 5094 1185 3909 473 799988 450468 198495 81217 19189 11151 1647
is_linear=0
shrinkage=0.0636454


Tree=10
num_leaves=31
num_cat=0
split_feature=142 172 84 38 85 211 78 142 194 97 36 157 82 139 4 169 148 86 7 144 203 139 82 183 21 29 167 132 7 213
split_gain=0.0955175 0.0377849 0.0313516 0.0246468 0.0219161 0.0208378 0.017621 0.0176689 0.0113688 0.0161841 0.00818754 0.00790124 0.00760695 0.00721041 0.00708086 0.00938185 0.00832301 0.00696701 0.00688862 0.00916781 0.00694852 0.00684031 0.00673729 0.00667781 0.00645432 0.00628201 0.0059322 0.00551696 0.00538347 0.00521205
threshold=-0.011241912841796873 0.0099830627441406267 -0.027610778808593747 41.390625000000007 0.078399658203125014 0.0001229047775268555 -0.0065174102783203116 -0.0010104179382324217 -0.013973236083984373 -0.060653686523437493 54.953125000000007 -0.075714111328124986 -0.0029134750366210933 -0.0085639953613281233 9.2089176177978533e-06 -0.0013575553894042967 0.0063228607177734384 0.050460815429687507 7.9005956649780287e-05 0.0035123825073242192 -0.025718688964843747 -0.0045413970947265616 0.018287658691406253 -0.00048553943634033198 0.90161132812500011 55.953125000000007 0.015239715576171877 -0.0034685134887695308 0.0025339126586914067 0.010875701904296877
decision_type=4 6 4 6 6 4 4 6 4 4 4 6 4 4 4 6 4 4 6 4 6 6 6 4 6 6 4 6 6 4
left_child=2 6 18 5 17 8 10 -8 9 -3 13 29 -13 -2 15 27 -17 26 -1 -20 -21 -4 -19 -16 -10 -11 -5 -7 -6 -12
right_child=1 3 21 4 28 14 7 -9 24 25 11 12 -14 -15 23 16 -18 22 19 20 -22 -23 -24 -25 -26 -27 -28 -29 -30 -31
leaf_value=0.00020136918695645793 -6.4016414453423205e-05 -0.0010102734747458669 -1.9039851855875495e-06 -6.5637895692730592e-05 -0.00023619580634630751 -0.000323568662102976 1.1638450653186046e-05 -3.4948416986249573e-06 1.7093224422011615e-07 -8.9460735168685762e-05 0.00029939601105632058 -9.6267159846645853e-05 -1.418222717816058e-05 -5.6258985509263066e-06 3.0375182824019863e-06 6.3836097307549581e-05 -0.00010229770993181723 -0.00027705027231499058 -0.00012512351090460835 0.00040028784193738758 0 7.228727325095792e-05 -6.1377659222563871e-05 -6.824114210415002e-05 5.0375270430683196e-05 0.0002351541555398237 -9.9876878708381649e-06 -0.00011856724368156644 -0.00071856155381955049 0
leaf_weight=10269 10289 78 5345 41351 906 870 507535 809738 23234 3471 307 14836 7789 60150 10671 2022 2750 1277 642 345 251 27121 1873 9464 20431 220 10983 4361 209 1625
leaf_count=10269 10289 78 5345 41351 906 870 507535 809738 23234 3471 307 14836 7789 60150 10671 2022 2750 1277 642 345 251 27121 1873 9464 20431 220 10983 4361 209 1625
internal_value=0 -2.65953e-06 9.24655e-05 -3.49382e-05 -6.6968e-05 -1.12291e-05 3.88539e-07 2.31599e-06 1.46332e-05 -8.9939e-05 -2.60621e-05 -5.80724e-05 -6.91709e-05 -1.45288e-05 -5.28024e-05 -9.77447e-05 -2.64105e-05 -6.07738e-05 0.000183833 1.71364e-05 0.000214173 5.92655e-05 -0.000157242 -2.91658e-05 2.42636e-05 -6.29033e-05 -5.44609e-05 -0.000157775 -0.000351114 5.82767e-05
internal_weight=0 1.54644e+06 43973 134171 56599 77572 1.41227e+06 1.31727e+06 47434 3769 94996 24557 22625 70439 30138 10003 4772 55484 11507 1238 596 32466 3150 20135 43665 3691 52334 5231 1115 1932
internal_count=1590413 1546440 43973 134171 56599 77572 1412269 1317273 47434 3769 94996 24557 22625 70439 30138 10003 4772 55484 11507 1238 596 32466 3150 20135 43665 3691 52334 5231 1115 1932
is_linear=0
shrinkage=0.0636454


Tree=11
num_leaves=31
num_cat=0
split_feature=142 142 78 85 146 46 90 18 212 107 154 140 202 85 60 169 4 7 91 199 192 85 69 189 194 112 146 133 78 205
split_gain=0.0862763 0.0321076 0.0175509 0.023373 0.0198796 0.0190154 0.0175086 0.014991 0.0138864 0.0127614 0.0098807 0.00952117 0.00946274 0.00808048 0.0156822 0.0077602 0.00878315 0.00805054 0.00742373 0.0134007 0.0136432 0.0066749 0.00662669 0.00638883 0.00627291 0.00623726 0.00622739 0.00603974 0.0058151 0.0062925
threshold=-0.011577606201171873 0.0014758110046386721 -0.0051021575927734366 0.052780151367187507 -0.0055217742919921866 -0.0007221698760986327 0.0037908554077148442 0.43664550781250006 -0.021980285644531247 -0.11557006835937499 -0.0036382675170898433 -0.0019788742065429683 -0.0082206726074218733 -0.045196533203124993 -0.0027971267700195308 0.0072345733642578134 -4.2021274566650382e-06 -0.00034344196319580073 -0.065826416015624986 -0.0022554397583007808 0.00042998790740966802 -0.025466918945312497 -0.034011840820312493 -0.027397155761718747 -0.0024576187133789058 -0.011074066162109373 0.00036799907684326177 0.034317016601562507 0.0018029212951660158 -0.029777526855468747
decision_type=4 6 4 6 6 4 6 6 6 6 6 4 6 4 6 6 6 6 4 6 6 4 6 4 6 6 6 6 4 6
left_child=7 12 10 8 5 -5 -6 13 -4 27 23 22 28 14 -1 17 -17 -11 19 20 -12 -14 -10 25 -8 -3 -15 -9 29 -2
right_child=1 2 3 4 6 -7 24 9 11 15 18 -13 21 26 -16 16 -18 -19 -20 -21 -22 -23 -24 -25 -26 -27 -28 -29 -30 -31
leaf_value=0.00024375290894896893 -1.5856552035483991e-05 -0.00024802938726951651 3.2840466293328586e-05 -0.00063846782891193701 8.0731087369653884e-07 -0.00013075633348618449 -0.00032622959198624381 3.4947336715610163e-05 -1.3140853128273151e-05 0.00019819590492000064 -0.0008021854747524012 -8.2467545577981784e-06 4.2071819739492226e-05 0 0 0.00065920577186654404 0.00021772119842604525 7.2494268132248745e-05 -2.6665611807448188e-05 7.3074936152151077e-05 0 -5.8378489796284891e-07 -5.8539898514173041e-05 -6.7187397953916706e-05 -5.796521085898696e-05 -4.6353149170839385e-05 6.9561765637075258e-05 -0.00045426222866512046 2.7983232818737799e-05 1.380471408311801e-05
leaf_weight=2584 36529 1994 28867 556 4449 1044 1127 2578 26985 5394 228 299867 15125 8748 2146 302 1827 4771 41493 161 117 828353 28933 15699 924 1443 13241 102 84345 130481
leaf_count=2584 36529 1994 28867 556 4449 1044 1127 2578 26985 5394 228 299867 15125 8748 2146 302 1827 4771 41493 161 117 828353 28933 15699 924 1443 13241 102 84345 130481
internal_value=0 -2.46895e-06 -1.67114e-05 -1.16854e-05 -0.000118945 -0.000324082 -6.43389e-05 9.0308e-05 -9.35798e-06 0.000142601 -4.85695e-05 -1.28557e-05 3.41161e-06 6.00123e-05 0.000138 0.000170185 0.000293161 0.000141801 -3.0328e-05 -0.000277836 -0.000516765 1.5009e-07 -3.71014e-05 -8.72279e-05 -0.000218309 -0.000171054 4.20338e-05 6.25401e-06 1.42519e-05 7.15993e-06
internal_weight=0 1.54872e+06 453887 392752 8100 1600 6500 41693 384652 14974 61135 355785 1.09483e+06 26719 4730 12294 2129 10165 41999 506 345 843478 55918 19136 2051 3437 21989 2680 251355 167010
internal_count=1590413 1548720 453887 392752 8100 1600 6500 41693 384652 14974 61135 355785 1094833 26719 4730 12294 2129 10165 41999 506 345 843478 55918 19136 2051 3437 21989 2680 251355 167010
is_linear=0
shrinkage=0.0636454


Tree=12
num_leaves=31
num_cat=0
split_feature=142 142 87 4 172 173 118 132 166 160 157 38 138 90 121 130 61 4 132 208 203 89 94 211 36 78 42 36 197 180
split_gain=0.0548038 0.0285735 0.0244996 0.0173548 0.0155659 0.0191398 0.0197049 0.0181501 0.012626 0.0121005 0.00971548 0.00834558 0.0106037 0.00825278 0.00792347 0.00783424 0.0084396 0.0137166 0.00745018 0.00742602 0.0107735 0.00944419 0.00735136 0.00727834 0.00836818 0.00669926 0.0063243 0.00622635 0.00582433 0.0101295
threshold=-0.0025377273559570308 0.0047206878662109384 -0.064788818359374986 -4.9173831939697257e-06 0.00050711631774902355 0.037673950195312507 0.0017523765563964846 -0.0015721321105957029 -0.0027856826782226558 -0.016120910644531247 -0.0077037811279296866 19.664062500000004 -0.0013051033020019529 -0.0017981529235839842 0.11126708984375001 0.0024576187133789067 -0.12051391601562499 -7.5101852416992179e-06 -0.0023374557495117183 0.031646728515625007 -0.041091918945312493 -0.070037841796874986 -0.0036287307739257808 -0.0044307708740234366 56.640625000000007 -0.00012701749801635739 -0.0041866302490234366 59.765625000000007 0.0056400299072265634 -0.0044727325439453116
decision_type=6 6 4 6 6 6 6 6 6 6 6 4 6 6 4 6 6 6 6 4 6 4 6 6 4 6 4 4 6 6
left_child=2 25 10 9 -5 26 7 -7 -4 18 11 -1 13 -13 22 -12 -17 -18 -3 20 21 -10 -14 24 -11 27 -6 -2 -25 -30
right_child=1 3 8 4 5 6 -8 -9 19 23 15 12 14 -15 -16 16 17 -19 -20 -21 -22 -23 -24 28 -26 -27 -28 -29 29 -31
leaf_value=-0.00011501693985587947 -5.1369285110317719e-06 -0.00033583627779368747 8.8914212022553675e-06 4.0896881154398093e-05 -8.6953566510522662e-05 -0.00034295321691171641 -4.2684203862215188e-05 -9.5941123955282665e-05 0.00030533586881439088 -5.6608285637036468e-06 5.983982425032106e-05 0.00023760531368563625 0.00010652056189214385 0 -6.6036778497147175e-05 0 0.00097323329812938576 0.00024108653669781597 -3.0945126801168709e-05 2.1603092095965934e-05 4.372400762209442e-05 8.3059478733539551e-05 -0.00012846589658500353 -2.9171033035138792e-05 5.6064535129234284e-05 2.5210989302459403e-06 -3.5308120574183316e-05 -2.8594741815839575e-05 0.00038354777400234451 0
leaf_weight=691 464818 745 204878 6491 13143 2777 5087 2806 1262 30826 708 2968 5920 908 1627 98 204 543 968 75781 45281 3502 494 46947 12193 552832 52390 51730 364 1431
leaf_count=691 464818 745 204878 6491 13143 2777 5087 2806 1262 30826 708 2968 5920 908 1627 98 204 543 968 75781 45281 3502 494 46947 12193 552832 52390 51730 364 1431
internal_value=0 -6.25201e-06 2.24175e-05 -3.00148e-05 -5.134e-05 -5.95418e-05 -0.000139813 -0.000223574 1.88101e-05 -1.08677e-05 0.000104797 8.31789e-05 9.68878e-05 0.000186054 5.06135e-05 0.000263134 0.000402 0.000477922 -0.000179056 3.47514e-05 5.41357e-05 0.000147539 8.43024e-05 -7.43863e-06 1.1226e-05 -2.31279e-06 -4.60683e-05 -7.537e-06 -2.44498e-05 8.43379e-05
internal_weight=0 1.24555e+06 344865 176168 82694 76203 10670 5583 330704 93474 14161 12608 11917 3876 8041 1553 845 747 1713 125826 50045 4764 6414 91761 43019 1.06938e+06 65533 516548 48742 1795
internal_count=1590413 1245548 344865 176168 82694 76203 10670 5583 330704 93474 14161 12608 11917 3876 8041 1553 845 747 1713 125826 50045 4764 6414 91761 43019 1069380 65533 516548 48742 1795
is_linear=0
shrinkage=0.0636454


Tree=13
num_leaves=31
num_cat=0
split_feature=142 87 172 107 133 107 164 211 78 138 35 212 176 190 140 89 71 165 73 172 172 137 105 21 200 202 195 148 114 137
split_gain=0.043959 0.0283285 0.023929 0.0186175 0.0175634 0.0154331 0.0143791 0.0125721 0.0124315 0.0121401 0.0118152 0.01451 0.0106816 0.00928071 0.00786207 0.0167779 0.00771429 0.00755887 0.00726194 0.00684292 0.00847352 0.00663817 0.00649975 0.00634575 0.00670946 0.00625243 0.00775847 0.00623464 0.0061992 0.00551307
threshold=-0.00065970420837402333 -0.040603637695312493 0.011951446533203127 0.15399169921875003 -0.0012946128845214842 -0.10739135742187499 -0.0036077499389648433 0.020988464355468753 -0.0063457489013671866 -0.0062236785888671866 48.296875000000007 -0.00077414512634277333 -0.0038480758666992183 0.0092506408691406267 0.0033998489379882817 -0.15521240234374997 -0.055984497070312493 0.025810241699218753 0.0034122467041015629 -0.0036058425903320308 -0.0089454650878906233 -0.0096626281738281233 0.16900634765625003 2.7490234375000004 -0.013462066650390623 0.026527404785156253 0.020652770996093753 0.0047054290771484384 0.0036382675170898442 -0.0025491714477539058
decision_type=6 4 4 4 6 6 6 6 4 6 6 6 6 6 6 4 4 6 4 6 6 6 4 4 6 4 4 4 6 6
left_child=1 5 8 4 6 14 9 13 27 16 -7 -12 -11 23 -1 17 -4 -16 -9 20 29 -8 -17 24 -5 -10 -27 -2 -25 -3
right_child=2 19 3 7 -6 10 21 18 25 12 11 -13 -14 -15 15 22 -18 -19 -20 -21 -22 -23 -24 28 -26 26 -28 -29 -30 -31
leaf_value=1.5344141783841108e-05 3.6756981036370563e-06 1.7167284385351389e-05 -0.001143294009071607 -0.00010057977633884 -2.8230003120212583e-05 5.0404882943073249e-05 1.9931740691707837e-05 -0.00015858503861803101 -4.0625168384545153e-06 -0.00027344676942007621 4.7520097813011026e-05 0.00023393832642548709 -9.5875518413934705e-05 -8.6171109853335886e-05 0.00036951600869867618 -0.00011450307856995444 -0.00030290148175195891 0 -1.6137013005856171e-06 2.1277382013574805e-06 7.8221705583654663e-06 -9.0399715688182532e-05 7.5192553660233201e-05 0.00010346350108202536 3.8690550687817597e-06 8.8534572122772155e-06 0.00014996271802972504 -4.4342003992841e-05 -2.0686641682038646e-05 4.8269043939320825e-05
leaf_weight=25064 12986 58376 92 2678 20225 7857 2360 3590 747784 2361 3138 5081 5232 4830 1093 792 495 110 2309 328223 203769 10109 4265 4810 32024 6280 2342 47212 1988 42938
leaf_count=25064 12986 58376 92 2678 20225 7857 2360 3590 747784 2361 3138 5081 5232 4830 1093 792 495 110 2309 328223 203769 10109 4265 4810 32024 6280 2342 47212 1988 42938
internal_value=0 1.21996e-05 -9.18558e-06 -3.98027e-05 -7.21328e-05 5.9751e-05 -0.000113858 -1.39975e-05 -5.66264e-06 -0.000181417 0.000111138 0.000165981 -0.000154596 -2.27279e-06 3.2536e-05 9.7156e-05 -0.000482261 0.000314104 -0.000101608 8.59907e-06 1.54752e-05 -6.7414e-05 4.02677e-05 6.86299e-06 -3.4403e-06 -3.40865e-06 5.02483e-05 -3.3548e-05 6.33034e-05 3.06081e-05
internal_weight=0 680706 909707 93103 40874 47400 20649 52229 816604 8180 16076 8219 7593 46330 31324 6260 587 1203 5899 633306 305083 12469 5057 41500 34702 756406 8622 60198 6798 101314
internal_count=1590413 680706 909707 93103 40874 47400 20649 52229 816604 8180 16076 8219 7593 46330 31324 6260 587 1203 5899 633306 305083 12469 5057 41500 34702 756406 8622 60198 6798 101314
is_linear=0
shrinkage=0.0636454


Tree=14
num_leaves=31
num_cat=0
split_feature=172 172 35 71 7 142 202 13 112 34 106 78 18 172 93 208 66 53 83 166 201 11 117 138 185 49 90 155 63 140
split_gain=0.0562782 0.0260581 0.0194423 0.0193215 0.0293338 0.0829692 0.0162943 0.0184802 0.0198457 0.0136064 0.0129259 0.0121732 0.0107856 0.00961792 0.00941924 0.00920097 0.00889117 0.00813809 0.00770612 0.0165536 0.0110285 0.0169136 0.0371676 0.00750587 0.00717362 0.00706981 0.00627961 0.00615375 0.00560918 0.0109689
threshold=-0.011882781982421873 0.011951446533203127 53.828125000000007 -0.12493896484374999 0.00051426887512207042 0.018379211425781253 -0.023750305175781247 -1.4871358871459959e-05 -0.074432373046874986 61.359375000000007 -0.0071392059326171866 -0.0042438507080078116 0.72827148437500011 -0.00087618827819824208 0.13116455078125003 -0.024299621582031247 0.0054340362548828134 -0.0011076927185058592 0.071136474609375014 -0.012683868408203123 -0.0043773651123046866 -0.0080451965332031233 -0.036544799804687493 0.00031530857086181646 -0.0068912506103515616 -0.00012725591659545896 0.0034627914428710942 9.5874071121215834e-05 -0.032501220703124993 0.00082898139953613292
decision_type=6 4 4 6 6 6 6 4 6 6 6 4 4 6 4 6 6 6 6 6 6 6 6 6 4 6 4 6 6 6
left_child=6 11 3 9 10 -6 7 8 12 16 -5 14 -1 -13 -2 17 -3 -9 20 23 26 22 -22 27 -16 -21 -4 -20 -17 -30
right_child=1 2 18 4 5 -7 -8 15 -10 -11 -12 13 -14 -15 24 28 -18 -19 19 25 21 -23 -24 -25 -26 -27 -28 -29 29 -31
leaf_value=0 -8.9854512277863837e-06 -9.741931286023113e-06 1.8832771569026201e-05 -5.8297114152045226e-05 -4.2457704254613431e-05 -0.00030582218909101268 2.6069579733590476e-05 8.3298939421127546e-05 0.000136077839662442 0.00064071028143029124 4.9290615835375219e-05 7.4171135837213201e-06 0.000909457519706033 -3.8672256318585233e-06 5.7016221522524862e-07 0 -0.00039728792382677134 3.4705997124230062e-06 -0.00046832405184285368 0.0002537610879944459 0.00073256159631657127 2.7225704714215722e-05 4.4020932407528108e-05 -2.5552487370870632e-05 -6.4387906560258563e-05 -4.3935990313242582e-05 -5.7366223022187922e-05 0 1.635327763473769e-05 0.00016909552829251563
leaf_weight=63 139237 27258 7827 13898 15043 7362 54344 11507 950 126 6473 591224 292 631322 8437 1093 245 10708 648 505 465 13504 1300 620 24807 604 9012 209 2982 8348
leaf_count=63 139237 27258 7827 13898 15043 7362 54344 11507 950 126 6473 591224 292 631322 8437 1093 245 10708 648 505 465 13504 1300 620 24807 604 9012 209 2982 8348
internal_value=0 -2.96674e-06 -3.35324e-05 -5.27811e-05 -7.96718e-05 -0.000130184 4.87714e-05 8.23625e-05 0.000323253 -1.01963e-05 -2.28215e-05 -6.45135e-07 0.00074741 1.56843e-06 -1.64869e-05 7.25133e-05 -1.41738e-05 4.60045e-05 4.77398e-06 -9.96666e-05 1.40078e-05 5.36604e-05 0.00024083 -0.000243378 -4.7114e-05 6.82004e-05 -2.0392e-05 -0.000370035 0.000117792 0.000131218
internal_weight=0 1.50013e+06 105099 70405 42776 22405 90287 35943 1305 27629 20371 1.39503e+06 355 1.22255e+06 172481 34638 27503 22215 34694 2586 32108 15269 1765 1477 33244 1109 16839 857 12423 11330
internal_count=1590413 1500126 105099 70405 42776 22405 90287 35943 1305 27629 20371 1395027 355 1222546 172481 34638 27503 22215 34694 2586 32108 15269 1765 1477 33244 1109 16839 857 12423 11330
is_linear=0
shrinkage=0.0636454


Tree=15
num_leaves=31
num_cat=0
split_feature=172 87 142 85 123 206 175 24 208 191 120 149 105 208 99 105 20 54 116 18 93 184 53 12 190 126 168 211 12 68
split_gain=0.0519219 0.0319751 0.0156981 0.0144854 0.0127561 0.0274657 0.0126783 0.0138349 0.015643 0.013239 0.014319 0.01116 0.0103317 0.0101003 0.00971393 0.0112589 0.00881604 0.00825982 0.00832561 0.00820905 0.00762668 0.00715119 0.00664672 0.00946746 0.00660995 0.00629582 0.00579813 0.00564006 0.0046936 0.00422365
threshold=-0.012210845947265623 0.092742919921875014 -0.0012927055358886717 -0.022972106933593747 -0.14276123046874997 -0.026405334472656247 0.018867492675781253 0.23724365234375003 0.016456604003906253 -0.016532897949218747 4.3839216232299811e-05 -0.0078926086425781233 -0.070556640624999986 -0.0043468475341796866 -0.051345825195312493 0.11126708984375001 2.4287109375000004 0.00019544363021850589 -0.054092407226562493 0.12124633789062501 -0.014011383056640623 0.0018639564514160158 -0.061813354492187493 4.2468309402465827e-05 -0.0027418136596679683 -0.0041828155517578116 -0.041641235351562493 0.016670227050781253 2.5182962417602542e-05 0.0062503814697265634
decision_type=6 6 4 4 4 6 6 4 4 6 4 6 6 6 4 4 6 6 6 6 4 6 6 4 6 4 4 6 4 6
left_child=3 2 -2 14 5 -4 7 8 13 11 -11 -9 -12 -3 -1 20 17 26 -19 22 -16 -13 23 -5 -7 -18 -6 -26 -21 -8
right_child=1 6 4 19 16 24 29 9 -10 10 12 21 -14 -15 15 -17 25 18 -20 28 -22 -23 -24 -25 27 -27 -28 -29 -30 -31
leaf_value=0.0001910645279112517 7.6101323906598939e-06 -0.00022325182118575088 -0.0015086204526624121 0 -0.00021003845689741613 0.00018148048343738461 -1.4688018653161459e-05 -0.00025976572778230232 0 0.00012662396670884272 -6.0253055336441173e-05 -5.7348414223922551e-05 -0.00046017119926801734 -0.0012371544408521914 1.9937330279914375e-05 1.3699433095841209e-05 -5.5661729085673122e-05 4.5461293998474204e-05 4.927576949081516e-08 7.384533762981558e-05 0.00013646332056138727 0.00049909219625379265 2.8688489500608804e-06 0.00024765667820326391 -8.8852098908997389e-06 -1.4504026329622156e-05 -9.6858104800471852e-06 -0.00043362859267395996 -5.2612635223611159e-06 0.00023249035612938512
leaf_weight=3495 466903 171 66 1664 597 158 272 3093 171 1336 2129 490 350 139 3651 9372 22672 17066 419560 18360 10188 108 34961 1135 468 53128 515027 297 2914 472
leaf_count=3495 466903 171 66 1664 597 158 272 3093 171 1336 2129 490 350 139 3651 9372 22672 17066 419560 18360 10188 108 34961 1135 468 53128 515027 297 2914 472
internal_value=0 -2.76996e-06 -2.04325e-06 4.8149e-05 -6.44875e-06 -0.000235425 -0.000124252 -0.000149109 -0.000498205 -0.00012313 -3.167e-05 -0.000210498 -0.000127583 -0.000766523 8.7562e-05 7.08334e-05 -6.20254e-06 -4.50659e-06 1.88451e-06 2.98727e-05 0.000107623 6.06334e-07 1.1201e-05 0.000105839 -0.000113259 -2.71615e-05 -9.96939e-06 -0.000208627 6.17772e-05 0.000107133
internal_weight=0 1.50467e+06 1.49594e+06 85740 1.02904e+06 989 8731 7987 481 7506 3815 3691 2479 310 26706 23211 1.02805e+06 952250 436626 59034 13839 598 37760 2799 923 75800 515624 765 21274 744
internal_count=1590413 1504673 1495942 85740 1029039 989 8731 7987 481 7506 3815 3691 2479 310 26706 23211 1028050 952250 436626 59034 13839 598 37760 2799 923 75800 515624 765 21274 744
is_linear=0
shrinkage=0.0636454


Tree=16
num_leaves=31
num_cat=0
split_feature=85 172 4 55 128 23 78 18 184 142 40 189 70 142 72 125 187 114 29 34 167 150 170 110 209 96 72 160 7 175
split_gain=0.0337764 0.0279284 0.0189741 0.0180572 0.0171864 0.0171253 0.0166637 0.0141813 0.0138313 0.0135558 0.0104495 0.00904684 0.00893023 0.00837843 0.00795042 0.00744847 0.00705644 0.00652902 0.00782226 0.00925809 0.00771448 0.00681371 0.00642204 0.0110682 0.0117377 0.00554054 0.00533601 0.00575082 0.00524045 0.00487207
threshold=-0.028984069824218747 0.015529632568359377 -1.2814998626708982e-06 -0.059616088867187493 -0.0048618316650390616 0.24029541015625003 -0.0035696029663085933 1.5571289062500002 0.018013000488281253 -0.00093674659729003895 46.703125000000007 0.016914367675781253 -0.0047321319580078116 -0.0036554336547851558 -0.023414611816406247 -0.11117553710937499 0.030799865722656253 -0.0032262802124023433 49.078125000000007 62.109375000000007 -0.0076427459716796866 -0.0008022785186767577 -0.0059566497802734366 0.010135650634765627 0.048294067382812507 -0.0095939636230468733 -0.0046787261962890616 0.0026826858520507817 -0.00051856040954589833 -0.0039348602294921866
decision_type=4 6 6 4 4 6 6 6 4 6 6 6 4 6 4 6 6 6 4 6 4 6 6 6 4 4 4 6 6 6
left_child=6 9 16 -4 5 -5 8 15 11 -2 -9 13 -6 -1 -11 -8 17 18 21 -20 -19 -3 -18 24 -24 -16 -10 -28 -27 -7
right_child=1 2 3 4 12 29 7 10 26 14 -12 -13 -14 -15 25 -17 22 20 19 -21 -22 -23 23 -25 -26 28 27 -29 -30 -31
leaf_value=0.00011236910979975061 7.8676980875680267e-06 5.9687450908272613e-05 -0.001172226548330579 -0.0004479443582947015 -0.0001052102849154368 -0.00017884782297879139 0.00021846520924052428 0 -3.8623952032138168e-05 -9.2515800386449247e-05 0.00033100491802742109 -1.9245027143494459e-05 -2.4915772576780644e-05 1.2736099976419248e-05 -3.0971145013016235e-05 6.1408361650170726e-05 -0.00016213853062175396 0.00011714472435166792 8.9445723371307253e-05 0.00090227110501921734 -2.9746920559342004e-05 -9.9029756049801016e-05 -0.00020225576199579164 -0.00015939819702901568 9.6226572806126665e-05 8.5908200788107971e-06 0 -0.00040929686735873271 -5.294430962650528e-06 -3.2830317253896665e-05
leaf_weight=8950 577096 2379 62 858 8664 2802 1554 464 4816 4176 1760 5607 19691 6586 30442 13169 1992 1552 4983 64 15319 1964 614 1647 2951 128153 188 366 739394 2150
leaf_count=8950 577096 2379 62 858 8664 2802 1554 464 4816 4176 1760 5607 19691 6586 30442 13169 1992 1552 4983 64 15319 1964 614 1647 2951 128153 188 366 739394 2150
internal_value=0 -1.57862e-06 -4.15568e-05 -7.4954e-05 -7.21333e-05 -0.000173734 5.53113e-05 0.000105041 2.253e-05 2.33122e-07 0.000260205 4.64354e-05 -5.03803e-05 7.18275e-05 -4.62148e-06 7.97918e-05 -6.61323e-06 7.81239e-06 5.09915e-05 0.000105267 -1.46682e-05 -6.06152e-06 -6.28288e-05 -1.97988e-05 3.73881e-05 -4.18334e-06 -6.66918e-05 -0.000262576 -3.21307e-06 -0.000120782
internal_weight=0 1.54695e+06 67692 34227 34165 5810 43460 16947 26513 1.47926e+06 2224 21143 28355 15536 902165 14723 33465 26261 9390 5047 16871 4343 7204 5212 3565 897989 5370 554 867547 4952
internal_count=1590413 1546953 67692 34227 34165 5810 43460 16947 26513 1479261 2224 21143 28355 15536 902165 14723 33465 26261 9390 5047 16871 4343 7204 5212 3565 897989 5370 554 867547 4952
is_linear=0
shrinkage=0.0636454


Tree=17
num_leaves=31
num_cat=0
split_feature=172 7 172 106 195 18 54 93 179 199 89 175 106 87 96 59 87 120 154 154 84 114 204 40 144 160 4 78 105 215
split_gain=0.0549976 0.0182066 0.0172474 0.0322777 0.0256844 0.0164814 0.0155926 0.0143367 0.020882 0.0193289 0.0133856 0.0123525 0.011239 0.01306 0.011466 0.0112396 0.0104855 0.010026 0.00928958 0.00798092 0.0134206 0.00779644 0.00770731 0.00756327 0.00718659 0.00613893 0.00584412 0.00579748 0.0054335 0.00617553
threshold=-0.014781951904296873 0.00060391426086425792 0.045349121093750007 0.016365051269531253 -0.028373718261718747 0.40368652343750006 -0.0018601417541503904 -0.012531280517578123 -0.020744323730468747 -0.0016417503356933592 -0.068450927734374986 -0.0033235549926757808 -0.017204284667968747 0.15069580078125003 0.0028734207153320317 -0.0071048736572265616 -0.10845947265624999 -0.0019011497497558592 -0.0067501068115234366 4.8637390136718757e-05 0.0044460296630859384 0.0009334087371826173 -0.0086174011230468733 60.828125000000007 0.00046527385711669927 0.00043356418609619146 5.3346157073974618e-06 -0.00040090084075927729 0.032180786132812507 0.015430450439453127
decision_type=6 6 6 4 6 6 4 4 6 6 4 6 6 6 6 4 6 4 6 6 4 6 6 4 6 6 4 4 4 6
left_child=5 6 12 4 11 10 18 8 -5 17 16 -4 13 25 19 -15 22 -9 -2 20 -14 -11 -1 -8 -7 -3 -6 -25 29 -26
right_child=1 2 3 7 26 24 23 9 -10 21 -12 -13 14 15 -16 -17 -18 -19 -20 -21 -22 -23 -24 27 28 -27 -28 -29 -30 -31
leaf_value=0.00038088692828700926 -4.0188504212212071e-05 -2.7646597728112485e-06 -0.0013461922375480962 0.00043411566317796198 -0.00033668317137598339 5.7459889223999481e-05 5.2330837553418968e-06 0 -0.00024544125931444968 0.00020733168061515752 1.3925031504938747e-05 0 -3.0213656238687628e-05 0 -6.3180729559695418e-06 -0.00067006311688293338 6.4610838768579934e-05 -0.00029513674413721825 -5.9891561001864461e-06 -2.645041752156916e-05 -0.00016988851003904484 -6.5764751458744476e-05 8.5493060954956743e-05 -8.4964423792922672e-06 0.00020597854825583198 -2.6235092745986898e-05 0 7.3278363112934739e-05 5.4416436229469081e-05 3.2218217717883932e-05
leaf_weight=913 35603 187681 173 527 644 7016 805052 634 226 812 29557 55 5456 126 17125 224 9575 1744 382670 8490 7089 682 1080 4250 6280 60860 211 11656 2616 1386
leaf_count=913 35603 187681 173 527 644 7016 805052 634 226 812 29557 55 5456 126 17125 224 9575 1744 382670 8490 7089 682 1080 4250 6280 60860 211 11656 2616 1386
internal_value=0 -2.33904e-06 -1.66191e-05 -0.000126741 -0.000442314 6.05778e-05 1.01337e-06 -4.70332e-05 0.000195305 -0.000101002 3.76881e-05 -0.00107738 -1.43372e-05 -9.27401e-06 -4.66714e-05 -0.000398448 9.61255e-05 -0.000216412 -8.96305e-06 -7.82734e-05 -0.000111246 6.51985e-05 0.000234186 6.12826e-06 0.000113471 -8.61754e-06 -0.000240438 4.9781e-05 0.000149122 0.000177999
internal_weight=0 1.53199e+06 292759 5708 1083 58423 1.23923e+06 4625 753 3872 41125 228 287051 248891 38160 350 11568 2378 418273 21035 12545 1494 1993 820958 17298 248541 855 15906 10282 7666
internal_count=1590413 1531990 292759 5708 1083 58423 1239231 4625 753 3872 41125 228 287051 248891 38160 350 11568 2378 418273 21035 12545 1494 1993 820958 17298 248541 855 15906 10282 7666
is_linear=0
shrinkage=0.0636454


Tree=18
num_leaves=31
num_cat=0
split_feature=142 142 4 30 85 7 118 173 180 147 71 202 87 104 192 106 78 212 42 149 118 36 161 2 183 94 90 107 168 77
split_gain=0.0363988 0.0240581 0.0169717 0.015273 0.0148687 0.0144537 0.0146233 0.0108381 0.0104486 0.0102605 0.0102628 0.0188163 0.0101503 0.00918628 0.00782799 0.00806043 0.00729057 0.008834 0.0101745 0.0103865 0.00689563 0.00675144 0.00669679 0.00795218 0.0083233 0.00726905 0.00646872 0.00591419 0.00473055 0.00456873
threshold=-0.0034437179565429683 0.0063800811767578134 -4.6193599700927726e-06 42.078125000000007 -0.017486572265624997 0.00047957897186279302 0.013309478759765627 0.024681091308593753 0.011684417724609377 0.0015645027160644533 -0.061172485351562493 -0.0025682449340820308 0.10247802734375001 0.018196105957031253 0.0052852630615234384 0.0071315765380859384 -0.0006248950958251952 -0.044143676757812493 -0.012264251708984373 0.012248992919921877 -0.063568115234374986 41.078125000000007 -0.030433654785156247 0.031478881835937507 -0.0025720596313476558 0.018074035644531253 0.0016779899597167971 0.21728515625000003 -0.0020494461059570308 0.22198486328125003
decision_type=6 4 6 6 4 6 6 6 4 6 4 6 6 4 6 6 4 6 4 6 6 4 6 6 6 6 4 4 6 4
left_child=4 16 8 9 13 -5 7 -7 22 10 11 -4 -6 14 15 -1 17 18 19 -2 -18 -15 26 25 -25 -24 -3 -8 -17 -16
right_child=1 2 3 5 12 6 27 -9 -10 -11 -12 -13 -14 21 29 28 20 -19 -20 -21 -22 -23 23 24 -26 -27 -28 -29 -30 -31
leaf_value=2.6717631386587038e-05 -0.00010531503399505883 0.00018155220943818853 -7.0339724716406575e-05 -1.6623169856867077e-05 1.4504566506136603e-05 -7.0655316276193935e-05 -5.4171870982150417e-05 -0.00017215488661448581 -9.5930076294665652e-05 0 -0.00020713488129344682 -0.0014208751974932722 -0.00018022210793600105 0.00020632057014286956 0.00016185808692702918 0 3.3119759676103544e-05 -5.648065209114732e-06 -1.7620372120452098e-05 -0.00087927769093329249 1.2528121406381272e-06 2.5319412274973556e-05 0 8.9838700417257657e-05 -2.3531684313366151e-05 -9.00828843786665e-05 -0.00026456209631632778 4.9275514363193692e-05 0.0001676534993056327 -0.00016674028013629854
leaf_weight=11366 5747 88 141 28685 192435 12263 5680 7967 4936 458 744 111 1070 902 5529 1064 28793 480077 14030 80 687854 37781 39665 7624 3517 4003 709 3520 3477 97
leaf_count=11366 5747 88 141 28685 192435 12263 5680 7967 4936 458 744 111 1070 902 5529 1064 28793 480077 14030 80 687854 37781 39665 7624 3517 4003 709 3520 3477 97
internal_value=0 -4.22371e-06 -3.14092e-05 -5.55955e-05 2.20711e-05 -4.99344e-05 -8.15081e-05 -0.000111936 -7.17739e-06 -0.000263501 -0.000378098 -0.000774436 1.32906e-05 4.98504e-05 8.38784e-05 5.83057e-05 -1.51812e-06 -7.43059e-06 -4.92009e-05 -0.00012071 2.56983e-06 3.02275e-05 2.3206e-07 3.36889e-06 5.16976e-05 -8.36211e-06 -0.000182167 -1.17393e-05 0.000131553 0.00015148
internal_weight=0 1.33669e+06 120111 59569 253721 58115 29430 20230 60542 1454 996 252 193505 60216 21533 15907 1.21658e+06 499934 19857 5827 716647 38683 55606 54809 11141 43668 797 9200 4541 5626
internal_count=1590413 1336692 120111 59569 253721 58115 29430 20230 60542 1454 996 252 193505 60216 21533 15907 1216581 499934 19857 5827 716647 38683 55606 54809 11141 43668 797 9200 4541 5626
is_linear=0
shrinkage=0.0636454


Tree=19
num_leaves=31
num_cat=0
split_feature=172 142 140 18 89 138 70 120 63 97 104 144 182 141 14 85 141 87 7 78 1 40 35 94 96 12 93 141 185 193
split_gain=0.0428003 0.0189793 0.0137734 0.0130755 0.0156122 0.00994443 0.011464 0.00790578 0.00673382 0.00737592 0.00634764 0.00617124 0.00610244 0.00572951 0.00570049 0.0127057 0.00953619 0.00555852 0.00522756 0.00563517 0.00680862 0.00485636 0.00440285 0.00690231 0.00687063 0.00507661 0.00434183 0.00429824 0.00428951 0.00412989
threshold=-0.013957977294921873 0.0039386749267578134 -0.0018525123596191404 0.46057128906250006 -0.080017089843749986 -0.0028429031372070308 -0.0014767646789550779 -0.0038232803344726558 -0.027473449707031247 -0.088531494140624986 -0.0083427429199218733 0.00038444995880126959 -0.012248992919921873 -0.0072460174560546866 0.88012695312500011 -0.062210083007812493 -0.0008156299591064452 0.094512939453125014 0.0010828971862792971 0.0030469894409179692 -0.21759033203124997 67.750000000000014 56.640625000000007 -0.027656555175781247 -0.0041790008544921866 7.4058771133422865e-05 0.023643493652343753 -0.00013428926467895505 0.0015635490417480471 0.015846252441406253
decision_type=6 4 4 6 4 6 4 4 4 4 6 6 6 6 4 4 6 6 6 4 6 4 4 6 4 6 4 6 6 4
left_child=3 17 5 4 12 6 26 10 9 -4 -6 -5 13 -1 -13 16 -16 18 19 -2 21 -21 23 24 -10 29 28 -14 -3 -24
right_child=1 2 8 11 7 -7 -8 -9 22 -11 -12 14 27 -15 15 -17 -18 -19 -20 20 -22 -23 25 -25 -26 -27 -28 -29 -30 -31
leaf_value=0 2.137782690228635e-07 -0.00026410159347599462 -0.00061958168931074272 4.6620539578140887e-05 4.2311011343570718e-05 -2.8390124587237531e-05 -5.6666106998989112e-05 -9.2148042167357988e-07 -2.6917363546413639e-05 -4.2783648244739544e-05 0.00022302779799529885 7.9478489997626933e-05 1.9323608543684441e-06 0.00024505661585314865 0 0.00013011647496843616 0.00053222650618531633 -7.585877316484823e-05 -1.2092868194941815e-05 2.9144104160750619e-05 6.6723581456958629e-06 0.00011141915724670422 2.5002303364086248e-05 -1.4725141388193207e-05 4.6047853489016381e-05 -0.00018859002690395563 0 0.00010949181480089705 -7.4082808408641461e-05 0.00015024885564700083
leaf_weight=470 1003456 2334 96 7444 6171 43597 13521 30538 7138 16521 1053 5932 3052 1960 122 4004 659 3827 114204 27429 159209 3634 5956 103621 16630 321 321 4453 1170 1570
leaf_count=470 1003456 2334 96 7444 6171 43597 13521 30538 7138 16521 1053 5932 3052 1960 122 4004 659 3827 114204 27429 159209 3634 5956 103621 16630 321 321 4453 1170 1570
internal_value=0 -2.20343e-06 -1.98384e-05 5.02004e-05 3.18727e-05 -4.5511e-05 -8.70226e-05 1.24004e-05 -9.36208e-06 -4.77612e-05 7.23325e-05 9.68829e-05 0.00010323 0.000197237 0.000129334 0.000185607 0.000435627 6.37374e-07 8.81362e-07 2.1446e-06 1.21894e-05 3.96197e-05 -4.44928e-06 -7.47453e-06 2.3031e-05 4.13112e-05 -0.000187398 6.92569e-05 -0.000208207 5.46445e-05
internal_weight=0 1.52456e+06 212796 65858 47697 60943 17346 37762 151853 16617 7224 18161 9935 2430 10717 4785 781 1.31176e+06 1.30793e+06 1.19373e+06 190272 31063 135236 127389 23768 7847 3825 7505 3504 7526
internal_count=1590413 1524555 212796 65858 47697 60943 17346 37762 151853 16617 7224 18161 9935 2430 10717 4785 781 1311759 1307932 1193728 190272 31063 135236 127389 23768 7847 3825 7505 3504 7526
is_linear=0
shrinkage=0.0636454


Tree=20
num_leaves=31
num_cat=0
split_feature=172 142 70 89 202 31 158 70 138 132 138 194 4 71 173 81 45 132 163 62 93 141 164 192 11 87 208 72 149 165
split_gain=0.0234332 0.0225958 0.0169458 0.011582 0.00974545 0.0119496 0.0104511 0.00904938 0.0137484 0.0122143 0.00891101 0.0177423 0.00774679 0.0130807 0.0117467 0.0115746 0.00887854 0.0104993 0.00848458 0.00706638 0.0100996 0.00919241 0.00959346 0.00904361 0.00714743 0.0068675 0.00626932 0.00573704 0.00551256 0.00549625
threshold=-0.0038099288940429683 0.0089149475097656267 -0.0011849403381347654 -0.18304443359374997 -0.014354705810546873 44.421875000000007 -0.013149261474609373 0.019844055175781253 0.0015025138854980471 0.0021886825561523442 -0.00014573335647583005 -0.00084567070007324208 -6.2286853790283195e-06 -0.060653686523437493 -0.024528503417968747 -0.016494750976562497 -0.065307617187499986 0.0015034675598144533 0.00027191638946533209 0.014492034912109377 0.095397949218750014 -0.0053730010986328116 0.014080047607421877 -0.0023756027221679683 -0.00010052323341369628 0.13885498046875003 -0.0021352767944335933 -9.2595815658569322e-05 -0.020942687988281247 -0.0013098716735839842
decision_type=6 4 4 4 6 6 6 4 4 6 6 6 6 4 6 6 4 6 6 6 6 6 4 6 4 6 6 6 4 4
left_child=3 25 12 4 5 10 -6 8 -5 -10 11 28 13 15 -14 -3 18 -18 -16 21 26 23 24 -4 -23 -2 -21 -9 -1 -27
right_child=1 2 19 7 6 -7 -8 27 9 -11 -12 -13 14 -15 16 -17 17 -19 -20 20 -22 22 -24 -25 -26 29 -28 -29 -30 -31
leaf_value=0 -2.190503857196756e-06 0 -0.00012900834664852082 1.1853443680029328e-05 -0.00082671019497674713 0 0 -8.7973126776136023e-06 2.7933439080400312e-05 9.7065991732272252e-05 0.00012159982689334854 0 0.00024788383138212976 -2.4246700381147634e-05 -0.00063622231318499853 0.0013752272705930158 -0.00012463610209198544 0 -9.1424192504232401e-05 -6.2448335607200039e-05 0.00027002185143631599 2.0886275744373884e-05 8.2470655070653363e-05 9.8205855040317506e-07 -3.9635980189817193e-05 0 -0.00023987279475759412 1.2193067135732666e-05 0.0007788357598195459 -0.00035206558744630453
leaf_weight=59 1099265 78 4621 153584 66 1050 422 95839 33969 16062 868 208 328 3239 289 50 13626 2983 434 4978 275 15283 5418 3349 15797 468 1207 115764 425 409
leaf_count=59 1099265 78 4621 153584 66 1050 422 95839 33969 16062 868 208 328 3239 289 50 13626 2983 434 4978 275 15283 5418 3349 15797 468 1207 115764 425 409
internal_value=0 -4.64224e-06 -3.92188e-05 1.29047e-05 0.000136289 0.000188752 -9.04041e-05 1.19203e-05 2.15167e-05 5.06548e-05 0.000300953 0.000487212 -8.76318e-05 0 -0.000104499 0.000627325 -0.000112706 -0.000100916 -0.000346425 -1.87128e-05 -8.14319e-05 -9.00853e-06 3.83608e-06 -7.11077e-05 -9.03183e-06 -2.35685e-06 -0.000101372 2.56216e-06 0.000697818 -0.000180573
internal_weight=0 1.1721e+06 71955 418316 3098 2610 488 415218 203615 50031 1560 692 21027 3367 17660 128 17332 16609 723 50928 6460 44468 36498 7970 31080 1.10014e+06 6185 211603 484 877
internal_count=1590413 1172097 71955 418316 3098 2610 488 415218 203615 50031 1560 692 21027 3367 17660 128 17332 16609 723 50928 6460 44468 36498 7970 31080 1100142 6185 211603 484 877
is_linear=0
shrinkage=0.0636454


Tree=21
num_leaves=31
num_cat=0
split_feature=172 202 28 121 164 140 179 23 87 87 46 152 35 7 142 32 54 120 142 4 178 209 72 134 155 10 144 112 40 141
split_gain=0.0208095 0.02554 0.0118184 0.0261294 0.0167774 0.0129415 0.0121518 0.0102875 0.00877187 0.00810316 0.0157209 0.023029 0.0106636 0.0112704 0.0299445 0.0107044 0.00974428 0.00778545 0.0111371 0.00602493 0.0128653 0.00982464 0.0056818 0.00657377 0.00536766 0.00522793 0.00482063 0.00479125 0.0113925 0.00467175
threshold=0.0011677742004394533 -0.027641296386718747 43.828125000000007 -0.14733886718749997 0.0012078285217285158 0.0024938583374023442 0.018043518066406253 3.2197265625000004 0.12426757812500001 0.13970947265625003 0.0062923431396484384 -0.0018973350524902342 50.953125000000007 -4.5001506805419913e-06 0.0078239440917968767 53.671875000000007 0.0059146881103515634 -0.016563415527343747 0.0072574615478515634 8.9406967163085951e-08 -0.0089836120605468733 0.0058574676513671884 -6.0260295867919915e-05 -0.0034666061401367183 -0.013210296630859373 0.060470581054687507 0.00037539005279541021 0.022987365722656253 61.046875000000007 -0.00077033042907714833
decision_type=6 6 6 6 6 6 4 6 6 6 6 6 4 6 6 4 6 4 6 4 6 6 6 6 4 4 6 6 4 6
left_child=1 2 3 4 -1 -4 26 9 22 12 11 -11 13 -2 -15 -16 24 18 -9 29 -21 -22 23 -3 -12 -18 -5 28 -14 -7
right_child=7 8 5 6 -6 19 -8 17 -10 10 16 -13 27 14 15 -17 25 -19 -20 20 21 -23 -24 -25 -26 -27 -28 -29 -30 -31
leaf_value=0.0019140133813413643 -1.3388980921674318e-06 -1.6561226911294624e-05 2.1700914176640257e-05 0 0 -0.00028472371046851482 0.00024894693632662691 -4.7014209851477735e-05 -0.00029625079997287724 -0.0010224159917543451 0.00056473172650977103 0 4.3654068315130365e-06 -1.1611926283425506e-05 -0.00010162965367992484 -2.5155299249454395e-05 0 -3.228450024526959e-05 -0.00031134253874644789 6.8985224762362359e-05 0.00010890289536270461 0.00041394930489115046 8.4786144929063092e-06 2.4136145237189556e-06 0 -0.00045486797252728377 -0.00033976521192439037 -1.7948527204958768e-05 7.5433326844807086e-05 5.8087222613614467e-05
leaf_weight=61 155340 91340 21127 235 55 149 1271 2416 391 183 85 172 165776 142808 24127 12193 103 30777 1076 3610 1143 1178 504309 383837 679 264 210 32590 9766 3142
leaf_count=61 155340 91340 21127 235 55 149 1271 2416 391 183 85 172 165776 142808 24127 12193 103 30777 1076 3610 1143 1178 504309 383837 679 264 210 32590 9766 3142
internal_value=0 5.48058e-06 6.1321e-05 0.000222569 0.00117307 5.07104e-05 0.000141883 -9.65331e-06 3.6198e-06 -7.46469e-06 -0.000156626 -0.000529122 -7.00732e-06 -1.40639e-05 -2.49525e-05 -7.66812e-05 -1.58937e-05 -4.36342e-05 -0.000136089 0.000114308 0.000154173 0.00027522 3.76683e-06 -1.17863e-06 8.80672e-05 -0.000302817 -0.00010497 4.20657e-06 8.46933e-06 3.44526e-05
internal_weight=0 1.01206e+06 32181 1832 116 30349 1716 578355 979877 544086 1486 355 542600 334468 179128 36320 1131 34269 3492 9222 5931 2321 979486 475177 764 367 445 208132 175542 3291
internal_count=1590413 1012058 32181 1832 116 30349 1716 578355 979877 544086 1486 355 542600 334468 179128 36320 1131 34269 3492 9222 5931 2321 979486 475177 764 367 445 208132 175542 3291
is_linear=0
shrinkage=0.0636454


Tree=22
num_leaves=31
num_cat=0
split_feature=202 172 65 162 130 138 110 140 179 54 85 7 184 177 160 24 213 47 104 181 208 179 209 207 12 178 136 118 142 160
split_gain=0.0297332 0.0231671 0.0136557 0.0174487 0.0152329 0.0150509 0.0133514 0.0145327 0.0117713 0.0102128 0.0100015 0.00940896 0.0078064 0.00742436 0.00720204 0.0109275 0.00659758 0.00889636 0.00750279 0.00642406 0.00538577 0.00999201 0.00517121 0.00544812 0.00639709 0.00497269 0.00708306 0.00675428 0.00482996 0.00472423
threshold=-0.026954650878906247 0.019691467285156253 -0.063232421874999986 0.0014986991882324221 -0.0018296241760253904 -0.0035581588745117183 -0.049789428710937493 0.00064778327941894542 -0.014598846435546873 -0.0002000927925109863 0.079284667968750014 -0.00020700693130493161 -0.010967254638671873 -0.017173767089843747 -0.0011057853698730467 0.13519287109375003 0.012424468994140627 -0.038574218749999993 0.031997680664062507 -0.0073337554931640616 0.017936706542968753 -0.023887634277343747 0.013927459716796877 -0.015071868896484373 -2.6971101760864254e-05 -0.00099229812622070291 -0.0025072097778320308 -0.0035848617553710933 -0.0050373077392578116 -8.2463026046752916e-05
decision_type=6 4 4 6 6 6 4 4 4 4 6 6 6 6 6 4 4 4 4 6 4 6 4 6 6 4 4 4 6 6
left_child=6 9 3 5 12 13 8 -8 -1 16 11 -11 -4 -3 20 -16 28 18 -18 -12 21 -5 -6 24 -24 26 -14 -27 -2 -20
right_child=1 2 4 14 22 -7 7 -9 -10 10 19 -13 25 -15 15 -17 17 -19 29 -21 -22 -23 23 -25 -26 27 -28 -29 -30 -31
leaf_value=-8.5819445004370104e-05 1.6959659491945007e-05 -0.0010607998175674899 0 7.0421989109518678e-05 -4.7851303554353521e-05 -0.00014327491239278335 2.9924627760428974e-06 8.8158724094082198e-05 0.00032055647016618701 1.7707364055392886e-05 0 1.273096186493794e-06 -0.00024292293150143652 -0.00034663311072050373 -0.00093718874190838644 0 4.2450418454547917e-05 -9.6455194894732958e-06 -1.5127326487766475e-05 -0.00052765814153687561 0 0.0010504669858213845 -0.00018941067661971795 3.8497006996549804e-05 0 -0.00015770372631741553 -4.252742795461537e-05 -3.9608561158048764e-05 -3.9973744833037815e-06 -7.9976618489624595e-05
leaf_weight=247 48311 158 3536 314 7022 1196 16249 17653 1352 187415 86 588328 2261 442 62 437 2869 126783 7622 232 186 69 949 12659 2877 3052 1577 8333 530632 17504
leaf_count=247 48311 158 3536 314 7022 1196 16249 17653 1352 187415 86 588328 2261 442 62 437 2869 126783 7622 232 186 69 949 12659 2877 3052 1577 8333 530632 17504
internal_value=0 -1.3356e-06 -4.62686e-05 -0.000183039 -3.63729e-05 -0.000304501 5.75702e-05 4.81152e-05 0.00024137 0 5.09736e-06 5.27737e-06 -7.91718e-05 -0.000580898 0 -0.000153321 -5.37591e-06 -1.70736e-05 -4.97741e-05 -0.000349542 0.000174601 0.000319244 -1.0993e-06 1.72272e-05 -4.62794e-05 -9.89998e-05 -0.000167473 -7.35903e-05 -2.20322e-06 -6.1351e-05
internal_weight=0 1.55491e+06 45130 2864 42266 1796 35501 33902 1599 1.50978e+06 776061 775743 18759 600 1068 499 733721 154778 27995 318 569 383 23507 16485 3826 15223 3838 11385 578943 25126
internal_count=1590413 1554912 45130 2864 42266 1796 35501 33902 1599 1509782 776061 775743 18759 600 1068 499 733721 154778 27995 318 569 383 23507 16485 3826 15223 3838 11385 578943 25126
is_linear=0
shrinkage=0.0636454


Tree=23
num_leaves=31
num_cat=0
split_feature=142 87 157 128 120 21 77 105 172 85 114 71 211 148 174 203 162 196 107 36 137 81 77 46 7 138 102 200 0 167
split_gain=0.0172087 0.0132727 0.0106556 0.0119075 0.00606435 0.0107174 0.0141476 0.0155467 0.0080537 0.0115377 0.0117688 0.0160864 0.00675525 0.0108056 0.00731591 0.00656318 0.00614555 0.00555086 0.00797727 0.00546153 0.00983046 0.00527856 0.00641719 0.0051271 0.00468991 0.0045089 0.00441128 0.00482116 0.0043948 0.00414977
threshold=7.5429677963256849e-05 -0.043151855468749993 0.0007731914520263673 0.0028238296508789067 -0.0064334869384765616 5.3769531250000009 -0.11776733398437499 0.13372802734375003 0.017494201660156253 0.070220947265625014 -0.00065970420837402333 -0.026969909667968747 -0.0082359313964843733 -0.0018286705017089842 -0.0096702575683593733 0.021675109863281253 -0.0023336410522460933 -0.00032150745391845698 -0.12658691406249997 54.421875000000007 0.00052475929260253917 0.12170410156250001 0.096282958984375014 0.0029973983764648442 -0.0034837722778320308 0.00098085403442382834 0.0008342266082763673 -0.0057430267333984366 0.0019769668579101567 -0.00014483928680419919
decision_type=6 4 6 6 4 4 4 4 4 6 6 4 6 4 4 4 6 6 6 6 4 6 6 4 4 4 6 6 6 6
left_child=1 2 17 -4 5 -2 7 -7 15 12 19 -12 13 16 -15 -6 -10 -1 24 23 -21 25 -23 -11 -19 -3 28 -28 -14 -13
right_child=4 21 3 -5 8 6 -8 -9 9 10 11 29 26 14 -16 -17 -18 18 -20 20 -22 22 -24 -25 -26 -27 27 -29 -30 -31
leaf_value=1.4140147606925055e-05 -1.8008375685680659e-05 1.1342114992483854e-06 3.7350046419976979e-05 0.00036077848257142512 -5.4602063581083095e-06 -0.0011316227572247591 -8.7410542285079002e-05 0 -0.00017879369494249979 -0.00017651878870986933 -0.00093705933041341274 -0.00023169801383474264 -4.6716180386986826e-05 0.00013981284992894879 9.8482708827303121e-06 1.5723503438847175e-05 -6.1700640019424146e-06 -9.7909418960479686e-05 0.00010536557523061304 0 0.0010820397728035531 0 -0.00038555348814828418 0.00011397388860493334 3.6381203382597537e-05 1.150010319662867e-05 -9.9891013049424168e-05 4.8091804966149995e-05 -0.0001517621898543363 0
leaf_weight=29414 79169 559401 1396 896 542115 120 3629 128 1722 563 149 1244 15100 2157 12755 66049 2286 1246 8348 51 50 501 308 342 5688 248565 1181 3369 2175 296
leaf_count=29414 79169 559401 1396 896 542115 120 3629 128 1722 563 149 1244 15100 2157 12755 66049 2286 1246 8348 51 50 501 308 342 5688 248565 1181 3369 2175 296
internal_value=0 6.1081e-06 3.90589e-05 0.000175407 -7.17123e-06 -2.34562e-05 -0.00012788 -0.000610154 -5.05542e-06 -3.15967e-05 -0.000160707 -0.000263417 -2.24064e-05 4.17018e-06 3.0421e-05 -3.1164e-06 -8.69253e-05 3.14733e-05 6.31134e-05 0 0.000450111 4.16122e-06 -0.000157284 -3.78042e-05 8.44858e-06 4.35569e-06 -4.66459e-05 3.89386e-06 -6.14748e-05 -0.000180208
internal_weight=0 855763 46988 2292 734650 83046 3877 248 651604 43440 2695 1689 40745 18920 14912 608164 4008 44696 15282 1006 101 808775 809 905 6934 807966 21825 4550 17275 1540
internal_count=1590413 855763 46988 2292 734650 83046 3877 248 651604 43440 2695 1689 40745 18920 14912 608164 4008 44696 15282 1006 101 808775 809 905 6934 807966 21825 4550 17275 1540
is_linear=0
shrinkage=0.0636454


Tree=24
num_leaves=31
num_cat=0
split_feature=142 172 86 46 34 59 19 90 149 114 38 10 180 180 67 172 13 130 63 106 191 46 189 110 83 38 96 95 9 62
split_gain=0.0266584 0.01868 0.024157 0.0165656 0.0158652 0.0154597 0.0145059 0.0172613 0.0135807 0.0159554 0.0131019 0.00885047 0.00874935 0.00867659 0.00889373 0.00862949 0.0080782 0.00803606 0.0071266 0.00661096 0.00644751 0.00611161 0.00598953 0.00581418 0.00510576 0.0413759 0.0047194 0.00622427 0.0046976 0.00459042
threshold=-0.029838562011718747 -0.016761779785156247 0.061325073242187507 0.0045604705810546884 47.734375000000007 0.19421386718750003 1.2797851562500002 0.0016455650329589846 0.0097465515136718767 0.0017571449279785158 51.984375000000007 -0.028724670410156247 -0.0028944015502929683 0.010578155517578127 0.034072875976562507 0.00079274177551269542 -7.1227550506591788e-06 0.0028181076049804692 -0.031494140624999993 0.0005538463592529298 0.0026330947875976567 -0.0029268264770507808 0.0076770782470703134 0.0021638870239257817 0.13629150390625003 55.640625000000007 0.00019234418869018557 -0.15521240234374997 0.0049533843994140634 -0.030509948730468747
decision_type=4 6 4 4 6 6 6 6 6 6 4 4 6 6 4 4 4 4 6 4 6 6 4 4 6 6 6 6 6 4
left_child=6 16 15 4 20 8 7 12 11 -10 -6 -5 -1 14 23 26 21 -17 -15 -18 -4 -2 28 -14 -19 -26 27 29 -8 -3
right_child=1 2 3 5 10 -7 22 -9 9 -11 -12 -13 13 18 -16 17 19 24 -20 -21 -22 -23 -24 -25 25 -27 -28 -29 -30 -31
leaf_value=0.00026539390786299311 0.0001774707467395656 -0.00012939937497480193 0.00019206602204369048 0.00018982869692246767 -0.00083495175749967422 -0.00046167119729432642 0.00046591125861435552 0.0002231793926553308 0.00092368064735630785 0 -0.00026232695105683605 -9.2858012449128233e-05 -7.1271970221038061e-05 -0.00019741998822348698 0.00020849788394305301 -4.5532797893456906e-06 9.7610506816649191e-05 -2.7074924954160151e-05 0.00029669803936967774 1.9868692413604314e-05 -0.0003158535087058221 -1.9330627373459383e-05 0.00011916800497122454 -0.0003355629590647744 0 -0.0014943601375246231 7.4502616732503794e-06 1.0635682058834632e-06 0 -1.7411580203519699e-05
leaf_weight=363 2882 1611 320 472 279 345 811 1814 128 182 1119 3254 1450 97 230 556495 5629 59085 422 29047 141 526 827 669 408 86 445782 417865 70 58004
leaf_count=363 2882 1611 320 472 279 345 811 1814 128 182 1119 3254 1450 97 230 556495 5629 59085 422 29047 141 526 827 669 408 86 445782 417865 70 58004
internal_value=0 -5.6447e-07 -1.66589e-06 -0.00012666 -0.000289123 -5.16459e-05 0.000126143 6.50039e-05 -9.90965e-06 0.000384566 -0.000396273 -4.99366e-05 -1.57617e-05 -6.06324e-05 -0.00011921 -1.14202e-06 4.34442e-05 -6.98764e-06 0.000153615 3.32495e-05 0 0.000139408 0.000291129 -0.000167296 -2.92846e-05 -0.000239605 2.73024e-06 -1.6215e-06 0.000422263 -2.08817e-05
internal_weight=0 1.58366e+06 1.54558e+06 6240 1859 4381 6753 5045 4036 310 1398 3726 3231 2868 2349 1.53934e+06 38084 616074 519 34676 461 3408 1708 2119 59579 494 923262 477480 881 59615
internal_count=1590413 1583660 1545576 6240 1859 4381 6753 5045 4036 310 1398 3726 3231 2868 2349 1539336 38084 616074 519 34676 461 3408 1708 2119 59579 494 923262 477480 881 59615
is_linear=0
shrinkage=0.0636454


Tree=25
num_leaves=31
num_cat=0
split_feature=172 142 101 4 112 95 80 208 45 168 168 165 7 4 150 89 64 163 107 30 210 155 137 22 182 21 146 26 101 5
split_gain=0.0172466 0.0139022 0.0115529 0.0132708 0.0105133 0.0108425 0.00925964 0.00906651 0.0100293 0.00754194 0.00645368 0.00632208 0.012393 0.0104277 0.00622184 0.00930645 0.00579883 0.00567617 0.00755784 0.00548578 0.00886677 0.010249 0.0109147 0.00889535 0.00510511 0.00495201 0.00874094 0.0124119 0.00442097 0.00826004
threshold=-0.0069637298583984366 0.0069370269775390634 -0.098175048828124986 -1.0430812835693358e-05 0.019706726074218753 -0.084259033203124986 -0.0052547454833984366 -0.019294738769531247 0.057403564453125007 0.0039539337158203134 0.0014967918395996096 0.00098562240600585959 -0.0012946128845214842 -1.060962677001953e-05 0.0021657943725585942 0.23052978515625003 0.047866821289062507 -0.0098457336425781233 0.13629150390625003 40.359375000000007 -0.0074291229248046866 0.0037374496459960942 0.0021085739135742192 0.13531494140625003 0.0086708068847656267 2.9130859375000004 0.00023132562637329104 1.7319335937500002 -0.19476318359374997 0.00015705823898315432
decision_type=6 4 4 6 6 6 4 6 6 6 6 6 6 6 4 6 4 6 6 6 6 4 6 6 6 6 6 6 4 6
left_child=7 14 9 4 5 6 -4 19 10 25 24 -12 13 -13 15 28 -7 -17 -19 20 23 -22 -23 -1 -9 -3 27 -27 29 -2
right_child=1 2 3 -5 -6 16 -8 8 -10 -11 11 12 -14 -15 -16 17 -18 18 -20 -21 21 22 -24 -25 -26 26 -28 -29 -30 -31
leaf_value=0.00078544548768799422 0.00042876631289664021 -0.00015654440197448963 -1.4307732562004586e-05 -4.3205698701168663e-05 -6.6257800661323008e-05 0 0.00010932682436621814 3.1359241551778941e-05 0.0003146697253284245 -7.2156649874574318e-07 2.8363646228147718e-05 0.00074636754137768905 7.2573061511299226e-05 0.00018338410967060496 -8.9801013970445629e-06 0 -0.0002763068278232271 -0.00049944417270407146 0 7.5216279868011506e-06 0.00015545027694390822 0 -0.00053913737920494823 0 -3.3346352313956846e-05 0 0 -0.0010874434507739277 1.6654834436325881e-06 -3.0067976347830155e-05
leaf_weight=148 279 1958 3116 51814 7531 31182 7557 29339 557 1368 8298 220 6296 1026 290837 93 309 362 52 162885 1595 734 183 99 5567 51 77 131 976593 156
leaf_count=148 279 1958 3116 51814 7531 31182 7557 29339 557 1368 8298 220 6296 1026 290837 93 309 362 52 162885 1595 734 183 99 5567 51 77 131 976593 156
internal_value=0 -2.65855e-06 -2.49118e-05 -2.06404e-05 2.35988e-06 1.52403e-05 7.07777e-05 1.66515e-05 4.01846e-05 -0.000138471 3.66438e-05 7.10265e-05 0.00011447 0.000304744 -7.93988e-07 1.61473e-06 -2.75261e-06 -0.000270178 -0.00038029 9.20414e-06 9.89643e-05 5.1137e-05 -0.0001017 0.000476044 2.0287e-05 -0.000211576 -0.00052307 -0.000762144 1.78311e-06 0.000204716
internal_weight=0 1.37347e+06 105094 101509 49695 42164 10673 216947 51303 3585 50746 15840 7542 1246 1.26837e+06 977535 31491 507 414 165644 2759 2512 917 247 34906 2217 259 182 977028 435
internal_count=1590413 1373466 105094 101509 49695 42164 10673 216947 51303 3585 50746 15840 7542 1246 1268372 977535 31491 507 414 165644 2759 2512 917 247 34906 2217 259 182 977028 435
is_linear=0
shrinkage=0.0636454


Tree=26
num_leaves=31
num_cat=0
split_feature=173 202 140 142 120 24 211 96 150 72 134 5 194 38 113 71 17 136 64 4 96 24 168 79 195 165 106 7 211 79
split_gain=0.0157892 0.018188 0.0123239 0.0120731 0.0118231 0.0137509 0.00853773 0.0190636 0.00775882 0.0110317 0.00741634 0.0124809 0.00647378 0.0115902 0.00626904 0.00602558 0.00597333 0.00588337 0.00583739 0.00580053 0.00665548 0.009073 0.00579992 0.00542814 0.00531224 0.00748674 0.00512053 0.0051057 0.00554801 0.00488581
threshold=0.075897216796875014 -0.028419494628906247 0.0014777183532714846 -0.0033044815063476558 0.00016826391220092776 0.25427246093750006 -0.010974884033203123 0.0026330947875976567 0.0023431777954101567 -0.020454406738281247 -0.0012965202331542967 0.0002769231796264649 0.0049915313720703134 60.546875000000007 -0.076843261718749986 -0.053390502929687493 2.2197265625000004 -0.0018372535705566404 -0.0055637359619140616 1.2695789337158205e-05 -0.0056247711181640616 0.22259521484375003 0.0082511901855468767 -0.087463378906249986 0.023445129394531253 -0.014751434326171873 0.044143676757812507 -6.9111585617065416e-05 0.014133453369140627 -0.071075439453124986
decision_type=6 6 4 4 4 4 6 6 4 4 6 6 6 4 6 6 6 6 4 4 6 6 4 4 4 6 6 6 6 6
left_child=1 2 14 15 6 17 7 -2 -5 12 11 -9 -10 -14 18 26 22 -6 -1 20 -8 -22 23 -4 25 -21 -3 28 -17 -24
right_child=4 3 16 8 5 -7 19 10 9 -11 -12 -13 13 -15 -16 27 -18 -19 -20 24 21 -23 29 -25 -26 -27 -28 -29 -30 -31
leaf_value=4.3562561956644596e-05 0 3.1189915116025787e-06 -0.00044480501597888222 -4.8610522449180066e-07 -0.00084169490137305815 -0.00013624259121368333 0 0 -6.1391443064406136e-05 -1.0443033873858252e-05 0 0.0016267990082782877 -0.00047407749888527309 0 -6.1537542277500604e-08 2.2852104594223156e-05 0.00023012306184117762 0 0.00034403134400145673 -1.4508358893304666e-05 -0.00060736728411519929 -4.752353594849804e-06 -0.00013414200040403148 6.3355639144704941e-05 -0.00037760548512217858 0.00042467416843518712 -0.00024212666506632949 5.97061455359424e-06 6.6096251032566627e-05 0.00023976854542364376
leaf_weight=1609 1134 122266 72 1039173 188 3053 273 72 5797 263712 54 64 489 500 15516 55380 1392 54 408 220 284 304 63 10414 85 217 342 49010 16898 1370
leaf_count=1609 1134 122266 72 1039173 188 3053 273 72 5797 263712 54 64 489 500 15516 55380 1392 54 408 220 284 304 63 10414 85 217 342 49010 16898 1370
