tree
version=v3
num_class=1
num_tree_per_iteration=1
label_index=0
max_feature_idx=215
objective=regression
feature_names=MACD_id0 MACD_id1 MACD_id2 MACD_id3 MACD_id4 MACD_id5 MACD_id6 MACD_id7 MACD_id8 MACD_id9 MACD_id10 MACD_id11 MACD_id12 MACD_id13 Volume_Ratio_id0 Volume_Ratio_id1 Volume_Ratio_id2 Volume_Ratio_id3 Volume_Ratio_id4 Volume_Ratio_id5 Volume_Ratio_id6 Volume_Ratio_id7 Volume_Ratio_id8 Volume_Ratio_id9 Volume_Ratio_id10 Volume_Ratio_id11 Volume_Ratio_id12 Volume_Ratio_id13 RSI_id0 RSI_id1 RSI_id2 RSI_id3 RSI_id4 RSI_id5 RSI_id6 RSI_id7 RSI_id8 RSI_id9 RSI_id10 RSI_id11 RSI_id12 RSI_id13 log_close/mean_60_id0 log_return_60_id0 log_close/mean_300_id0 log_return_300_id0 log_close/mean_900_id0 log_return_900_id0 log_close/mean_60_id1 log_return_60_id1 log_close/mean_300_id1 log_return_300_id1 log_close/mean_900_id1 log_return_900_id1 log_close/mean_60_id2 log_return_60_id2 log_close/mean_300_id2 log_return_300_id2 log_close/mean_900_id2 log_return_900_id2 log_close/mean_60_id3 log_return_60_id3 log_close/mean_300_id3 log_return_300_id3 log_close/mean_900_id3 log_return_900_id3 log_close/mean_60_id4 log_return_60_id4 log_close/mean_300_id4 log_return_300_id4 log_close/mean_900_id4 log_return_900_id4 log_close/mean_60_id5 log_return_60_id5 log_close/mean_300_id5 log_return_300_id5 log_close/mean_900_id5 log_return_900_id5 log_close/mean_60_id6 log_return_60_id6 log_close/mean_300_id6 log_return_300_id6 log_close/mean_900_id6 log_return_900_id6 log_close/mean_60_id7 log_return_60_id7 log_close/mean_300_id7 log_return_300_id7 log_close/mean_900_id7 log_return_900_id7 log_close/mean_60_id8 log_return_60_id8 log_close/mean_300_id8 log_return_300_id8 log_close/mean_900_id8 log_return_900_id8 log_close/mean_60_id9 log_return_60_id9 log_close/mean_300_id9 log_return_300_id9 log_close/mean_900_id9 log_return_900_id9 log_close/mean_60_id10 log_return_60_id10 log_close/mean_300_id10 log_return_300_id10 log_close/mean_900_id10 log_return_900_id10 log_close/mean_60_id11 log_return_60_id11 log_close/mean_300_id11 log_return_300_id11 log_close/mean_900_id11 log_return_900_id11 log_close/mean_60_id12 log_return_60_id12 log_close/mean_300_id12 log_return_300_id12 log_close/mean_900_id12 log_return_900_id12 log_close/mean_60_id13 log_return_60_id13 log_close/mean_300_id13 log_return_300_id13 log_close/mean_900_id13 log_return_900_id13 mean_close/mean_60 mean_log_returns_60 log_close/mean_60-mean_close/mean_60_id0 log_return_60-mean_log_returns_60_id0 log_close/mean_60-mean_close/mean_60_id1 log_return_60-mean_log_returns_60_id1 log_close/mean_60-mean_close/mean_60_id2 log_return_60-mean_log_returns_60_id2 log_close/mean_60-mean_close/mean_60_id3 log_return_60-mean_log_returns_60_id3 log_close/mean_60-mean_close/mean_60_id4 log_return_60-mean_log_returns_60_id4 log_close/mean_60-mean_close/mean_60_id5 log_return_60-mean_log_returns_60_id5 log_close/mean_60-mean_close/mean_60_id6 log_return_60-mean_log_returns_60_id6 log_close/mean_60-mean_close/mean_60_id7 log_return_60-mean_log_returns_60_id7 log_close/mean_60-mean_close/mean_60_id8 log_return_60-mean_log_returns_60_id8 log_close/mean_60-mean_close/mean_60_id9 log_return_60-mean_log_returns_60_id9 log_close/mean_60-mean_close/mean_60_id10 log_return_60-mean_log_returns_60_id10 log_close/mean_60-mean_close/mean_60_id11 log_return_60-mean_log_returns_60_id11 log_close/mean_60-mean_close/mean_60_id12 log_return_60-mean_log_returns_60_id12 log_close/mean_60-mean_close/mean_60_id13 log_return_60-mean_log_returns_60_id13 mean_close/mean_300 mean_log_returns_300 log_close/mean_300-mean_close/mean_300_id0 log_return_300-mean_log_returns_300_id0 log_close/mean_300-mean_close/mean_300_id1 log_return_300-mean_log_returns_300_id1 log_close/mean_300-mean_close/mean_300_id2 log_return_300-mean_log_returns_300_id2 log_close/mean_300-mean_close/mean_300_id3 log_return_300-mean_log_returns_300_id3 log_close/mean_300-mean_close/mean_300_id4 log_return_300-mean_log_returns_300_id4 log_close/mean_300-mean_close/mean_300_id5 log_return_300-mean_log_returns_300_id5 log_close/mean_300-mean_close/mean_300_id6 log_return_300-mean_log_returns_300_id6 log_close/mean_300-mean_close/mean_300_id7 log_return_300-mean_log_returns_300_id7 log_close/mean_300-mean_close/mean_300_id8 log_return_300-mean_log_returns_300_id8 log_close/mean_300-mean_close/mean_300_id9 log_return_300-mean_log_returns_300_id9 log_close/mean_300-mean_close/mean_300_id10 log_return_300-mean_log_returns_300_id10 log_close/mean_300-mean_close/mean_300_id11 log_return_300-mean_log_returns_300_id11 log_close/mean_300-mean_close/mean_300_id12 log_return_300-mean_log_returns_300_id12 log_close/mean_300-mean_close/mean_300_id13 log_return_300-mean_log_returns_300_id13 mean_close/mean_900 mean_log_returns_900 log_close/mean_900-mean_close/mean_900_id0 log_return_900-mean_log_returns_900_id0 log_close/mean_900-mean_close/mean_900_id1 log_return_900-mean_log_returns_900_id1 log_close/mean_900-mean_close/mean_900_id2 log_return_900-mean_log_returns_900_id2 log_close/mean_900-mean_close/mean_900_id3 log_return_900-mean_log_returns_900_id3 log_close/mean_900-mean_close/mean_900_id4 log_return_900-mean_log_returns_900_id4 log_close/mean_900-mean_close/mean_900_id5 log_return_900-mean_log_returns_900_id5 log_close/mean_900-mean_close/mean_900_id6 log_return_900-mean_log_returns_900_id6 log_close/mean_900-mean_close/mean_900_id7 log_return_900-mean_log_returns_900_id7 log_close/mean_900-mean_close/mean_900_id8 log_return_900-mean_log_returns_900_id8 log_close/mean_900-mean_close/mean_900_id9 log_return_900-mean_log_returns_900_id9 log_close/mean_900-mean_close/mean_900_id10 log_return_900-mean_log_returns_900_id10 log_close/mean_900-mean_close/mean_900_id11 log_return_900-mean_log_returns_900_id11 log_close/mean_900-mean_close/mean_900_id12 log_return_900-mean_log_returns_900_id12 log_close/mean_900-mean_close/mean_900_id13 log_return_900-mean_log_returns_900_id13
feature_infos=[-0.0285186767578125:0.05487060546875] [-30.3125:43.9375] [-1.1640625:1.7861328125] [-0.00035500526428222656:0.0003814697265625] [-0.00028085708618164062:0.0003147125244140625] [-0.0268707275390625:0.01464080810546875] [-1.3291015625:0.99169921875] [-0.0267333984375:0.0298309326171875] [-0.002529144287109375:0.001495361328125] [-0.239990234375:0.1654052734375] [-46.21875:38.0625] [-0.339599609375:0.2222900390625] [-0.00048112869262695312:0.00077199935913085938] [-8.8632106781005859e-05:0.00010204315185546875] [0:237.875] [0.00011914968490600586:70.1875] [5.9604644775390625e-08:85.8125] [0:72.8125] [0:119.375] [5.245208740234375e-06:104] [0:130.25] [0:123.0625] [0:148] [2.1338462829589844e-05:133.875] [0:130.75] [0:222.375] [0:108.9375] [0:105.25] [0:100] [25.96875:76.125] [26.453125:74.0625] [0:68.0625] [0:73.25] [21.984375:68.375] [24.78125:77.9375] [22.140625:72.4375] [0:65.8125] [24.890625:69.5] [0:100] [25.734375:68.4375] [0:75.5] [0:69.9375] [-0.2464599609375:0.2003173828125] [-0.294189453125:0.346435546875] [-0.358642578125:0.16162109375] [-0.482666015625:0.35205078125] [-0.475830078125:0.2154541015625] [-0.5263671875:0.40673828125] [-0.18701171875:0.1981201171875] [-0.224609375:0.289794921875] [-0.2247314453125:0.159423828125] [-0.326171875:0.27001953125] [-0.3359375:0.2103271484375] [-0.472900390625:0.31103515625] [-0.21142578125:0.253173828125] [-0.334228515625:0.317626953125] [-0.28662109375:0.2578125] [-0.36328125:0.29833984375] [-0.37255859375:0.3134765625] [-0.49462890625:0.449462890625] [-0.1727294921875:0.169677734375] [-0.2064208984375:0.2880859375] [-0.2880859375:0.1688232421875] [-0.396240234375:0.31494140625] [-0.3974609375:0.2139892578125] [-0.4677734375:0.32470703125] [-0.322998046875:0.31640625] [-0.52783203125:0.515625] [-0.435791015625:0.6279296875] [-0.66162109375:1.1484375] [-0.50341796875:1.0810546875] [-0.75439453125:1.9541015625] [-0.220947265625:0.1444091796875] [-0.261962890625:0.242431640625] [-0.288330078125:0.1436767578125] [-0.37548828125:0.2568359375] [-0.375:0.17822265625] [-0.446044921875:0.311279296875] [-0.19091796875:0.18115234375] [-0.235107421875:0.318359375] [-0.2440185546875:0.22119140625] [-0.318115234375:0.318359375] [-0.3291015625:0.168212890625] [-0.49609375:0.319091796875] [-0.201904296875:0.1865234375] [-0.2369384765625:0.22705078125] [-0.268310546875:0.2021484375] [-0.352294921875:0.28369140625] [-0.344970703125:0.267822265625] [-0.4638671875:0.357421875] [-0.2103271484375:0.1468505859375] [-0.306640625:0.28955078125] [-0.411376953125:0.1522216796875] [-0.55224609375:0.4228515625] [-0.5517578125:0.193115234375] [-0.60888671875:0.43359375] [-0.21533203125:0.221435546875] [-0.260009765625:0.260009765625] [-0.2666015625:0.1416015625] [-0.32763671875:0.269775390625] [-0.33203125:0.214599609375] [-0.43994140625:0.3505859375] [-0.350830078125:0.286376953125] [-0.429443359375:0.3857421875] [-0.407958984375:0.278076171875] [-0.548828125:0.423583984375] [-0.432373046875:0.365478515625] [-0.8251953125:0.5341796875] [-0.161376953125:0.227294921875] [-0.2039794921875:0.27783203125] [-0.232177734375:0.148193359375] [-0.337158203125:0.291748046875] [-0.344482421875:0.163818359375] [-0.474609375:0.34912109375] [-0.190673828125:0.202880859375] [-0.2239990234375:0.2822265625] [-0.2406005859375:0.287109375] [-0.308837890625:0.37109375] [-0.302490234375:0.46826171875] [-0.366943359375:0.6337890625] [-0.215576171875:0.225341796875] [-0.257568359375:0.2254638671875] [-0.26220703125:0.297119140625] [-0.328857421875:0.438232421875] [-0.343994140625:0.3759765625] [-0.46142578125:0.411865234375] [-0.1929931640625:0.171875] [-0.2301025390625:0.2470703125] [-0.101318359375:0.066650390625] [-0.1435546875:0.10906982421875] [-0.0526123046875:0.08209228515625] [-0.060699462890625:0.1265869140625] [-0.11639404296875:0.246826171875] [-0.306396484375:0.293701171875] [-0.0738525390625:0.11419677734375] [-0.1392822265625:0.1295166015625] [-0.2880859375:0.2998046875] [-0.4892578125:0.474365234375] [-0.1363525390625:0.0670166015625] [-0.14501953125:0.1236572265625] [-0.045166015625:0.05950927734375] [-0.2076416015625:0.07122802734375] [-0.1007080078125:0.139404296875] [-0.1751708984375:0.20556640625] [-0.112060546875:0.07464599609375] [-0.146240234375:0.1728515625] [-0.054290771484375:0.072998046875] [-0.07550048828125:0.0989990234375] [-0.313720703125:0.243896484375] [-0.385986328125:0.385986328125] [-0.0809326171875:0.0799560546875] [-0.12255859375:0.084228515625] [-0.09466552734375:0.181396484375] [-0.1370849609375:0.248046875] [-0.0888671875:0.15234375] [-0.1168212890625:0.2071533203125] [-0.2401123046875:0.1212158203125] [-0.335205078125:0.2734375] [-0.145751953125:0.155029296875] [-0.1676025390625:0.2039794921875] [-0.056243896484375:0.11956787109375] [-0.09185791015625:0.132568359375] [-0.11517333984375:0.240478515625] [-0.317626953125:0.272216796875] [-0.0909423828125:0.1292724609375] [-0.1201171875:0.147216796875] [-0.411376953125:0.5908203125] [-0.6376953125:1.0703125] [-0.1419677734375:0.11419677734375] [-0.145263671875:0.1397705078125] [-0.05206298828125:0.0999755859375] [-0.0986328125:0.12548828125] [-0.124755859375:0.173828125] [-0.1895751953125:0.245849609375] [-0.176513671875:0.134033203125] [-0.217041015625:0.168701171875] [-0.07281494140625:0.092041015625] [-0.088623046875:0.1356201171875] [-0.260009765625:0.259521484375] [-0.371826171875:0.373779296875] [-0.1318359375:0.0972900390625] [-0.226318359375:0.146728515625] [-0.10009765625:0.246826171875] [-0.202392578125:0.324462890625] [-0.12890625:0.268798828125] [-0.180908203125:0.37255859375] [-0.34716796875:0.1697998046875] [-0.442626953125:0.300048828125] [-0.1619873046875:0.1968994140625] [-0.20458984375:0.24462890625] [-0.08941650390625:0.1077880859375] [-0.13134765625:0.1446533203125] [-0.16162109375:0.25146484375] [-0.32275390625:0.330078125] [-0.104248046875:0.142333984375] [-0.185791015625:0.1793212890625] [-0.43505859375:0.99755859375] [-0.6484375:1.7900390625] [-0.14697265625:0.1505126953125] [-0.1744384765625:0.26123046875] [-0.0986328125:0.107421875] [-0.2117919921875:0.151123046875] [-0.14208984375:0.2379150390625] [-0.222412109375:0.29833984375] [-0.2125244140625:0.1572265625] [-0.220458984375:0.2342529296875] [-0.08050537109375:0.12371826171875] [-0.126708984375:0.1929931640625] [-0.27099609375:0.30517578125] [-0.58984375:0.4306640625] [-0.171630859375:0.1414794921875] [-0.222412109375:0.2169189453125] [-0.109130859375:0.396728515625] [-0.1875:0.5400390625] [-0.1663818359375:0.3408203125] [-0.25244140625:0.38916015625]
tree_sizes=3331 3132 3129 3065 3250 3180 3163 3150 3231 3208 3185 3107 3178 3199 3111 3146 3176 3217

Tree=0
num_leaves=31
num_cat=0
split_feature=184 121 154 123 15 123 154 96 133 148 72 5 22 126 92 120 123 127 160 3 72 134 2 93 48 44 61 140 78 83
split_gain=0.0319142 0.030036 0.0197741 0.0129396 0.0122956 0.00999044 0.00962032 0.00748472 0.00753686 0.00709644 0.00561553 0.00558881 0.00789066 0.00772325 0.0055153 0.00550485 0.00508831 0.00385163 0.00378063 0.00348878 0.00390569 0.00286299 0.00284212 0.00225941 0.00208488 0.00190853 0.00614736 0.0018638 0.00162496 0.00156625
threshold=0.0019769668579101567 0.082885742187500014 -4.6163797378540032e-05 -0.16790771484374997 3.5029296875000004 -0.069488525390624986 0.0072574615478515634 0.0022344589233398442 0.00025904178619384771 0.0014481544494628908 -0.0012221336364746092 -0.00037038326263427729 12.332031250000002 -0.0048007965087890616 0.0094490051269531267 0.0073451995849609384 0.11474609375000001 0.0031709671020507817 0.0047130584716796884 2.3573637008666996e-05 -0.0049610137939453116 -0.0025014877319335933 0.037094116210937507 0.071136474609375014 0.0014758110046386721 -0.0058917999267578116 -0.076843261718749986 0.0020933151245117192 -0.00071120262145996083 -0.024971008300781247
decision_type=4 6 4 4 6 4 6 4 6 6 6 6 4 4 4 6 4 4 6 6 4 6 4 4 6 4 6 6 6 4
left_child=2 4 3 9 11 18 -6 8 14 -1 25 13 22 -2 -3 17 -9 -14 -5 20 21 28 -13 -22 -25 26 -7 -24 -4 -12
right_child=1 7 19 5 6 10 -8 16 -10 -11 29 12 15 -15 -16 -17 -18 -19 -20 -21 23 -23 27 24 -26 -27 -28 -29 -30 -31
leaf_value=0.0001675151638684406 -1.2301216095973623e-05 -0.00013731771251635633 -1.2883331928678554e-05 9.504530173441711e-06 -5.2476745884507777e-06 -1.4457304081991079e-05 -5.7116116851593404e-05 -2.8573294230686174e-05 0.000205123825837291 9.1034408568166752e-06 1.8583462912464195e-05 6.4132019912929141e-06 1.8404890272108762e-05 5.2334488977179387e-06 9.1034408568166752e-06 3.2372633348324342e-05 -0.00022850805483272518 -5.5992678676802347e-06 4.1021366820695122e-05 1.850747470657105e-05 7.1258764696835572e-06 4.8508789341482931e-06 3.2632861678723813e-06 9.1034408568166752e-06 2.4234604081278101e-05 1.1477901585264079e-05 9.1034408568166752e-06 -9.470379749352204e-06 9.1034408568166752e-06 1.385097681695037e-05
leaf_weight=424 21026 201 10215 4169 12836 5953 2578 471 51 275 50717 297482 9525 40550 196 8953 387 5022 9168 12433 314897 28344 42262 14571 7118 158333 67881 9731 1023 383617
leaf_count=424 21026 201 10215 4169 12836 5953 2578 471 51 275 50717 297482 9525 40550 196 8953 387 5022 9168 12433 314897 28344 42262 14571 7118 158333 67881 9731 1023 383617
internal_value=9.10344e-06 4.13656e-06 1.11999e-05 1.34983e-05 4.49582e-06 1.33669e-05 -1.53134e-05 -0.000103083 9.10344e-06 0.000110387 1.29467e-05 5.24754e-06 6.3525e-06 -1.09984e-06 -5.50293e-05 1.85978e-05 -0.000144002 9.10344e-06 3.27645e-05 7.22962e-06 6.80032e-06 7.59513e-08 5.46821e-06 7.65429e-06 1.4346e-05 1.00381e-05 7.23821e-06 4.70444e-07 -1.00725e-05 1.44526e-05
internal_weight=0 451271 1.06914e+06 680537 449965 679838 15414 1306 448 699 666501 434551 372975 61576 397 23500 858 14547 13337 388601 376168 39582 349475 336586 21689 232167 73834 51993 11238 434334
internal_count=1520409 451271 1069138 680537 449965 679838 15414 1306 448 699 666501 434551 372975 61576 397 23500 858 14547 13337 388601 376168 39582 349475 336586 21689 232167 73834 51993 11238 434334
is_linear=0
shrinkage=1


Tree=1
num_leaves=31
num_cat=0
split_feature=154 121 72 78 91 121 3 93 176 185 204 154 163 184 36 81 117 154 3 191 15 71 124 65 149 72 90 75 200 10
split_gain=0.0335418 0.0174762 0.0158836 0.0171334 0.0200533 0.0143398 0.0155655 0.0151004 0.0122314 0.0100673 0.00805168 0.00930222 0.00684674 0.00600644 0.00569419 0.00442678 0.00439051 0.00410565 0.00394237 0.00589047 0.0035799 0.00408775 0.00302697 0.00541493 0.00247323 0.0021346 0.00183659 0.00176385 0.00250443 0.00486304
threshold=-0.0019636154174804683 -0.089050292968749986 -0.0010066032409667967 -0.0067081451416015616 -0.053909301757812493 0.061096191406250007 -5.8114528656005851e-06 -0.090667724609374986 -0.0049114227294921866 -0.026161193847656247 -0.010906219482421873 0.0010313987731933596 0.00050377845764160167 0.0038003921508789067 52.484375000000007 0.088287353515625014 -0.047744750976562493 0.0026674270629882817 -9.8049640655517561e-06 0.010150909423828127 1.1342773437500002 -0.075805664062499986 0.017936706542968753 -0.0022001266479492183 2.6136636734008792e-05 0.0025720596313476567 0.0013327598571777346 -0.015003204345703123 -0.0043849945068359366 0.099517822265625014
decision_type=4 4 4 4 6 6 4 6 6 6 6 4 6 4 4 4 4 4 4 6 6 6 6 4 4 6 4 4 6 4
left_child=1 9 3 4 20 10 7 -7 12 -1 14 -12 15 16 22 -8 -3 -6 19 -16 -2 -22 -4 -24 -10 -18 -5 28 29 -15
right_child=2 13 5 26 17 6 8 -9 24 -11 11 -13 -14 27 18 -17 25 -19 -20 -21 21 -23 23 -25 -26 -27 -28 -29 -30 -31
leaf_value=0.00016178079140426971 -2.1313107219744291e-05 1.9287369941234554e-05 0 -4.1751070245107136e-06 -5.9896168915286025e-06 0 -0.00015430763263094279 0.00035828571529355531 -5.283210598876394e-05 0 1.3842948960489271e-06 -4.2849970627244599e-06 0 0 1.1566666876810713e-05 0 4.6130323155973337e-06 -2.0705397037770377e-05 1.0056468368729927e-05 0.00011185060233359654 -7.8175795378856178e-05 0 3.7449941056818226e-05 2.9577485953972329e-06 4.9384503018509126e-06 9.2333850461908405e-06 -1.0562721577617729e-07 -3.9184732943375603e-08 0 -7.3401079157334615e-05
leaf_weight=571 3017 14631 70872 287096 36508 67 992 76 428 364 390567 224826 481 1279 2027 132 214602 16855 35711 577 3586 659 3171 14545 926 86192 81520 24466 2765 900
leaf_count=571 3017 14631 70872 287096 36508 67 992 76 428 364 390567 224826 481 1279 2027 132 214602 16855 35711 577 3586 659 3171 14545 926 86192 81520 24466 2765 900
internal_value=0 6.09652e-06 -1.79574e-06 -5.2102e-06 -1.62742e-05 1.42007e-07 -4.75689e-05 0.000135955 -6.37564e-05 0.000103438 3.70225e-07 -6.52403e-07 -0.000106109 5.76996e-06 5.49654e-06 -0.000138113 6.69123e-06 -1.10368e-05 1.2789e-05 4.2053e-05 -5.18133e-05 -6.84555e-05 2.10234e-06 1.03364e-05 0 6.0077e-06 -3.33277e-06 -3.38816e-06 -1.56558e-05 -3.35395e-05
internal_weight=0 345770 1.17464e+06 429241 60625 745398 3102 143 2959 935 742296 615393 1605 344835 126903 1124 315425 53363 38315 2604 7262 4245 88588 17716 1354 300794 368616 29410 4944 2179
internal_count=1520409 345770 1174639 429241 60625 745398 3102 143 2959 935 742296 615393 1605 344835 126903 1124 315425 53363 38315 2604 7262 4245 88588 17716 1354 300794 368616 29410 4944 2179
is_linear=0
shrinkage=0.0222729


Tree=2
num_leaves=31
num_cat=0
split_feature=154 121 184 177 15 60 82 78 61 154 87 91 95 76 126 163 15 174 178 124 145 84 72 154 204 124 96 145 72 124
split_gain=0.018831 0.0309286 0.023237 0.0214181 0.0211203 0.00898509 0.012884 0.00839353 0.00826914 0.00790831 0.00975245 0.00726645 0.00574423 0.00756028 0.00493407 0.00405828 0.00735672 0.0039162 0.00345858 0.00323259 0.00477521 0.00354661 0.00297789 0.00294879 0.00257519 0.00392859 0.00241817 0.00218182 0.00532664 0.00351436
threshold=0.0028524398803710942 0.082000732421875014 -0.0024576187133789058 3.1739473342895515e-05 1.6811523437500002 0.0043163299560546884 -0.0028085708618164058 -0.0013365745544433592 -0.050827026367187493 -0.0019450187683105467 -0.048782348632812493 0.092742919921875014 0.18695068359375003 0.038375854492187507 -0.0048694610595703116 -0.0001435279846191406 0.51782226562500011 0.024848937988281253 -0.0049571990966796866 -0.0076274871826171866 -0.014759063720703123 0.0067386627197265634 -0.00052475929260253895 -0.00086045265197753895 -0.0022840499877929683 0.0085792541503906267 0.00019603967666625979 0.017326354980468753 0.0020303726196289067 0.029884338378906253
decision_type=4 6 4 6 6 6 6 4 4 6 4 4 4 6 4 6 6 4 4 6 6 6 4 6 6 6 6 4 4 4
left_child=2 4 9 15 11 6 -5 12 -6 10 -1 18 23 17 -13 16 -3 -14 24 21 -21 -16 -11 -4 25 -2 -19 -9 29 -29
right_child=1 3 7 5 8 -7 -8 27 -10 22 -12 14 13 -15 19 -17 -18 26 -20 20 -22 -23 -24 -25 -26 -27 -28 28 -30 -31
leaf_value=2.9871482355651666e-05 0 0 0 0 -9.6453452655693777e-05 -5.2486787981259614e-05 0.00033511485370530509 0 -1.9609450749354808e-05 -7.5760780364615992e-07 6.8268908191684398e-06 -2.3308433793376472e-05 0 3.1630161348956752e-05 -1.2697294968780218e-05 0 -0.00023845259506686181 -3.4470676954058043e-05 -5.4610541246427279e-06 2.3250331901747676e-05 0 2.9337776638137228e-05 4.1551051669658079e-06 -5.1283231881769032e-06 -1.8336238932953226e-06 2.8544950043540816e-05 0 2.0737289231763088e-06 1.6761726291441452e-05 -2.4926617238242005e-05
leaf_weight=10184 3703 197 73740 60 876 207 88 543985 29924 99844 222373 1829 2825 1001 4378 182 587 9073 138776 13348 5096 1220 136303 180160 8286 4379 974 10758 13241 2812
leaf_count=10184 3703 197 73740 60 876 207 88 543985 29924 99844 222373 1829 2825 1001 4378 182 587 9073 138776 13348 5096 1220 136303 180160 8286 4379 974 10758 13241 2812
internal_value=0 -6.13991e-06 9.99758e-07 -0.000114238 -5.36362e-06 0 0.000160014 -1.19992e-06 -2.24952e-05 4.98055e-06 7.92782e-06 -2.33093e-06 -4.45842e-06 -1.87855e-05 8.32401e-06 -0.000169674 -0.000194936 -2.43634e-05 -4.24476e-06 1.16169e-05 1.62121e-05 0 1.98805e-06 -3.59169e-06 4.76902e-06 1.41635e-05 -3.08823e-05 2.91522e-07 6.49413e-06 -1.96122e-06
internal_weight=0 213136 1.30727e+06 1321 211815 355 148 838569 30800 468704 232557 181015 267773 13873 25871 966 784 12872 155144 24042 18444 5598 236147 253900 16368 8082 10047 570796 26811 13570
internal_count=1520409 213136 1307273 1321 211815 355 148 838569 30800 468704 232557 181015 267773 13873 25871 966 784 12872 155144 24042 18444 5598 236147 253900 16368 8082 10047 570796 26811 13570
is_linear=0
shrinkage=0.0222729


Tree=3
num_leaves=31
num_cat=0
split_feature=155 121 13 78 74 129 158 215 92 17 124 43 8 91 184 72 120 12 200 154 3 3 120 200 209 154 111 69 184 10
split_gain=0.0270609 0.0188901 0.0154598 0.0157394 0.0135186 0.0129463 0.0197631 0.0182132 0.0101 0.0093022 0.00892565 0.00809134 0.00686416 0.00581212 0.00579472 0.00638153 0.00578935 0.0068423 0.00544003 0.00514217 0.0050929 0.00453843 0.00452542 0.00445134 0.00400862 0.00407477 0.00387076 0.00353617 0.00351419 0.00336608
threshold=-6.2376260757446276e-05 -0.043655395507812493 2.2858381271362308e-05 -0.0033273696899414058 0.0020971298217773442 -0.0011487007141113279 0.0028371810913085942 0.010021209716796877 -0.029411315917968747 0.91479492187500011 0.027015686035156253 -0.044692993164062493 -9.3907117843627916e-05 -0.14251708984374997 0.010410308837890627 0.0050525665283203134 0.0034227371215820317 -8.0466270446777333e-07 0.0014491081237792971 -0.00041377544403076166 -1.1593103408813475e-05 6.9439411163330087e-06 0.0007579326629638673 0.0048732757568359384 -0.0029897689819335933 -0.00045239925384521479 0.018867492675781253 -0.12380981445312499 0.00061154365539550792 0.017997741699218753
decision_type=4 4 6 6 6 6 6 6 6 6 6 4 6 6 4 6 6 4 6 4 4 6 6 6 4 6 4 6 6 6
left_child=1 4 3 11 18 7 9 -4 13 10 -7 24 27 20 15 19 -9 -18 -1 -3 22 -12 -5 -20 -2 -26 -6 -13 -10 -17
right_child=2 14 5 8 26 6 -8 16 28 -11 21 12 -14 -15 -16 29 17 -19 23 -21 -22 -23 -24 -25 25 -27 -28 -29 -30 -31
leaf_value=1.8775261522902725e-05 0 3.1938091519569974e-06 0 0 0 0 -8.4146270778212966e-05 0 4.3288907644373113e-08 0 0.0002164421590426761 -2.6737456992021575e-05 -6.4742568235935149e-06 -5.2498077390264608e-06 -1.1340171047822919e-05 1.1286452354756656e-05 -0.00022595794937036356 -7.1598652317028601e-05 0 -1.143438735463613e-06 1.0839717055665149e-05 0 7.2194141658930971e-05 7.8005615280600255e-05 0 -9.8578994637459205e-05 -9.9339288694854269e-05 -4.6352662266661074e-07 -3.4305616449683819e-06 9.9794961341582466e-07
leaf_weight=4075 429 483692 843 632 506 117 565 150 222560 172 361 15697 97859 8191 14129 63112 446 1491 805 179807 28543 92 1466 3302 218 1055 312 5056 357332 27394
leaf_count=4075 429 483692 843 632 506 117 565 150 222560 172 361 15697 97859 8191 14129 63112 446 1491 805 179807 28543 92 1466 3302 218 1055 312 5056 357332 27394
internal_value=0 2.90355e-06 -3.04078e-06 -2.76684e-06 3.51601e-05 -4.57725e-05 0 -7.22356e-05 -1.29405e-06 8.80493e-05 0.00013463 -1.0164e-05 -9.25855e-06 9.60663e-06 2.4978e-06 2.78533e-06 -0.000107909 -0.000118425 4.50928e-05 1.98641e-06 1.42714e-05 0.0001802 5.07563e-05 6.59998e-05 -6.06616e-05 -8.04643e-05 -3.8104e-05 -2.1361e-05 -2.06069e-06 8.40723e-06
internal_weight=0 777134 743275 739038 9000 4237 1307 2930 618724 742 570 120314 118612 38832 768134 754005 2087 1937 8182 663499 30641 453 2098 4107 1702 1273 818 20753 579892 90506
internal_count=1520409 777134 743275 739038 9000 4237 1307 2930 618724 742 570 120314 118612 38832 768134 754005 2087 1937 8182 663499 30641 453 2098 4107 1702 1273 818 20753 579892 90506
is_linear=0
shrinkage=0.0222729


Tree=4
num_leaves=31
num_cat=0
split_feature=154 78 91 184 47 95 120 214 116 144 15 120 189 214 72 24 94 205 72 8 23 184 215 194 54 145 10 5 139 8
split_gain=0.0332449 0.0200667 0.014351 0.00808501 0.00618155 0.00535331 0.00710954 0.00426163 0.00396582 0.00458091 0.00392635 0.00748969 0.00334415 0.00324943 0.00318903 0.0030594 0.00496666 0.0027671 0.00205414 0.00188814 0.00184015 0.0018177 0.00177019 0.00171949 0.0015787 0.00174543 0.00143928 0.00128255 0.00125425 0.00152259
threshold=-0.00096917152404785145 -0.0079994201660156233 -0.055465698242187493 0.00040900707244873052 -0.11392211914062499 -0.10086059570312499 -0.00059390068054199208 -0.017784118652343747 -0.0010972023010253904 -0.0016417503356933592 1.1635742187500002 0.012454986572265627 -0.0060977935791015616 0.0034456253051757817 -0.00089716911315917958 0.079437255859375014 -0.031539916992187493 0.014751434326171877 0.00033533573150634771 -7.3939561843872057e-05 0.65795898437500011 0.0022535324096679692 0.078887939453125014 0.0020475387573242192 0.0039577484130859384 0.0026044845581054692 0.0044002532958984384 -0.00022715330123901364 0.0025510787963867192 -5.0276517868041985e-05
decision_type=4 4 6 4 4 6 6 6 6 4 4 6 6 6 4 6 6 4 6 6 6 6 6 6 6 4 6 4 6 6
left_child=3 2 8 4 7 6 -3 19 9 -2 14 21 15 -13 27 17 -17 -8 -6 -1 -11 -12 26 -4 -14 -26 -20 -7 -5 -30
right_child=1 5 23 28 18 10 12 -9 -10 20 11 13 24 -15 -16 16 -18 -19 22 -21 -22 -23 -24 -25 25 -27 -28 -29 29 -31
leaf_value=9.869741528214314e-05 -2.53559923273027e-06 -9.1151725850497212e-06 -1.559998846864274e-05 -2.7012110094840659e-06 3.7639733365023462e-06 -6.2297198343320822e-06 -3.0183805828130744e-06 5.8854723293055524e-06 0 -8.865823836631632e-06 -1.8810779949237926e-06 -1.4078212626586477e-06 0 -2.9973513219450603e-05 -2.52609393295392e-07 0.00010021362472812668 0 1.5260405807158327e-05 8.8238378095448763e-06 9.4983507807881135e-06 -8.9471596392551363e-05 -7.1121894788201655e-06 -1.5955649064251692e-05 -2.3944677144590843e-06 0 1.564054263718548e-05 4.0483782246496496e-06 -2.2568931012351878e-06 1.2117261740536753e-05 0
leaf_weight=782 1204 14440 24055 75027 231612 69954 2987 2670 716 819 114505 4706 22069 8713 441096 600 556 18009 137924 914 2503 58489 1054 11394 2509 7626 66684 170648 6466 19678
leaf_count=782 1204 14440 24055 75027 231612 69954 2987 2670 716 819 114505 4706 22069 8713 441096 600 556 18009 137924 914 2503 58489 1054 11394 2509 7626 66684 170648 6466 19678
internal_value=0 -2.45719e-06 -1.78266e-05 4.41687e-06 5.72608e-06 -1.76694e-06 4.10517e-06 3.30603e-05 -5.34472e-05 -6.11762e-05 -2.25678e-06 -5.16601e-06 8.00837e-06 -2.15412e-05 -1.43005e-06 1.49139e-05 5.56939e-05 1.16483e-05 5.40433e-06 6.3243e-05 -7.60168e-05 -3.77261e-06 7.14828e-06 -1.19553e-05 2.59764e-06 9.93393e-06 7.37138e-06 -3.50034e-06 -1.08826e-06 2.72786e-06
internal_weight=0 977598 40691 542811 441640 936907 68796 4366 5242 4526 868111 186413 54356 13419 681698 22152 1156 20996 437274 1696 3322 172994 205662 35449 32204 10135 204608 240602 101171 26144
internal_count=1520409 977598 40691 542811 441640 936907 68796 4366 5242 4526 868111 186413 54356 13419 681698 22152 1156 20996 437274 1696 3322 172994 205662 35449 32204 10135 204608 240602 101171 26144
is_linear=0
shrinkage=0.0222729


Tree=5
num_leaves=31
num_cat=0
split_feature=154 121 78 205 154 121 23 124 208 184 114 61 21 126 15 72 175 185 8 36 184 125 71 131 122 94 72 139 41 60
split_gain=0.028291 0.0470817 0.016559 0.0151317 0.0118144 0.014579 0.0112277 0.00780089 0.0147865 0.0070637 0.00496615 0.0117254 0.0068558 0.00479838 0.00436149 0.00411539 0.00459609 0.00326985 0.0031454 0.00283871 0.00266748 0.00244081 0.00322733 0.00214634 0.00210118 0.00773984 0.00209151 0.00172519 0.00165501 0.00351639
threshold=0.00090336799621582042 0.10247802734375001 -0.0051784515380859366 -0.030387878417968747 -0.0011515617370605467 -0.097351074218749986 0.23138427734375003 0.013408660888671877 -0.023719787597656247 0.0013461112976074221 -0.014347076416015623 -0.051345825195312493 1.9682617187500002 -0.0015358924865722654 1.5737304687500002 0.0064868927001953134 0.010883331298828127 -0.014141082763671873 1.5348196029663089e-05 54.671875000000007 0.0089836120605468767 -0.14111328124999997 1.3383789062500002 0.0017666816711425783 0.019065856933593753 0.010540008544921877 0.00027930736541748052 -0.00030624866485595698 56.453125000000007 -0.00014835596084594724
decision_type=4 6 6 6 6 4 6 6 4 4 6 6 6 6 6 4 4 6 6 4 6 4 4 4 4 4 6 4 6 4
left_child=4 2 10 7 5 17 -3 15 18 21 11 12 -2 19 -10 -4 -17 -1 -9 -6 -13 22 -7 24 -5 -26 -23 -11 -12 -30
right_child=1 6 3 23 13 9 -8 8 14 27 28 20 -14 -15 -16 16 -18 -19 -20 -21 -22 26 -24 -25 25 -27 -28 -29 29 -31
leaf_value=0.00013667729647228848 -2.0374442622084043e-05 0 -3.1978198834679149e-06 -2.3410111117706783e-06 -2.8429004332743727e-06 0 -0.0002394360505487157 0.00012727479905901048 1.6817163642081719e-05 -5.5629966788019318e-06 -1.241158268546481e-05 -4.0991904536203971e-06 -0.00012061199792826461 9.8534079724164345e-07 -6.557641086180755e-06 0 3.4366222880823582e-05 0 0 -1.677141234212421e-05 -3.779472297753309e-05 3.5164573942360731e-06 3.8422871110857878e-05 -7.4375224101548894e-06 2.2224553429232095e-06 -1.6921225701090588e-05 6.9611816860360262e-06 1.0319819437188356e-06 0 8.7840739518105511e-05
leaf_weight=516 1392 71 25718 254252 121426 1953 522 772 20628 35114 40590 6653 1171 395840 3435 2238 3433 187 314 8679 2249 222449 2738 90564 16483 22356 202495 35374 568 229
leaf_count=516 1392 71 25718 254252 121426 1953 522 772 20628 35114 40590 6653 1171 395840 3435 2238 3433 187 314 8679 2249 222449 2738 90564 16483 22356 202495 35374 568 229
internal_value=0 -4.38722e-06 -4.10396e-06 -2.63161e-06 2.10118e-06 4.55139e-06 -0.000202896 7.99585e-06 1.72504e-05 4.36424e-06 -1.5964e-05 -3.01896e-05 -7.4549e-05 -1.91631e-07 1.25973e-05 0 1.77039e-05 0.000106956 0.000100488 -3.93573e-06 -1.50087e-05 5.44998e-06 2.28274e-05 -4.25317e-06 -3.19666e-06 -8.25041e-06 5.20797e-06 -1.95211e-06 -1.15079e-05 7.83262e-06
internal_weight=0 493638 493045 440193 1.02677e+06 500826 593 56538 25149 500123 52852 11465 2563 525945 24063 31389 5671 703 1086 130105 8902 429635 4691 383655 293091 38839 424944 70488 41387 797
internal_count=1520409 493638 493045 440193 1026771 500826 593 56538 25149 500123 52852 11465 2563 525945 24063 31389 5671 703 1086 130105 8902 429635 4691 383655 293091 38839 424944 70488 41387 797
is_linear=0
shrinkage=0.0222729


Tree=6
num_leaves=31
num_cat=0
split_feature=154 121 97 84 184 131 99 102 155 151 72 144 72 15 134 72 36 19 210 214 214 8 104 78 38 97 108 90 93 139
split_gain=0.0307361 0.0266836 0.0142191 0.00988846 0.00984807 0.00924078 0.00912926 0.00630245 0.00528873 0.00424465 0.0041004 0.00712777 0.00352327 0.00243097 0.00246297 0.00207306 0.00526729 0.00206421 0.00181424 0.00318029 0.00211101 0.00184821 0.00180242 0.00188203 0.00175588 0.00173405 0.00164456 0.00154714 0.00126269 0.00161057
threshold=-0.00035560131072998041 0.084686279296875014 -0.088531494140624986 -0.0015215873718261717 -0.0017600059509277342 0.0023794174194335942 -0.053390502929687493 -0.0020551681518554683 -0.00014382600784301755 -0.0031347274780273433 0.00046670436859130865 -0.013423919677734373 0.0034418106079101567 1.0444335937500002 -0.0021486282348632808 -0.0024232864379882808 55.953125000000007 2.3603515625000004 0.0050487518310546884 -0.0056362152099609366 -0.022789001464843747 -3.9041042327880851e-06 -0.011562347412109373 -0.00079369544982910145 36.171875000000007 -0.0066127777099609366 -0.0027093887329101558 -0.012729644775390623 -0.084808349609374986 0.00094437599182128917
decision_type=4 6 4 6 4 4 4 4 6 6 4 6 6 6 6 6 4 6 6 4 6 6 6 4 6 4 4 6 6 6
left_child=4 2 8 9 6 10 18 -5 -2 -3 26 12 -12 -7 -15 16 -6 -13 25 20 21 -20 23 -8 -18 -1 27 -4 29 -17
right_child=1 3 5 7 15 13 22 -9 -10 -11 11 17 -14 14 -16 28 24 -19 19 -21 -22 -23 -24 -25 -26 -27 -28 -29 -30 -31
leaf_value=2.2813672499408577e-05 0 -4.5897552028136823e-05 -1.3877890215155048e-05 0 -8.0860598157936775e-07 -5.0860737713417381e-06 3.530926979410759e-06 -0.00016175657183585272 -0.0001709057077254461 0.00014314133051249119 0 1.3754105446992212e-08 1.9716763306129247e-05 -1.8999624093669243e-05 -7.2540365304322431e-06 0 -2.6719531874192695e-05 -6.5717487426385384e-06 8.5520652322875412e-05 0 1.5474784878903056e-05 0 2.0853490853552687e-06 7.5012508927768891e-06 0 0 -1.9421588731027908e-06 -4.2439357086017268e-06 7.1926693328163851e-07 1.5314274778806868e-05
leaf_weight=2545 68 204 12221 79 63914 113434 128042 842 342 78 7744 269351 13514 18205 38105 7261 5761 25272 1467 1169 1670 191 98923 181753 691 1730 229604 91295 197760 7174
leaf_count=2545 68 204 12221 79 63914 113434 128042 842 342 78 7744 269351 13514 18205 38105 7261 5761 25272 1467 1169 1670 191 98923 181753 691 1730 229604 91295 197760 7174
internal_value=0 -2.93178e-06 -2.75099e-06 -0.000108066 3.42172e-06 -2.65856e-06 5.59661e-06 -0.000143343 -0.000134383 0 -1.40773e-06 3.50344e-07 1.28433e-05 -7.31575e-06 -1.14295e-05 1.33051e-07 -3.09291e-06 -4.79103e-07 2.86033e-05 4.11304e-05 5.25253e-05 7.6949e-05 5.05063e-06 5.92889e-06 -2.24183e-05 1.0438e-05 -3.13858e-06 -5.58694e-06 1.30295e-06 7.82613e-06
internal_weight=0 820358 819155 1203 700051 818745 417490 921 410 282 649001 315881 21258 169744 56310 282561 70366 294623 8772 4497 3328 1658 408718 309795 6452 4275 333120 103516 212195 14435
internal_count=1520409 820358 819155 1203 700051 818745 417490 921 410 282 649001 315881 21258 169744 56310 282561 70366 294623 8772 4497 3328 1658 408718 309795 6452 4275 333120 103516 212195 14435
is_linear=0
shrinkage=0.0222729


Tree=7
num_leaves=31
num_cat=0
split_feature=184 121 123 72 15 179 204 134 126 1 1 12 72 197 184 20 54 8 197 138 135 162 36 130 154 148 215 208 104 103
split_gain=0.0267266 0.0293289 0.0145453 0.0125033 0.01186 0.00982445 0.00921409 0.00890597 0.00783685 0.0116132 0.00790475 0.0057438 0.00559086 0.00543637 0.00472768 0.00494647 0.00282466 0.00271708 0.00260569 0.00258998 0.00267455 0.00251984 0.00226985 0.00432917 0.00270834 0.00226983 0.00225618 0.00197438 0.00194715 0.0039156
threshold=-0.0027055740356445308 0.090942382812500014 -0.10195922851562499 -0.0016293525695800779 0.36975097656250006 -0.017646789550781247 0.044113159179687507 -0.0038652420043945308 -0.0083732604980468733 -0.96801757812499989 -0.40563964843749994 -7.7784061431884749e-06 0.0018229484558105471 0.016532897949218753 0.0014805793762207033 1.7553710937500002 0.0034990310668945317 -1.1295080184936522e-05 -0.0022001266479492183 -0.00064492225646972645 0.00019532442092895511 -0.0050640106201171866 41.484375000000007 0.0011754035949707033 -0.0016570091247558592 0.014541625976562502 0.0050830841064453134 0.0090217590332031267 -0.015216827392578123 -0.042129516601562493
decision_type=4 6 4 4 6 6 4 6 6 6 6 6 6 6 6 6 6 6 4 6 6 6 6 6 6 6 6 4 4 6
left_child=2 3 5 7 -3 8 14 11 9 25 -10 -2 -8 26 -5 27 -17 -12 -14 20 -4 -13 23 -9 -24 -1 -6 -16 29 -7
right_child=1 4 19 6 13 28 12 22 10 -11 17 21 18 -15 15 16 -18 -19 -20 -21 -22 -23 24 -25 -26 -27 -28 -29 -30 -31
leaf_value=0.00014825650320435737 -2.2576616538336672e-05 0 -3.3384116079226682e-07 8.4149799348035729e-07 0 0 0 0 6.1217561637797339e-05 0 -6.4343878781240719e-05 4.2933713698598452e-06 -4.9284918788139985e-06 -0.0003681326148323689 1.6992198520405286e-06 -3.4163142972549043e-06 -1.779671231755164e-05 0 1.949215711532184e-05 5.4352657996136275e-06 4.8830351495662339e-06 -1.0194183264533734e-05 1.6692408336771692e-06 -3.2943339989370654e-05 -4.3233281015205551e-06 0 -0.00010302271139720337 -2.7162941636553297e-06 -9.1697276101654912e-06 5.6937779236761922e-05
leaf_weight=1102 23795 82 106556 382210 101 220 14550 3348 1131 354 393 6206 920 127 58491 19112 16718 308 21597 265890 80494 19219 39137 3873 227211 61 666 224194 1488 855
leaf_count=1102 23795 82 106556 382210 101 220 14550 3348 1131 354 393 6206 920 127 58491 19112 16718 308 21597 265890 80494 19219 39137 3873 227211 61 666 224194 1488 855
internal_value=0 -1.94768e-06 4.48539e-06 -1.81484e-06 -0.000124096 3.95918e-05 -1.85356e-07 -5.47346e-06 6.49591e-05 0.000107009 1.84304e-05 -1.43547e-05 1.05975e-05 -0.000152849 -7.86111e-07 -2.80588e-06 -1.072e-05 -2.04094e-05 1.75505e-05 3.97997e-06 1.79764e-06 -5.82242e-06 -3.79776e-06 -1.68835e-05 -3.36302e-06 0.000140944 -8.81451e-05 -1.72752e-06 0 2.79177e-05
internal_weight=0 1.06156e+06 458852 1.06058e+06 976 5912 737792 322789 3349 1517 1832 49220 37067 894 700725 318515 35830 701 22517 452940 187050 25425 273569 7221 266348 1163 767 282685 2563 1075
internal_count=1520409 1061557 458852 1060581 976 5912 737792 322789 3349 1517 1832 49220 37067 894 700725 318515 35830 701 22517 452940 187050 25425 273569 7221 266348 1163 767 282685 2563 1075
is_linear=0
shrinkage=0.0222729


Tree=8
num_leaves=31
num_cat=0
split_feature=123 165 154 49 52 196 15 154 168 92 184 156 94 72 48 126 138 112 60 2 92 185 136 148 185 60 124 8 155 103
split_gain=0.0160653 0.0348474 0.0284347 0.027917 0.0262171 0.0156339 0.013448 0.0156952 0.0102589 0.00832241 0.00572495 0.004711 0.00623544 0.00694834 0.0052485 0.00385359 0.00382983 0.00316976 0.00304621 0.00298541 0.00258044 0.00280581 0.00249057 0.0105714 0.00244515 0.00207938 0.00173128 0.00239718 0.00167023 0.00136072
threshold=0.14642333984375003 -0.010936737060546873 -0.00083899497985839833 -0.0076007843017578116 0.0044994354248046884 0.0046863555908203134 1.7397460937500002 0.0046367645263671884 -0.0014929771423339842 -0.0049800872802734366 0.0064144134521484384 -0.0035600662231445308 -0.11758422851562499 0.0056591033935546884 0.0029726028442382817 -0.0088462829589843733 0.00088906288146972667 -0.019660949707031247 -0.0092201232910156233 0.081634521484375014 -0.0060672760009765616 -0.010677337646484373 -0.0094337463378906233 -0.0043888092041015616 -0.013973236083984373 0.0019788742065429692 -0.046218872070312493 8.6396932601928724e-05 0.0012927055358886721 -0.0056324005126953116
decision_type=6 4 4 6 6 4 6 6 6 6 4 4 6 6 6 6 4 4 6 4 6 6 4 4 4 6 6 4 4 4
left_child=2 5 10 8 9 -2 11 -8 -3 -5 16 18 13 17 -15 -9 25 -13 24 -12 21 -18 23 -14 -4 -1 27 -20 -24 -26
right_child=1 3 6 4 -6 -7 7 15 -10 -11 19 12 22 14 -16 -17 20 -19 26 -21 -22 -23 28 -25 29 -27 -28 -29 -30 -31
leaf_value=1.889155578486173e-06 -0.00041445756946862972 0.0004486854989367837 1.4218080387892628e-06 0.00022497147300534022 -0.00012111138441667262 0 -5.813430950731418e-06 -5.3572032895992504e-05 0 0 -2.4307425290132966e-06 -2.106223159832296e-05 7.512311964782014e-05 0 4.7021364019483186e-05 -2.1064390558293832e-05 1.8431852683301103e-05 6.2606802298087701e-06 4.3259518718289845e-07 -3.0628258058667858e-05 4.9397799494090997e-06 6.9797083825518195e-06 1.1966160502105684e-07 0 -1.1917439102400542e-06 5.749801647156376e-06 -3.6223485446071095e-06 5.1163426834778512e-05 -2.2007477392731254e-06 -1.7111360217790589e-05
leaf_weight=257693 188 71 3578 132 975 58 88775 3919 62 121 24812 2106 1109 2638 3888 12645 21413 21078 13583 2343 113893 42000 287813 5864 6648 111874 176848 530 295093 18659
leaf_count=257693 188 71 3578 132 975 58 88775 3919 62 121 24812 2106 1109 2638 3888 12645 21413 21078 13583 2343 113893 42000 287813 5864 6648 111874 176848 530 295093 18659
internal_value=0 -7.03166e-05 6.77011e-08 -9.39997e-06 -5.75066e-05 -0.000317399 -2.29353e-06 -9.82659e-06 0.000269329 0.00010311 3.99097e-06 -1.32287e-06 -2.91886e-07 9.60814e-06 3.03144e-05 -3.00473e-05 4.50854e-06 2.85982e-06 -4.13182e-06 -5.64944e-06 7.29248e-06 1.11826e-05 -8.26578e-07 1.21729e-05 -1.11524e-05 3.11536e-06 -2.95847e-06 3.85457e-06 -1.0186e-06 -1.37694e-05
internal_weight=0 1607 1.5188e+06 1361 1228 246 944774 105339 133 253 574028 839435 619589 29710 6526 16564 546873 23184 219846 27155 177306 63413 589879 6973 28885 369567 190961 14113 582906 25307
internal_count=1520409 1607 1518802 1361 1228 246 944774 105339 133 253 574028 839435 619589 29710 6526 16564 546873 23184 219846 27155 177306 63413 589879 6973 28885 369567 190961 14113 582906 25307
is_linear=0
shrinkage=0.0222729


Tree=9
num_leaves=31
num_cat=0
split_feature=154 20 121 154 43 155 72 123 125 0 10 184 204 124 208 214 125 118 184 155 17 117 125 145 184 92 90 138 184 70
split_gain=0.026974 0.0106204 0.0326882 0.00921003 0.00838267 0.00728367 0.00552497 0.00477366 0.0101147 0.00589672 0.0048779 0.0042819 0.00407306 0.0112235 0.0126276 0.00387016 0.00382514 0.00374889 0.00386821 0.0028576 0.00285664 0.00280306 0.0023813 0.00460529 0.0023699 0.00192967 0.00174857 0.00146931 0.00143524 0.00132742
threshold=0.00033915042877197271 1.5581054687500002 0.16064453125000003 -0.0018630027770996092 -0.059097290039062493 -0.0015921592712402342 -0.0036783218383789058 -0.043655395507812493 0.19744873046875003 -0.0020856857299804683 0.072723388671875014 0.00027215480804443365 -0.0092201232910156233 0.015117645263671877 0.00092911720275878917 0.0058040618896484384 0.13458251953125003 -0.047042846679687493 -0.0034704208374023433 0.0056667327880859384 0.98315429687500011 -0.066894531249999986 0.17474365234375003 -0.00087714195251464833 -0.0017809867858886717 0.024421691894531253 7.5846910476684584e-05 -0.0027761459350585933 -0.0021181106567382808 0.0075016021728515634
decision_type=4 4 6 6 4 6 4 4 6 6 6 6 6 6 4 6 6 4 6 6 6 6 6 6 4 4 4 6 6 4
left_child=3 2 12 7 5 -3 25 9 24 10 17 -6 13 -2 15 -15 -16 18 -1 -13 -21 -10 26 -24 -9 -5 -14 -11 -8 -19
right_child=1 4 -4 6 11 -7 28 8 21 27 -12 19 22 14 16 -17 -18 29 -20 20 -22 -23 23 -25 -26 -27 -28 -29 -30 -31
leaf_value=5.2768225797499872e-05 -3.039367371201709e-06 0 -0.00049391894174017075 -3.6682217921479023e-06 -1.3425418574264832e-06 -0.00015113872093624103 3.2070990693427575e-06 5.928355891744359e-06 0 -5.215577946653241e-06 -1.5149259869322611e-05 -8.2366326262287265e-06 -4.7643859550508555e-06 0 3.1458975708879528e-06 5.9659658231884166e-05 3.1583716108745726e-05 2.0926926191626428e-05 0 -7.0539935294150617e-06 -2.5797201558034901e-05 -8.105845281368841e-05 0 -0.00016222383856941082 1.5028663154528123e-06 -1.9233297245538049e-05 -1.6089261777162186e-06 8.2497594822178217e-06 4.8722398369992983e-07 0
leaf_weight=4932 88275 78 64 67258 28145 398 164118 231244 106 3931 675 44788 188624 1069 32893 3319 2876 3564 1229 10518 15673 852 120 138 100496 5184 214635 12510 290115 2582
leaf_count=4932 88275 78 64 67258 28145 398 164118 231244 106 3931 675 44788 188624 1069 32893 3319 2876 3564 1229 10518 15673 852 120 138 100496 5184 214635 12510 290115 2582
internal_value=0 -3.52502e-06 -2.22415e-06 2.49504e-06 -1.026e-05 -0.000107658 5.69536e-07 5.23683e-06 4.38285e-06 1.41696e-05 2.57403e-05 -9.5743e-06 -2.12186e-06 1.21407e-06 1.10926e-05 4.74937e-05 6.02908e-06 2.97121e-05 4.37956e-05 -1.25389e-05 -1.9083e-05 -6.63307e-05 -3.23628e-06 -7.41552e-05 4.65178e-06 -5.07615e-06 -3.13759e-06 3.73803e-06 1.51672e-06 1.21233e-05
internal_weight=0 631613 532013 888796 99600 476 526675 362121 332698 29423 12982 99124 531949 128432 40157 4388 35769 12307 6161 70979 26191 958 403517 258 331740 72442 403259 16441 454233 6146
internal_count=1520409 631613 532013 888796 99600 476 526675 362121 332698 29423 12982 99124 531949 128432 40157 4388 35769 12307 6161 70979 26191 958 403517 258 331740 72442 403259 16441 454233 6146
is_linear=0
shrinkage=0.0222729


Tree=10
num_leaves=31
num_cat=0
split_feature=121 154 163 12 15 123 0 73 155 184 184 214 161 161 65 214 10 2 131 42 133 164 208 104 20 72 178 93 205 124
split_gain=0.0515712 0.0254019 0.0128103 0.0127916 0.0114437 0.0108293 0.0109431 0.00675114 0.00738816 0.00624999 0.0062802 0.00531776 0.0116314 0.00863395 0.00546737 0.00496466 0.00482271 0.00516009 0.00466938 0.00459561 0.00382504 0.00357095 0.00313498 0.00465329 0.00236513 0.00235474 0.00198073 0.00188738 0.00181964 0.00229827
threshold=0.11126708984375001 -0.00016540288925170896 -0.0042896270751953116 1.2814998626708986e-06 1.4252929687500002 -0.10952758789062499 4.7951936721801765e-05 -0.051345825195312493 0.0030298233032226567 -0.0055522918701171866 0.0070285797119140634 0.020530700683593753 -0.00059914588928222645 -0.018806457519531247 -0.038070678710937493 0.0051326751708984384 -0.035049438476562493 -0.0078239440917968733 0.0013976097106933596 -0.0025568008422851558 0.0021734237670898442 -0.014072418212890623 0.020851135253906253 0.0018963813781738283 2.8837890625000004 0.0016999244689941408 -0.022895812988281247 -0.12603759765624997 -0.025642395019531247 -0.0041408538818359366
decision_type=6 4 6 6 4 4 6 4 6 4 4 6 6 6 6 4 6 6 4 4 6 6 4 6 4 6 6 6 6 6
left_child=1 5 3 -2 11 6 16 8 -6 26 19 18 13 27 -15 -9 17 -1 28 21 -10 -11 23 -14 -17 -24 -7 -13 29 -3
right_child=2 4 -4 -5 7 9 -8 15 20 10 -12 12 22 14 -16 24 -18 -19 -20 -21 -22 -23 25 -25 -26 -27 -28 -29 -30 -31
leaf_value=8.3809535231232351e-05 -0.0004854219542081876 -1.9650006395615114e-06 0 -2.7114058626026185e-06 0 7.8059948651379188e-06 -3.745687571912823e-05 -4.7466973193617524e-06 -0.00011338713423875931 -1.8243151564353012e-05 -8.2436693771655252e-06 0 5.7939336010257807e-05 2.265382083620042e-05 -2.150278975475036e-06 -1.0595227512660468e-05 0 0 -5.1630162651596331e-06 3.1880115315184047e-06 0 -6.3707767983080351e-07 2.6593258841118151e-06 0 -2.6440467579199803e-05 2.6766150401186166e-05 1.9700968689377668e-06 -4.2918024966500091e-05 -1.3408491173064111e-06 7.3799687360319117e-06
leaf_weight=2291 159 18953 127 154 531 136017 419 84960 835 6338 29863 710 2570 5263 22141 29455 700 135 178094 426767 377 99325 7551 532 9469 4859 50257 2826 370203 28528
leaf_count=2291 159 18953 127 154 531 136017 419 84960 835 6338 29863 710 2570 5263 22141 29455 700 135 178094 426767 377 99325 7551 532 9469 4859 50257 2826 370203 28528
internal_value=0 6.33203e-08 -0.000240165 -0.000317664 -2.77202e-06 2.98626e-06 4.22294e-05 -8.95523e-06 -5.46549e-05 2.77185e-06 1.55015e-06 -1.5294e-06 5.60464e-06 -1.65871e-06 1.84058e-06 -8.13929e-06 5.97277e-05 7.46998e-05 -2.12132e-06 2.13941e-06 -8.54848e-05 -1.89474e-06 2.14583e-05 4.51501e-05 -1.49976e-05 1.38142e-05 6.34556e-06 -3.47554e-05 -7.73495e-07 3.2025e-06
internal_weight=0 1.51997e+06 440 313 767857 752112 3545 125627 1743 748567 562293 642230 46452 30940 27404 123884 3126 2426 595778 532430 1212 105663 15512 3102 38924 12410 186274 3536 417684 47481
internal_count=1520409 1519969 440 313 767857 752112 3545 125627 1743 748567 562293 642230 46452 30940 27404 123884 3126 2426 595778 532430 1212 105663 15512 3102 38924 12410 186274 3536 417684 47481
is_linear=0
shrinkage=0.0222729


Tree=11
num_leaves=31
num_cat=0
split_feature=184 60 123 93 56 72 93 184 122 179 20 72 8 78 204 183 36 118 19 104 154 155 107 126 135 90 47 134 162 198
split_gain=0.0246695 0.0120273 0.0143136 0.0223554 0.0159448 0.0253498 0.0103869 0.00949701 0.0399383 0.015107 0.00535389 0.0042217 0.00511992 0.00638475 0.00418064 0.0051294 0.0036649 0.00333901 0.00319095 0.0029142 0.00290847 0.00266423 0.00286283 0.00264883 0.00337233 0.00232592 0.00240727 0.00200209 0.00198498 0.00187869
threshold=0.0014586448669433596 -0.0092201232910156233 0.15899658203125003 -0.030494689941406247 -0.0014758110046386717 -0.0035600662231445308 0.030303955078125003 -0.0042552947998046866 -0.068511962890624986 -0.0097084045410156233 1.0141601562500002 -0.00067114830017089833 -8.3833932876586901e-05 -0.0035371780395507808 -0.034927368164062493 -0.0033426284790039058 38.953125000000007 -0.0033636093139648433 2.0400390625000004 -0.0045337677001953116 -0.0020380020141601558 0.0014138221740722658 0.39013671875000006 0.00096106529235839855 0.021598815917968753 0.0023870468139648442 -0.094390869140624986 -0.0045528411865234366 0.0013451576232910158 0.00043761730194091802
decision_type=4 4 6 6 6 6 6 6 4 6 4 6 6 4 6 6 6 6 6 6 6 6 4 6 4 4 6 6 6 6
left_child=7 14 10 4 5 -4 -5 8 9 17 25 12 13 27 15 -2 -13 -1 -12 23 -16 22 -11 24 -10 -3 28 -9 -27 -26
right_child=1 2 3 6 -6 -7 -8 11 19 21 18 16 -14 -15 20 -17 -18 -19 -20 -21 -22 -23 -24 -25 29 26 -28 -29 -30 -31
leaf_value=0.00011463813823216834 -0.00010196539359653432 -2.6748370169094201e-06 0.00034869141776010953 -0.00038572949788008223 -0.00011863038669219065 0 0 -3.462285301276882e-05 4.3824391735874312e-06 4.6358306704747366e-05 -4.5166848734750703e-06 1.4230027071778697e-05 -4.6758007654781477e-07 0 0 0 1.5543434517126519e-06 0 -1.344626971457742e-05 0 -1.7722806170931949e-05 -3.8128502962589686e-05 0 8.4583918522508944e-06 -1.4913409290911655e-05 2.918468341836079e-05 2.9621800874378505e-07 -1.0680346111510992e-05 0 0
leaf_weight=2429 748 227281 118 158 403 303 145 5281 139661 1177 102973 12186 255805 13335 3373 704 403089 199 30250 63889 24738 199 355 92292 7045 2705 114049 8525 1278 5716
leaf_count=2429 748 227281 118 158 403 303 145 5281 139661 1177 102973 12186 255805 13335 3373 704 403089 199 30250 63889 24738 199 355 92292 7045 2705 114049 8525 1278 5716
internal_value=0 -4.00671e-06 -3.10316e-06 -8.2947e-05 0 7.18312e-05 -0.000248134 2.00451e-06 5.23641e-06 7.24612e-05 -2.87013e-06 5.2544e-07 -1.53075e-06 -1.07673e-05 -1.79464e-05 -6.0163e-05 1.97757e-06 0.000107325 -6.704e-06 4.21724e-06 -1.50031e-05 7.17598e-06 2.6968e-05 5.32314e-06 3.28522e-06 -1.32944e-06 1.08127e-06 -2.13833e-05 1.82119e-05 -7.05687e-06
internal_weight=0 509226 479663 1127 824 421 303 1.01118e+06 312962 4359 478536 698221 282946 27141 29563 1452 415275 2628 133223 308603 28111 1731 1532 244714 152422 345313 118032 13806 3983 12761
internal_count=1520409 509226 479663 1127 824 421 303 1011183 312962 4359 478536 698221 282946 27141 29563 1452 415275 2628 133223 308603 28111 1731 1532 244714 152422 345313 118032 13806 3983 12761
is_linear=0
shrinkage=0.0222729


Tree=12
num_leaves=31
num_cat=0
split_feature=184 126 91 36 154 88 214 175 121 78 123 123 72 130 13 53 114 54 156 184 135 94 130 154 72 42 154 134 113 154
split_gain=0.0224857 0.0151283 0.0116864 0.00649265 0.00582824 0.00658418 0.0095322 0.0051153 0.0145636 0.0153539 0.0107193 0.00974421 0.0110873 0.00843475 0.00516649 0.00529606 0.00504209 0.00424068 0.00389558 0.0042135 0.00379585 0.00347875 0.00346898 0.00297285 0.00293259 0.00262446 0.00210865 0.00195113 0.0032546 0.00187256
threshold=-0.0028963088989257808 -0.0054950714111328116 -0.044174194335937493 45.796875000000007 -0.0033845901489257808 -0.045730590820312493 -0.030204772949218747 -0.029411315917968747 0.080169677734375014 0.0027227401733398442 0.039718627929687507 0.12081909179687501 0.0021638870239257817 -0.0017781257629394529 2.1666288375854496e-05 0.031196594238281253 -0.0034837722778320308 0.0047588348388671884 0.0071392059326171884 0.014812469482421877 -0.00060439109802246083 0.010738372802734377 -6.7383050918579088e-05 0.00091528892517089855 -0.0026845932006835933 0.0041599273681640634 -0.0019450187683105467 0.0039615631103515634 -0.074218749999999986 -0.00062012672424316395
decision_type=4 6 6 6 4 6 6 6 6 6 6 6 6 6 6 6 6 6 6 6 6 6 4 4 4 4 6 4 4 4
left_child=4 2 3 18 5 6 -1 8 11 -10 22 12 -3 21 17 26 -17 -12 19 -2 -11 -13 29 -24 -6 -14 -16 -26 -29 -9
right_child=1 7 -4 -5 24 -7 -8 10 9 20 14 13 25 -15 15 16 -18 -19 -20 -21 -22 -23 23 -25 27 -27 -28 28 -30 -31
leaf_value=7.1440706588464151e-05 -3.394834839582328e-05 -2.5469575750350391e-06 -7.4858051582799552e-06 0 -1.4111246167291461e-06 6.6360934455920275e-06 1.1275504526467899e-05 2.7653985230981648e-06 0 -0.0002082596333560487 -4.7025597539608307e-06 0.00014643312579680983 7.4626427742318116e-06 0 0 0.00020954067343283562 -1.6377908525131791e-05 -2.0809183022047462e-05 0 -9.5109685572119243e-05 0 0 -7.4030052364066229e-07 -4.6055066472393667e-06 2.6938645769663553e-06 2.5797964638512861e-05 -8.8395497369861398e-05 4.1220119725862418e-05 6.5022991584605768e-06 -3.5201838681950688e-07
leaf_weight=2078 6530 34190 64588 1884 67632 122761 7146 132220 311 357 34284 556 12872 651 64 51 410 13446 563 1285 68 65 283387 166695 205582 11040 1064 1734 31012 315883
leaf_count=2078 6530 34190 64588 1884 67632 122761 7146 132220 311 357 34284 556 12872 651 64 51 410 13446 563 1285 68 65 283387 166695 205582 11040 1064 1734 31012 315883
internal_value=0 -1.7327e-06 -1.14207e-05 -3.41063e-05 4.24851e-06 8.23159e-06 2.71533e-05 -9.91914e-07 5.23432e-06 -9.1074e-05 -1.40935e-06 6.79113e-06 5.05794e-06 6.90766e-05 -1.15527e-05 -5.41385e-05 0 -9.68615e-06 -4.25323e-05 -4.67594e-05 -0.000179146 0.000128246 -8.28684e-07 -2.21906e-06 2.46078e-06 1.68187e-05 -8.02947e-05 3.64867e-06 8.99349e-06 5.20434e-07
internal_weight=0 1.08246e+06 74850 10262 437945 131985 9224 1.00761e+06 60110 736 947504 59374 58102 1272 49319 1589 461 47730 8378 7815 425 621 898185 450082 305960 23912 1128 238328 32746 448103
internal_count=1520409 1082464 74850 10262 437945 131985 9224 1007614 60110 736 947504 59374 58102 1272 49319 1589 461 47730 8378 7815 425 621 898185 450082 305960 23912 1128 238328 32746 448103
is_linear=0
shrinkage=0.0222729


Tree=13
num_leaves=31
num_cat=0
split_feature=154 154 20 121 127 72 205 122 164 15 118 184 214 72 72 208 136 90 205 125 90 130 154 96 205 122 214 134 68 120
split_gain=0.0197063 0.0124454 0.0104514 0.0178227 0.012501 0.0195593 0.00946923 0.00771171 0.00652171 0.00630711 0.00543157 0.00935585 0.00666878 0.00494264 0.00400173 0.00399681 0.0153423 0.00410274 0.00303354 0.00255414 0.00248843 0.00196118 0.0018262 0.00173125 0.0018676 0.00144475 0.00136504 0.00249785 0.00149718 0.00183407
threshold=0.0014243125915527346 -0.0019450187683105467 1.4096679687500002 0.10687255859375001 0.0079689025878906267 0.00026404857635498052 -0.028816223144531247 0.015415191650390627 -0.010807037353515623 4.2285156250000009 -0.051315307617187493 -0.0081520080566406233 -0.012836456298828123 0.0019431114196777346 -0.0024499893188476558 0.023628234863281253 -0.0041408538818359366 0.0060787200927734384 -0.042282104492187493 -0.0041599273681640616 -0.011386871337890623 0.0022287368774414067 0.0025815963745117192 -0.0024843215942382808 -0.0021104812622070308 0.017463684082031253 0.0035390853881835942 -0.0030908584594726558 0.00013107061386108401 -0.0083808898925781233
decision_type=4 6 4 6 6 6 6 6 4 4 6 4 4 6 4 4 4 4 6 6 6 6 6 6 4 4 4 6 4 6
left_child=1 10 3 6 -5 -6 7 19 -4 -10 11 12 -1 14 18 16 -9 -17 23 -2 -15 -21 -11 24 -3 -22 27 -12 29 -28
right_child=2 13 8 4 5 -7 -8 15 9 22 26 -13 -14 20 -16 17 -18 -19 -20 21 25 -23 -24 -25 -26 -27 28 -29 -30 -31
leaf_value=4.979400538400128e-05 -5.6740422713123298e-06 0 -4.0442746626682467e-05 0 0 -0.00034793581387384761 -3.9017694763714014e-06 0.00014701612784229117 -6.9235371141877572e-06 -3.182029872588431e-06 6.1873917347773443e-07 0 0 1.3832873259323422e-05 1.2142032730707235e-08 -1.6225223074401182e-06 0 2.1010613620172378e-05 -3.0084719884635118e-06 1.0531783440648526e-05 2.8241914111460398e-06 -7.6796643217570154e-06 -3.6169424030105305e-05 0 -3.1209187686372153e-05 -4.4382794935299195e-06 2.0891746856908841e-05 6.2187788648895092e-06 -3.8189209606139106e-07 7.7239306623170518e-07
leaf_weight=5309 16466 2640 4200 66 100 204 263627 606 63897 2747 59759 8344 2242 10642 414914 3916 1329 10061 156709 14176 175144 2319 6064 4680 4699 12594 3920 205207 52203 11625
leaf_count=5309 16466 2640 4200 66 100 204 263627 606 63897 2747 59759 8344 2242 10642 414914 3916 1329 10061 156709 14176 175144 2319 6064 4680 4699 12594 3920 205207 52203 11625
internal_value=0 1.47907e-06 -4.32838e-06 -2.43398e-06 -0.000157028 -0.000223881 -2.18124e-06 6.6645e-06 -1.17583e-05 -9.8074e-06 4.9798e-06 1.81241e-05 3.61341e-05 -5.43413e-08 -1.11324e-06 1.94106e-05 5.35627e-05 1.31511e-05 -4.00646e-06 0 2.95386e-06 6.68285e-06 -2.83002e-05 -1.52471e-05 -2.23074e-05 2.22378e-06 4.28782e-06 5.03597e-06 1.04813e-06 7.21564e-06
internal_weight=0 1.13063e+06 389778 312870 370 304 312500 48873 76908 72708 348609 15895 7551 782022 583642 15912 1935 13977 168728 32961 198380 16495 8811 12019 7339 187738 332714 264966 67748 15545
internal_count=1520409 1130631 389778 312870 370 304 312500 48873 76908 72708 348609 15895 7551 782022 583642 15912 1935 13977 168728 32961 198380 16495 8811 12019 7339 187738 332714 264966 67748 15545
is_linear=0
shrinkage=0.0222729


Tree=14
num_leaves=31
num_cat=0
split_feature=154 121 121 78 81 208 72 95 133 197 10 95 96 184 141 72 94 214 15 40 125 125 197 184 72 134 124 124 114 5
split_gain=0.0235723 0.0243975 0.0182895 0.0170278 0.0109915 0.0264235 0.0106491 0.0101357 0.00728609 0.00718734 0.00703688 0.00576047 0.00808842 0.00564938 0.00485781 0.00485759 0.00467083 0.00555815 0.00391215 0.00388397 0.00483673 0.00312143 0.00293832 0.00262894 0.00254531 0.00249996 0.00246198 0.0021946 0.00216286 0.00270892
threshold=-0.00088191032409667958 0.085601806640625014 -0.080017089843749986 -0.0065937042236328116 0.057403564453125007 -0.0059146881103515616 -0.0028238296508789058 0.19580078125000003 0.00037777423858642584 0.013011932373046877 0.020530700683593753 0.26513671875000006 0.0032682418823242192 0.00029146671295166021 -0.00075173377990722645 0.0048274993896484384 -0.10000610351562499 -0.00017362833023071286 2.9248046875000004 55.296875000000007 0.19018554687500003 0.072052001953125014 0.014041900634765627 -0.00043427944183349604 0.0018630027770996096 -0.0030355453491210933 0.031997680664062507 0.056838989257812507 -0.0030927658081054683 -0.00032436847686767573
decision_type=4 6 4 4 6 4 6 4 6 4 6 4 6 4 6 6 4 6 6 4 6 4 4 6 6 6 4 6 6 6
left_child=2 3 14 7 5 -3 -7 16 -6 -8 -11 18 19 24 -1 -14 17 -2 23 20 -13 -21 -16 -5 25 26 -4 -26 29 -9
right_child=1 4 13 11 8 6 9 28 -10 10 -12 12 15 -15 22 -17 -18 -19 -20 21 -22 -23 -24 -25 27 -27 -28 -29 -30 -31
leaf_value=0 0 -0.00045848702159251179 8.1859105088278583e-08 2.778434840912032e-07 -5.2825374594041265e-06 5.0713169353635059e-05 0 -6.4916834240126754e-05 0.00025755152970279759 -0.0001651634053258343 0 1.3686820245814137e-06 0 -1.0031303833539615e-06 0 3.2227992916767064e-05 -8.8407341565397452e-06 -9.0409046242784946e-05 -9.9269824046032519e-06 -2.5720060163767957e-06 6.0665300513149063e-05 -6.0575934792168994e-05 0.00013670460387588874 -2.3073562987618835e-06 7.4304814977645374e-06 4.2400636014852955e-06 -2.3071255149015624e-05 -1.7511419849389239e-05 0 0
leaf_weight=408 583 130 61518 287102 112 105 158 3006 51 556 61 34790 5135 110218 237 7903 50035 831 28455 3330 729 840 740 530795 141873 245329 2312 1271 841 955
leaf_count=408 583 130 61518 287102 112 105 158 3006 51 556 61 34790 5135 110218 237 7903 50035 831 28455 3330 729 840 740 530795 141873 245329 2312 1271 841 955
internal_value=0 -2.13934e-06 3.60191e-06 -1.99183e-06 -0.000103862 -0.000133801 -6.01913e-05 -1.39164e-05 0 -0.000102664 -0.000137734 -1.2221e-06 5.83097e-06 3.36328e-06 8.49769e-05 2.10928e-05 -1.04856e-05 -5.35408e-05 -1.68662e-06 2.8082e-07 3.18946e-06 -1.93865e-05 0.000112623 -1.37392e-06 4.47425e-06 3.20816e-06 -4.25191e-07 7.06021e-06 -4.62195e-05 -5.34795e-05
internal_weight=0 956503 563906 955330 1173 1010 880 56251 163 775 617 899079 52727 562521 1385 13038 51449 1414 846352 39689 35519 4170 977 817897 452303 309159 63830 143144 4802 3961
internal_count=1520409 956503 563906 955330 1173 1010 880 56251 163 775 617 899079 52727 562521 1385 13038 51449 1414 846352 39689 35519 4170 977 817897 452303 309159 63830 143144 4802 3961
is_linear=0
shrinkage=0.0222729


Tree=15
num_leaves=31
num_cat=0
split_feature=154 126 121 91 112 164 130 10 125 215 48 151 187 123 54 184 62 57 6 204 155 13 49 118 42 63 208 94 96 136
split_gain=0.0218778 0.0154875 0.0123865 0.0101405 0.00753014 0.00516438 0.00512178 0.00475554 0.00418597 0.00399202 0.0039627 0.00934308 0.00419983 0.00672023 0.00918763 0.00380909 0.00369112 0.00334907 0.00371862 0.00303769 0.00340897 0.00576089 0.0029307 0.00283954 0.00255317 0.00372381 0.00250543 0.00224692 0.00317576 0.00259993
threshold=-0.0013670921325683592 -0.0056705474853515616 -0.043655395507812493 0.044418334960937507 0.016914367675781253 0.014827728271484377 0.0016083717346191408 0.043655395507812507 0.13543701171875003 0.0039196014404296884 0.00010463595390319826 -0.010395050048828123 -0.013935089111328123 0.11038208007812501 -0.0014634132385253904 0.0021715164184570317 -0.049697875976562493 -0.042129516601562493 -0.0073909759521484366 -0.013240814208984373 0.0018830299377441408 1.6897916793823246e-05 0.0015883445739746096 0.023597717285156253 -0.0021944046020507808 0.13458251953125003 -0.010089874267578123 0.0073375701904296884 -0.0031862258911132808 -0.00013631582260131833
decision_type=4 4 4 4 6 4 4 6 6 4 6 6 6 6 6 4 6 6 6 6 4 6 6 4 4 4 6 4 6 4
left_child=2 3 4 9 7 6 19 -1 -6 -2 12 22 -7 -14 -15 24 -11 -5 -19 27 -21 -22 -12 -10 25 -4 -13 29 -29 -3
right_child=1 5 15 17 8 10 -8 -9 23 16 11 26 13 14 -16 -17 -18 18 -20 20 21 -23 -24 -25 -26 -27 -28 28 -30 -31
leaf_value=4.4584489665394311e-05 -3.8423751368752547e-06 7.2655338456837716e-06 2.4416293010862973e-06 0 0 -1.8539525857849395e-05 -5.5007233211749978e-06 0 -0.00016621643237248174 -4.8955824757865012e-05 0 1.6377882100206249e-05 1.698751421511324e-07 0.00017786453673940782 0 -1.9088703400934197e-06 -1.2470898446645537e-05 -6.3037855394992577e-05 0 0 -2.7828770531277738e-06 -3.7044449777129752e-05 -3.3485561935952647e-05 0 5.3804082376969949e-06 -1.3131006334048793e-05 0 -1.1445079272162713e-05 1.4215271104395049e-05 -2.1145003514862049e-06
leaf_weight=7020 38104 22018 96544 1236 513 5565 134662 401 133 2063 760 28923 18370 252 98 51152 21944 3349 969 449307 272166 2569 2813 84 290818 8031 2983 1880 16154 39528
leaf_count=7020 38104 22018 96544 1236 513 5565 134662 401 133 2063 760 28923 18370 252 98 51152 21944 3349 969 449307 272166 2569 2813 84 290818 8031 2983 1880 16154 39528
internal_value=0 -1.75553e-06 4.0799e-06 -1.20969e-05 3.16156e-05 -1.03308e-06 -1.45521e-06 3.95305e-05 -1.96909e-05 -9.07642e-06 5.23856e-06 1.00523e-05 -9.19832e-07 3.18597e-06 9.98426e-05 3.52947e-06 -1.64975e-05 -4.20265e-05 -5.15349e-05 -7.50859e-07 -1.22636e-06 -3.18103e-06 -2.18288e-05 -0.00010349 4.28676e-06 1.04219e-06 1.42902e-05 3.30838e-06 1.03609e-05 8.96282e-07
internal_weight=0 1.06571e+06 454696 67665 8151 998048 938284 7421 730 62111 59764 35479 24285 18720 350 446545 24007 5554 4318 803622 724042 274735 3573 217 395393 104575 31906 79580 18034 61546
internal_count=1520409 1065713 454696 67665 8151 998048 938284 7421 730 62111 59764 35479 24285 18720 350 446545 24007 5554 4318 803622 724042 274735 3573 217 395393 104575 31906 79580 18034 61546
is_linear=0
shrinkage=0.0222729


Tree=16
num_leaves=31
num_cat=0
split_feature=121 154 163 123 72 184 205 43 155 21 9 72 125 179 120 205 208 168 154 61 114 68 155 126 134 125 184 20 60 20
split_gain=0.0433902 0.020805 0.0176923 0.0132037 0.0108671 0.0059952 0.00569644 0.00451699 0.0067237 0.00659009 0.0040579 0.00367918 0.00369125 0.003622 0.00348552 0.00645439 0.00633094 0.0034303 0.00338798 0.00316435 0.00302278 0.00224304 0.00443839 0.00211016 0.00183083 0.00184308 0.00158881 0.00141299 0.00133771 0.00130355
threshold=0.12426757812500001 -0.00037491321563720698 -0.0048351287841796866 -0.070556640624999986 -0.0042705535888671866 0.0035276412963867192 -0.020530700683593747 -0.043151855468749993 0.0073223114013671884 2.3134765625000004 -0.0037641525268554683 -0.0040950775146484366 0.14306640625000003 0.020317077636718753 0.0058383941650390634 -0.028434753417968747 0.013111114501953127 -0.00051379203796386708 0.0010581016540527346 -0.18304443359374997 -0.0093269348144531233 0.00093483924865722667 0.023185729980468753 -0.0028028488159179683 -0.0056819915771484366 0.17962646484375003 -0.0005924701690673827 0.81323242187500011 -0.0058460235595703116 1.0375976562500002
decision_type=6 4 6 4 4 4 6 4 6 6 6 6 6 6 6 6 4 6 4 6 6 6 4 6 6 4 6 6 4 6
left_child=1 3 -2 10 7 11 14 8 -3 -10 13 19 26 29 -6 16 -16 -14 -8 23 24 -20 -23 -5 27 -26 -13 -9 -22 -1
right_child=2 4 -4 5 6 -7 18 20 9 -11 -12 12 17 -15 15 -17 -18 -19 21 -21 28 22 -24 -25 25 -27 -28 -29 -30 -31
leaf_value=1.8713479548621646e-05 -0.00040421891353203244 0 0 -2.1361557178677282e-05 6.8788612585718668e-08 -4.3008993577713919e-06 -3.4605461028202565e-07 0 0 -0.00014978086184819564 0 4.6312820349957201e-06 0 0 4.3125536978816818e-05 -6.1700121176144792e-06 8.9708038833103219e-06 -6.8456375455291108e-05 -2.4688060280353736e-06 2.6363654028830004e-07 -1.0032512176152779e-05 -5.8960984768920275e-06 -4.0913620461459452e-05 0 -8.2618100931708477e-06 -9.3514725482761349e-05 1.4185618209186009e-06 -3.4156009980249066e-05 -2.9332804530841761e-06 5.0557642682878287e-05
leaf_weight=4212 182 1152 75 5828 75711 57639 285356 1870 417 467 3263 404995 377 1825 3598 9379 27048 650 223360 89236 25187 84647 2080 2359 22254 179 119866 4774 57987 4436
leaf_count=4212 182 1152 75 5828 75711 57639 285356 1870 417 467 3263 404995 377 1825 3598 9379 27048 650 223360 89236 25187 84647 2080 2359 22254 179 119866 4774 57987 4436
internal_value=0 3.63684e-08 -0.000287473 2.89043e-06 -2.33979e-06 2.41962e-06 -1.28023e-06 -8.74706e-06 -4.40054e-05 -9.06024e-05 2.46778e-05 3.07518e-06 3.81878e-06 3.14773e-05 3.16701e-06 8.4964e-06 1.36782e-05 -3.63361e-05 -2.18033e-06 -7.20669e-07 -7.91698e-06 -3.79978e-06 -6.98245e-06 -1.40385e-05 -1.45598e-05 -9.9031e-06 3.93806e-06 -2.70739e-05 -5.33881e-06 3.7517e-05
internal_weight=0 1.52015e+06 257 694686 825466 680950 711179 114287 2036 884 13736 623311 525888 10473 115736 40025 30646 1027 595443 97423 112251 310087 86727 8187 29077 22433 524861 6644 83174 8648
internal_count=1520409 1520152 257 694686 825466 680950 711179 114287 2036 884 13736 623311 525888 10473 115736 40025 30646 1027 595443 97423 112251 310087 86727 8187 29077 22433 524861 6644 83174 8648
is_linear=0
shrinkage=0.0222729


Tree=17
num_leaves=31
num_cat=0
split_feature=184 121 126 93 45 155 41 131 166 130 145 14 72 72 154 209 65 54 54 72 204 164 5 95 154 205 138 54 8 8
split_gain=0.018498 0.0180216 0.0122307 0.0105514 0.00829463 0.00453701 0.00616457 0.00781943 0.00775061 0.00445587 0.00385103 0.00371557 0.00359712 0.00351593 0.00351495 0.00419982 0.00342137 0.00345409 0.00309627 0.00272132 0.00379565 0.00363689 0.00262309 0.00229281 0.00221773 0.00208174 0.00304062 0.00202815 0.00169869 0.0040035
threshold=-0.0035600662231445308 -0.050308227539062493 -0.0076236724853515616 -0.072113037109374986 -0.0041599273681640616 -0.00016021728515624997 61.484375000000007 -0.0023775100708007808 -0.0012621879577636717 0.0018420219421386721 -0.0019068717956542967 0.61499023437500011 0.0036497116088867192 -0.0014662742614746092 -0.0054683685302734366 -0.11056518554687499 0.098937988281250014 -0.012889862060546873 -0.0010085105895996092 -0.00024592876434326166 -0.013751983642578123 -0.012241363525390623 1.361966133117676e-05 -0.076324462890624986 0.0021257400512695317 0.0021448135375976567 0.00039088726043701177 0.0097694396972656267 2.4139881134033207e-06 -0.00019532442092895505
decision_type=4 4 4 6 4 4 4 6 6 4 4 4 6 6 6 4 4 4 6 6 6 6 6 6 4 4 6 6 6 6
left_child=1 4 3 11 10 19 9 13 -9 23 -1 -2 16 -8 -5 -16 -3 -18 22 21 25 -4 -13 24 -7 -21 -27 -25 29 -14
right_child=2 12 5 14 -6 6 7 8 -10 -11 -12 18 28 -15 15 -17 17 -19 -20 20 -22 -23 -24 27 -26 26 -28 -29 -30 -31
leaf_value=1.2973023534335738e-05 0 3.1992441644356781e-06 -1.503354323258985e-05 2.106729480114629e-05 0 -1.065170031913239e-06 0 -5.633886648153087e-06 0.00020551591731393897 -6.7271166343576778e-06 7.7595985612400253e-05 -5.1891234572362939e-05 2.6561907015148364e-05 -8.1601133986153085e-05 5.3172922672220553e-05 -1.0236972548896356e-05 -4.0416521926771083e-05 -2.1917945255354564e-06 0 3.754879485663291e-06 1.2794542289229338e-06 -3.025233150304693e-07 0 -1.3267796243209111e-06 7.6149052987435341e-06 0 2.6696489110334987e-05 -8.8572626466947289e-06 4.6755344754879886e-06 6.2074202501086595e-06
leaf_weight=1636 2016 265175 8911 1675 769 23620 132 783 87 85748 2765 5768 8467 1367 423 34976 1388 23079 142 17196 214591 189310 457 503414 27420 3494 7332 19703 47252 21313
leaf_count=1636 2016 265175 8911 1675 769 23620 132 783 87 85748 2765 5768 8467 1367 423 34976 1388 23079 142 17196 214591 189310 457 503414 27420 3494 7332 19703 47252 21313
internal_value=0 4.30275e-06 -1.4127e-06 -1.27715e-05 4.59429e-05 -9.2533e-07 -2.09964e-06 -3.84212e-05 0 -1.93686e-06 5.84254e-05 -3.59858e-05 3.65727e-06 -7.00916e-05 -6.94662e-06 -8.87413e-06 2.41349e-06 -5.23374e-06 -4.46557e-05 7.90677e-07 2.40022e-06 -1.07217e-06 -4.78143e-05 -1.18442e-06 3.18202e-06 1.02238e-05 1.8533e-05 -1.65108e-06 8.05786e-06 1.27102e-05
internal_weight=0 371844 1.14856e+06 45457 5170 1.10311e+06 662274 2369 870 659905 4401 8383 366674 1499 37074 35399 289642 24467 6367 440834 242613 198221 6225 574157 51040 28022 10826 523117 77032 29780
internal_count=1520409 371844 1148565 45457 5170 1103108 662274 2369 870 659905 4401 8383 366674 1499 37074 35399 289642 24467 6367 440834 242613 198221 6225 574157 51040 28022 10826 523117 77032 29780
is_linear=0
shrinkage=0.0222729


end of trees

feature_importances:
log_close/mean_60_id5=34
log_close/mean_60-mean_close/mean_60_id13=34
log_close/mean_300-mean_close/mean_300_id13=30
log_return_60_id13=18
Volume_Ratio_id1=12
log_return_300_id13=12
log_close/mean_900_id13=11
log_return_60-mean_log_returns_60_id13=11
log_close/mean_900-mean_close/mean_900_id13=11
MACD_id8=10
log_close/mean_60_id6=10
log_return_900_id13=10
mean_close/mean_60=10
log_return_900-mean_log_returns_900_id8=9
log_close/mean_60-mean_close/mean_60_id3=8
log_close/mean_900-mean_close/mean_900_id10=8
MACD_id10=7
Volume_Ratio_id6=7
log_close/mean_60_id2=7
log_return_300_id8=7
log_close/mean_60_id13=7
log_close/mean_900-mean_close/mean_900_id8=7
RSI_id8=6
log_close/mean_60_id3=6
log_close/mean_60_id8=6
log_return_60_id8=6
log_close/mean_900_id8=6
log_close/mean_60-mean_close/mean_60_id1=6
MACD_id3=5
log_close/mean_300_id8=5
log_return_900_id8=5
log_close/mean_60_id9=5
log_return_60-mean_log_returns_60_id8=5
MACD_id5=4
log_return_60_id3=4
log_close/mean_300_id10=4
log_close/mean_60_id12=4
log_close/mean_900_id12=4
log_close/mean_300_id13=4
log_return_60-mean_log_returns_60_id1=4
log_close/mean_60-mean_close/mean_60_id5=4
log_return_300-mean_log_returns_300_id2=4
log_close/mean_300-mean_close/mean_300_id3=4
log_return_300-mean_log_returns_300_id13=4
log_return_900-mean_log_returns_900_id4=4
log_return_900-mean_log_returns_900_id13=4
MACD_id2=3
MACD_id12=3
MACD_id13=3
log_close/mean_60_id0=3
log_return_60_id0=3
log_close/mean_60_id1=3
log_return_900_id3=3
log_return_60-mean_log_returns_60_id2=3
log_return_60-mean_log_returns_60_id3=3
log_close/mean_60-mean_close/mean_60_id4=3
log_return_60-mean_log_returns_60_id5=3
log_close/mean_60-mean_close/mean_60_id10=3
log_return_300-mean_log_returns_300_id10=3
log_close/mean_900-mean_close/mean_900_id6=3
MACD_id0=2
MACD_id1=2
Volume_Ratio_id3=2
Volume_Ratio_id5=2
Volume_Ratio_id7=2
Volume_Ratio_id9=2
RSI_id13=2
log_return_900_id0=2
log_return_60_id1=2
log_close/mean_300_id4=2
log_return_900_id4=2
log_return_300_id6=2
log_close/mean_60_id7=2
log_return_60_id9=2
log_return_60_id10=2
log_close/mean_900_id11=2
log_return_300_id12=2
mean_log_returns_60=2
log_close/mean_60-mean_close/mean_60_id8=2
log_return_60-mean_log_returns_60_id11=2
mean_close/mean_300=2
log_return_300-mean_log_returns_300_id1=2
log_close/mean_300-mean_close/mean_300_id2=2
log_close/mean_300-mean_close/mean_300_id5=2
log_return_300-mean_log_returns_300_id8=2
log_close/mean_300-mean_close/mean_300_id10=2
log_return_900-mean_log_returns_900_id10=2
MACD_id6=1
MACD_id9=1
Volume_Ratio_id0=1
Volume_Ratio_id8=1
Volume_Ratio_id10=1
RSI_id10=1
RSI_id12=1
log_close/mean_300_id0=1
log_return_300_id0=1
log_close/mean_900_id1=1
log_return_900_id1=1
log_close/mean_300_id2=1
log_return_300_id2=1
log_close/mean_300_id3=1
log_return_300_id3=1
log_return_300_id4=1
log_close/mean_900_id4=1
log_return_60_id5=1
log_close/mean_300_id5=1
log_return_300_id5=1
log_close/mean_900_id5=1
log_close/mean_900_id6=1
log_return_900_id6=1
log_return_300_id7=1
log_close/mean_900_id7=1
log_return_300_id9=1
log_close/mean_60_id10=1
log_return_900_id10=1
log_close/mean_60_id11=1
log_return_300_id11=1
log_return_900_id11=1
log_close/mean_300_id12=1
log_return_60-mean_log_returns_60_id0=1
log_close/mean_60-mean_close/mean_60_id6=1
log_return_60-mean_log_returns_60_id6=1
log_return_60-mean_log_returns_60_id10=1
log_close/mean_300-mean_close/mean_300_id0=1
log_close/mean_300-mean_close/mean_300_id1=1
log_return_300-mean_log_returns_300_id3=1
log_close/mean_300-mean_close/mean_300_id4=1
log_close/mean_300-mean_close/mean_300_id8=1
log_close/mean_300-mean_close/mean_300_id9=1
log_return_300-mean_log_returns_300_id9=1
log_return_300-mean_log_returns_300_id12=1
mean_log_returns_900=1
log_return_900-mean_log_returns_900_id0=1
log_return_900-mean_log_returns_900_id1=1
log_close/mean_900-mean_close/mean_900_id3=1
log_close/mean_900-mean_close/mean_900_id4=1
log_close/mean_900-mean_close/mean_900_id5=1
log_close/mean_900-mean_close/mean_900_id11=1

parameters:
[boosting: gbdt]
[objective: regression]
[metric: correlation]
[tree_learner: serial]
[device_type: cpu]
[data: ]
[valid: ]
[num_iterations: 2500]
[learning_rate: 0.0222729]
[num_leaves: 31]
[num_threads: 0]
[deterministic: 0]
[force_col_wise: 0]
[force_row_wise: 0]
[histogram_pool_size: -1]
[max_depth: 7]
[min_data_in_leaf: 50]
[min_sum_hessian_in_leaf: 0.001]
[bagging_fraction: 1]
[pos_bagging_fraction: 1]
[neg_bagging_fraction: 1]
[bagging_freq: 0]
[bagging_seed: 8586]
[feature_fraction: 1]
[feature_fraction_bynode: 1]
[feature_fraction_seed: 8586]
[extra_trees: 1]
[extra_seed: 8586]
[early_stopping_round: 70]
[first_metric_only: 1]
[max_delta_step: 0]
[lambda_l1: 0.953745]
[lambda_l2: 3.44161]
[linear_lambda: 0]
[min_gain_to_split: 0]
[drop_rate: 0.1]
[max_drop: 50]
[skip_drop: 0.5]
[xgboost_dart_mode: 0]
[uniform_drop: 0]
[drop_seed: 8586]
[top_rate: 0.2]
[other_rate: 0.1]
[min_data_per_group: 100]
[max_cat_threshold: 32]
[cat_l2: 10]
[cat_smooth: 10]
[max_cat_to_onehot: 4]
[top_k: 20]
[monotone_constraints: ]
[monotone_constraints_method: basic]
[monotone_penalty: 0]
[feature_contri: ]
[forcedsplits_filename: ]
[refit_decay_rate: 0.9]
[cegb_tradeoff: 1]
[cegb_penalty_split: 0]
[cegb_penalty_feature_lazy: ]
[cegb_penalty_feature_coupled: ]
[path_smooth: 0]
[interaction_constraints: ]
[verbosity: -1]
[saved_feature_importance_type: 0]
[linear_tree: 0]
[max_bin: 565]
[max_bin_by_feature: ]
[min_data_in_bin: 3]
[bin_construct_sample_cnt: 200000]
[data_random_seed: 8586]
[is_enable_sparse: 1]
[enable_bundle: 1]
[use_missing: 1]
[zero_as_missing: 1]
[feature_pre_filter: 1]
[pre_partition: 0]
[two_round: 0]
[header: 0]
[label_column: ]
[weight_column: ]
[group_column: ]
[ignore_column: ]
[categorical_feature: ]
[forcedbins_filename: ]
[precise_float_parser: 0]
[objective_seed: 30655]
[num_class: 1]
[is_unbalance: 0]
[scale_pos_weight: 1]
[sigmoid: 1]
[boost_from_average: 1]
[reg_sqrt: 0]
[alpha: 0.9]
[fair_c: 1]
[poisson_max_delta_step: 0.7]
[tweedie_variance_power: 1.5]
[lambdarank_truncation_level: 30]
[lambdarank_norm: 1]
[label_gain: ]
[eval_at: ]
[multi_error_top_k: 1]
[auc_mu_weights: ]
[num_machines: 1]
[local_listen_port: 12400]
[time_out: 120]
[machine_list_filename: ]
[machines: ]
[gpu_platform_id: -1]
[gpu_device_id: -1]
[gpu_use_dp: 0]
[num_gpu: 1]

end of parameters

pandas_categorical:[]
