tree
version=v3
num_class=1
num_tree_per_iteration=1
label_index=0
max_feature_idx=215
objective=regression
feature_names=MACD_id0 MACD_id1 MACD_id2 MACD_id3 MACD_id4 MACD_id5 MACD_id6 MACD_id7 MACD_id8 MACD_id9 MACD_id10 MACD_id11 MACD_id12 MACD_id13 Volume_Ratio_id0 Volume_Ratio_id1 Volume_Ratio_id2 Volume_Ratio_id3 Volume_Ratio_id4 Volume_Ratio_id5 Volume_Ratio_id6 Volume_Ratio_id7 Volume_Ratio_id8 Volume_Ratio_id9 Volume_Ratio_id10 Volume_Ratio_id11 Volume_Ratio_id12 Volume_Ratio_id13 RSI_id0 RSI_id1 RSI_id2 RSI_id3 RSI_id4 RSI_id5 RSI_id6 RSI_id7 RSI_id8 RSI_id9 RSI_id10 RSI_id11 RSI_id12 RSI_id13 log_close/mean_60_id0 log_return_60_id0 log_close/mean_300_id0 log_return_300_id0 log_close/mean_900_id0 log_return_900_id0 log_close/mean_60_id1 log_return_60_id1 log_close/mean_300_id1 log_return_300_id1 log_close/mean_900_id1 log_return_900_id1 log_close/mean_60_id2 log_return_60_id2 log_close/mean_300_id2 log_return_300_id2 log_close/mean_900_id2 log_return_900_id2 log_close/mean_60_id3 log_return_60_id3 log_close/mean_300_id3 log_return_300_id3 log_close/mean_900_id3 log_return_900_id3 log_close/mean_60_id4 log_return_60_id4 log_close/mean_300_id4 log_return_300_id4 log_close/mean_900_id4 log_return_900_id4 log_close/mean_60_id5 log_return_60_id5 log_close/mean_300_id5 log_return_300_id5 log_close/mean_900_id5 log_return_900_id5 log_close/mean_60_id6 log_return_60_id6 log_close/mean_300_id6 log_return_300_id6 log_close/mean_900_id6 log_return_900_id6 log_close/mean_60_id7 log_return_60_id7 log_close/mean_300_id7 log_return_300_id7 log_close/mean_900_id7 log_return_900_id7 log_close/mean_60_id8 log_return_60_id8 log_close/mean_300_id8 log_return_300_id8 log_close/mean_900_id8 log_return_900_id8 log_close/mean_60_id9 log_return_60_id9 log_close/mean_300_id9 log_return_300_id9 log_close/mean_900_id9 log_return_900_id9 log_close/mean_60_id10 log_return_60_id10 log_close/mean_300_id10 log_return_300_id10 log_close/mean_900_id10 log_return_900_id10 log_close/mean_60_id11 log_return_60_id11 log_close/mean_300_id11 log_return_300_id11 log_close/mean_900_id11 log_return_900_id11 log_close/mean_60_id12 log_return_60_id12 log_close/mean_300_id12 log_return_300_id12 log_close/mean_900_id12 log_return_900_id12 log_close/mean_60_id13 log_return_60_id13 log_close/mean_300_id13 log_return_300_id13 log_close/mean_900_id13 log_return_900_id13 mean_close/mean_60 mean_log_returns_60 log_close/mean_60-mean_close/mean_60_id0 log_return_60-mean_log_returns_60_id0 log_close/mean_60-mean_close/mean_60_id1 log_return_60-mean_log_returns_60_id1 log_close/mean_60-mean_close/mean_60_id2 log_return_60-mean_log_returns_60_id2 log_close/mean_60-mean_close/mean_60_id3 log_return_60-mean_log_returns_60_id3 log_close/mean_60-mean_close/mean_60_id4 log_return_60-mean_log_returns_60_id4 log_close/mean_60-mean_close/mean_60_id5 log_return_60-mean_log_returns_60_id5 log_close/mean_60-mean_close/mean_60_id6 log_return_60-mean_log_returns_60_id6 log_close/mean_60-mean_close/mean_60_id7 log_return_60-mean_log_returns_60_id7 log_close/mean_60-mean_close/mean_60_id8 log_return_60-mean_log_returns_60_id8 log_close/mean_60-mean_close/mean_60_id9 log_return_60-mean_log_returns_60_id9 log_close/mean_60-mean_close/mean_60_id10 log_return_60-mean_log_returns_60_id10 log_close/mean_60-mean_close/mean_60_id11 log_return_60-mean_log_returns_60_id11 log_close/mean_60-mean_close/mean_60_id12 log_return_60-mean_log_returns_60_id12 log_close/mean_60-mean_close/mean_60_id13 log_return_60-mean_log_returns_60_id13 mean_close/mean_300 mean_log_returns_300 log_close/mean_300-mean_close/mean_300_id0 log_return_300-mean_log_returns_300_id0 log_close/mean_300-mean_close/mean_300_id1 log_return_300-mean_log_returns_300_id1 log_close/mean_300-mean_close/mean_300_id2 log_return_300-mean_log_returns_300_id2 log_close/mean_300-mean_close/mean_300_id3 log_return_300-mean_log_returns_300_id3 log_close/mean_300-mean_close/mean_300_id4 log_return_300-mean_log_returns_300_id4 log_close/mean_300-mean_close/mean_300_id5 log_return_300-mean_log_returns_300_id5 log_close/mean_300-mean_close/mean_300_id6 log_return_300-mean_log_returns_300_id6 log_close/mean_300-mean_close/mean_300_id7 log_return_300-mean_log_returns_300_id7 log_close/mean_300-mean_close/mean_300_id8 log_return_300-mean_log_returns_300_id8 log_close/mean_300-mean_close/mean_300_id9 log_return_300-mean_log_returns_300_id9 log_close/mean_300-mean_close/mean_300_id10 log_return_300-mean_log_returns_300_id10 log_close/mean_300-mean_close/mean_300_id11 log_return_300-mean_log_returns_300_id11 log_close/mean_300-mean_close/mean_300_id12 log_return_300-mean_log_returns_300_id12 log_close/mean_300-mean_close/mean_300_id13 log_return_300-mean_log_returns_300_id13 mean_close/mean_900 mean_log_returns_900 log_close/mean_900-mean_close/mean_900_id0 log_return_900-mean_log_returns_900_id0 log_close/mean_900-mean_close/mean_900_id1 log_return_900-mean_log_returns_900_id1 log_close/mean_900-mean_close/mean_900_id2 log_return_900-mean_log_returns_900_id2 log_close/mean_900-mean_close/mean_900_id3 log_return_900-mean_log_returns_900_id3 log_close/mean_900-mean_close/mean_900_id4 log_return_900-mean_log_returns_900_id4 log_close/mean_900-mean_close/mean_900_id5 log_return_900-mean_log_returns_900_id5 log_close/mean_900-mean_close/mean_900_id6 log_return_900-mean_log_returns_900_id6 log_close/mean_900-mean_close/mean_900_id7 log_return_900-mean_log_returns_900_id7 log_close/mean_900-mean_close/mean_900_id8 log_return_900-mean_log_returns_900_id8 log_close/mean_900-mean_close/mean_900_id9 log_return_900-mean_log_returns_900_id9 log_close/mean_900-mean_close/mean_900_id10 log_return_900-mean_log_returns_900_id10 log_close/mean_900-mean_close/mean_900_id11 log_return_900-mean_log_returns_900_id11 log_close/mean_900-mean_close/mean_900_id12 log_return_900-mean_log_returns_900_id12 log_close/mean_900-mean_close/mean_900_id13 log_return_900-mean_log_returns_900_id13
feature_infos=[-0.54736328125:0.509765625] [-30.71875:44.625] [-1.130859375:1.181640625] [-0.001373291015625:0.0013866424560546875] [-0.00029134750366210938:0.0003185272216796875] [-0.0268096923828125:0.014678955078125] [-1.3544921875:0.9931640625] [-0.0283660888671875:0.03057861328125] [-0.0025386810302734375:0.0019779205322265625] [-0.239990234375:0.1453857421875] [-18.125:24.09375] [-0.324462890625:0.289794921875] [-0.00078868865966796875:0.00084781646728515625] [-9.2208385467529297e-05:0.00011450052261352539] [0:143.125] [3.9935111999511719e-06:86.6875] [2.9802322387695312e-07:81.625] [0:114.25] [0:184.875] [6.0200691223144531e-06:104.9375] [0:120.375] [1.1920928955078125e-07:105.375] [0:203.5] [1.430511474609375e-06:136.375] [0:74.1875] [0:222.375] [0:108.9375] [0:71.625] [0:100] [25.359375:74.875] [26.25:70.1875] [0:67.4375] [0:74.0625] [22.28125:69.375] [26.703125:77.9375] [23.65625:74] [0:66.5625] [23.640625:70.3125] [0:100] [26.1875:66.9375] [26.1875:70.4375] [21.71875:73] [-0.2464599609375:0.1680908203125] [-0.294921875:0.20263671875] [-0.372802734375:0.20458984375] [-0.5:0.281494140625] [-0.49072265625:0.295166015625] [-0.51904296875:0.53173828125] [-0.18701171875:0.166259765625] [-0.2269287109375:0.2005615234375] [-0.2266845703125:0.1588134765625] [-0.338134765625:0.2344970703125] [-0.341552734375:0.2152099609375] [-0.473388671875:0.316650390625] [-0.219970703125:0.26806640625] [-0.309326171875:0.345703125] [-0.2607421875:0.267578125] [-0.354248046875:0.323486328125] [-0.353271484375:0.28369140625] [-0.52294921875:0.432373046875] [-0.15869140625:0.1273193359375] [-0.230712890625:0.28369140625] [-0.29296875:0.1448974609375] [-0.415283203125:0.303466796875] [-0.3974609375:0.1917724609375] [-0.48095703125:0.34375] [-0.322998046875:0.395751953125] [-0.52783203125:0.62109375] [-0.435791015625:0.6884765625] [-0.642578125:1.1455078125] [-0.45556640625:1.087890625] [-0.70751953125:1.9609375] [-0.2281494140625:0.1444091796875] [-0.261962890625:0.242431640625] [-0.27978515625:0.1566162109375] [-0.37548828125:0.247802734375] [-0.357666015625:0.1890869140625] [-0.4072265625:0.317626953125] [-0.19091796875:0.16162109375] [-0.2357177734375:0.28955078125] [-0.2440185546875:0.22119140625] [-0.333740234375:0.282958984375] [-0.34326171875:0.175048828125] [-0.49609375:0.312744140625] [-0.194580078125:0.1556396484375] [-0.244384765625:0.20263671875] [-0.26171875:0.2044677734375] [-0.323486328125:0.3212890625] [-0.316162109375:0.2900390625] [-0.466796875:0.356201171875] [-0.206298828125:0.1337890625] [-0.297607421875:0.285888671875] [-0.390625:0.223876953125] [-0.53125:0.383056640625] [-0.525390625:0.320068359375] [-0.5859375:0.46923828125] [-0.21533203125:0.1961669921875] [-0.260009765625:0.19140625] [-0.2666015625:0.1416015625] [-0.332275390625:0.263671875] [-0.337890625:0.208740234375] [-0.452880859375:0.34912109375] [-0.369384765625:0.29345703125] [-0.429443359375:0.381103515625] [-0.419189453125:0.2783203125] [-0.548828125:0.423583984375] [-0.4365234375:0.332275390625] [-0.80029296875:0.533203125] [-0.161376953125:0.195556640625] [-0.21728515625:0.2432861328125] [-0.2320556640625:0.148681640625] [-0.345947265625:0.2705078125] [-0.340576171875:0.1839599609375] [-0.4755859375:0.274169921875] [-0.190673828125:0.170166015625] [-0.2239990234375:0.240234375] [-0.2406005859375:0.307861328125] [-0.330322265625:0.417724609375] [-0.30615234375:0.4912109375] [-0.38623046875:0.6650390625] [-0.215576171875:0.226318359375] [-0.257568359375:0.312744140625] [-0.26220703125:0.313232421875] [-0.316650390625:0.392333984375] [-0.323486328125:0.3427734375] [-0.459228515625:0.363525390625] [-0.1929931640625:0.1463623046875] [-0.2301025390625:0.226318359375] [-0.10040283203125:0.1077880859375] [-0.142578125:0.1451416015625] [-0.0526123046875:0.08209228515625] [-0.060699462890625:0.12261962890625] [-0.11700439453125:0.24853515625] [-0.2822265625:0.3154296875] [-0.05340576171875:0.091552734375] [-0.0860595703125:0.1341552734375] [-0.2880859375:0.372802734375] [-0.4892578125:0.5859375] [-0.10015869140625:0.07476806640625] [-0.10955810546875:0.1085205078125] [-0.05242919921875:0.05950927734375] [-0.07171630859375:0.07568359375] [-0.11907958984375:0.140869140625] [-0.1751708984375:0.186279296875] [-0.09344482421875:0.1263427734375] [-0.1341552734375:0.169189453125] [-0.053741455078125:0.073974609375] [-0.07672119140625:0.1092529296875] [-0.3330078125:0.2479248046875] [-0.388427734375:0.389404296875] [-0.0673828125:0.0799560546875] [-0.111083984375:0.1170654296875] [-0.10687255859375:0.1475830078125] [-0.18505859375:0.2159423828125] [-0.0888671875:0.2047119140625] [-0.11834716796875:0.294189453125] [-0.24658203125:0.1212158203125] [-0.350830078125:0.257568359375] [-0.144287109375:0.2008056640625] [-0.1837158203125:0.273681640625] [-0.054840087890625:0.11492919921875] [-0.0926513671875:0.1307373046875] [-0.1231689453125:0.2449951171875] [-0.310791015625:0.298095703125] [-0.0712890625:0.13525390625] [-0.108642578125:0.1712646484375] [-0.428466796875:0.64501953125] [-0.6259765625:1.068359375] [-0.10400390625:0.1126708984375] [-0.1400146484375:0.133056640625] [-0.053680419921875:0.0999755859375] [-0.0985107421875:0.136474609375] [-0.11993408203125:0.1881103515625] [-0.1904296875:0.284423828125] [-0.159912109375:0.2041015625] [-0.221923828125:0.302001953125] [-0.06884765625:0.098388671875] [-0.09375:0.128662109375] [-0.279052734375:0.235595703125] [-0.362060546875:0.35205078125] [-0.1170654296875:0.11846923828125] [-0.220947265625:0.150634765625] [-0.106689453125:0.267333984375] [-0.205810546875:0.36376953125] [-0.1300048828125:0.27099609375] [-0.1717529296875:0.334716796875] [-0.350341796875:0.1446533203125] [-0.458740234375:0.31005859375] [-0.1614990234375:0.27001953125] [-0.2215576171875:0.4833984375] [-0.08734130859375:0.1085205078125] [-0.1361083984375:0.1458740234375] [-0.172607421875:0.2415771484375] [-0.30419921875:0.331298828125] [-0.10296630859375:0.1610107421875] [-0.1806640625:0.2109375] [-0.392822265625:1.0009765625] [-0.60791015625:1.796875] [-0.14013671875:0.1622314453125] [-0.1827392578125:0.2744140625] [-0.10015869140625:0.11285400390625] [-0.1807861328125:0.15576171875] [-0.156494140625:0.251220703125] [-0.222412109375:0.298583984375] [-0.2083740234375:0.2841796875] [-0.220703125:0.41259765625] [-0.0775146484375:0.11871337890625] [-0.12841796875:0.1748046875] [-0.2474365234375:0.2734375] [-0.5439453125:0.4296875] [-0.1654052734375:0.1534423828125] [-0.220703125:0.2135009765625] [-0.11492919921875:0.419189453125] [-0.190185546875:0.5673828125] [-0.16162109375:0.29541015625] [-0.252197265625:0.341796875]
tree_sizes=3365 3249 3266 3276 3246

Tree=0
num_leaves=31
num_cat=0
split_feature=115 72 182 61 182 69 180 64 152 182 32 67 203 105 134 126 75 70 153 212 106 120 78 69 2 153 106 72 54 148
split_gain=0.0828111 0.0571852 0.0286198 0.0321055 0.0248272 0.0132277 0.015453 0.0125874 0.0121045 0.0101441 0.00783859 0.00736084 0.00719802 0.00644871 0.0071615 0.00625395 0.00537859 0.0041554 0.00335829 0.00367581 0.00314143 0.0026236 0.00244914 0.00228452 0.00207958 0.00256771 0.00226314 0.00191741 0.00176639 0.00169214
threshold=-0.060653686523437493 -0.00062346458435058583 -0.0017294883728027342 -0.015998840332031247 -0.0019135475158691404 0.12774658203125003 -0.0076389312744140616 -0.013347625732421873 -0.0043392181396484366 0.0064144134521484384 44.921875000000007 -0.033004760742187493 0.024787902832031253 -0.059616088867187493 -0.00044286251068115229 0.0020551681518554692 0.067474365234375014 -0.031997680664062493 -0.0042133331298828116 -0.016868591308593747 0.012882232666015627 -0.0010638236999511717 0.00070309638977050792 -0.046218872070312493 0.027793884277343753 -0.00071549415588378895 0.015937805175781253 0.0033750534057617192 -0.0065631866455078116 -0.0021429061889648433
decision_type=4 4 4 4 6 6 6 6 6 4 6 4 6 6 4 6 6 4 4 4 6 4 4 6 4 4 4 4 6 4
left_child=8 2 17 9 10 7 -7 -5 12 28 15 20 -1 14 -13 -3 -15 23 19 -19 27 -20 -11 -2 26 -26 -12 -6 -4 -10
right_child=1 4 3 5 11 6 -8 -9 29 22 24 13 -14 16 -16 -17 -18 18 21 -21 -22 -23 -24 -25 25 -27 -28 -29 -30 -31
leaf_value=0.00078442206831031997 0.00013796073206032852 3.6530208492447811e-05 -0.00014008515692588393 -8.8262286088753181e-05 -4.5420743797670884e-05 0.00086154829051291967 -4.581743303256062e-06 -3.1170571700596397e-05 -4.581743303256062e-06 -0.00027314222852928294 -4.3504039423288639e-06 -1.2521618940192839e-05 -4.581743303256062e-06 -1.4781210409898367e-05 2.3557686378383724e-05 9.5351805815249518e-05 -0.00017899743058432546 6.1123834852825466e-05 -2.9067573413530879e-05 -1.041644231242724e-06 -4.581743303256062e-06 2.3819468545848152e-06 -4.581743303256062e-06 3.4208031435181008e-06 5.9758472395695674e-05 -4.581743303256062e-06 2.6184466943743466e-05 -0.00055140265200317323 -5.2325816238724761e-05 0.00020096780481624878
leaf_weight=2111 4188 63413 15496 66425 802 452 312 256789 274 9812 53692 114787 419 196706 177073 48574 2733 16759 83947 64405 578 52082 378 5761 39550 11497 111664 528 9144 853
leaf_count=2111 4188 63413 15496 66425 802 452 312 256789 274 9812 53692 114787 419 196706 177073 48574 2733 16759 83947 64405 578 52082 378 5761 39550 11497 111664 528 9144 853
internal_value=-4.58174e-06 -5.99257e-06 -3.33221e-05 -5.34228e-05 1.33754e-05 -4.18063e-05 0.000421458 -4.3217e-05 0.000538114 -0.000158565 3.77221e-05 -3.04035e-06 0.000689987 -1.96679e-06 9.02155e-06 6.2948e-05 -1.75403e-05 -2.01457e-06 -4.85926e-06 1.30414e-05 -0.000226245 -1.62833e-05 -0.000262098 7.02325e-05 2.42002e-05 4.59264e-05 1.68811e-05 -0.000322736 -0.000111627 0.000106974
internal_weight=0 1.40755e+06 585950 358808 821597 323978 764 323214 3657 34830 328390 493207 2530 491299 291860 111987 199439 227142 217193 81164 1908 136029 10190 9949 216403 51047 165356 1330 24640 1127
internal_count=1411204 1407547 585950 358808 821597 323978 764 323214 3657 34830 328390 493207 2530 491299 291860 111987 199439 227142 217193 81164 1908 136029 10190 9949 216403 51047 165356 1330 24640 1127
is_linear=0
shrinkage=1


Tree=1
num_leaves=31
num_cat=0
split_feature=182 126 115 115 60 126 78 119 8 197 41 153 134 38 130 153 140 93 148 153 208 129 78 136 210 48 195 153 72 62
split_gain=0.0494387 0.0485087 0.0391717 0.0217673 0.01715 0.0140605 0.0124058 0.00890328 0.00940894 0.00794673 0.0075355 0.00748756 0.00579566 0.00602125 0.00548236 0.00505282 0.00461737 0.00432913 0.00393589 0.00327199 0.0030946 0.00282362 0.00273847 0.00354212 0.00236262 0.00224487 0.0019967 0.00182619 0.00176693 0.00182997
threshold=-0.0020189285278320308 -0.0024919509887695308 -0.023963928222656247 -0.11941528320312499 -0.0015091896057128904 -0.013484954833984373 -7.4476003646850572e-05 0.21569824218750003 9.8347663879394552e-07 -0.015140533447265623 50.171875000000007 -0.0045452117919921866 0.0012354850769042971 42.296875000000007 -0.0031423568725585933 -0.0016102790832519529 -0.0008213520050048827 -0.026969909667968747 0.039718627929687507 -0.017204284667968747 -0.0014219284057617185 -0.0026025772094726558 -0.0013413429260253904 -0.0033273696899414058 -0.010951995849609373 0.010379791259765627 0.061294555664062507 -0.0055294036865234366 -7.0840120315551744e-05 -0.0031995773315429683
decision_type=4 4 4 6 4 4 6 6 4 6 6 4 4 6 4 6 6 6 4 6 6 4 4 6 4 6 6 6 4 6
left_child=2 5 3 19 28 15 7 26 -9 17 -10 14 25 16 -6 -2 -14 -7 -5 -1 -17 -20 -13 -24 -11 -8 -3 -23 29 -4
right_child=1 6 4 18 11 9 12 8 10 24 -12 22 13 -15 -16 20 -18 -19 21 -21 -22 27 23 -25 -26 -27 -28 -29 -30 -31
leaf_value=0.0016747832555983105 -4.4107131888930166e-06 -2.2515484478215091e-05 -2.6566990012722178e-05 0.00019820453261720953 0.00011697605530217014 -0.0001545601556956015 3.6441961966621182e-07 0 0 1.9971471065048019e-06 -0.00098906079232608315 -5.2610503297337042e-06 0.00010154437048932623 1.8600327023610952e-06 4.6006593242350561e-05 -0.00025871820135801057 3.0714042185733054e-05 -7.3498706109813164e-05 -3.336079980159517e-06 0 0 0.00013624249435760188 4.6088875452672801e-05 1.3463394589382359e-05 -4.4770389728838204e-05 -7.1871517110402638e-05 5.4999299927099446e-05 0 9.9185537915712085e-06 6.3089132463413743e-08
leaf_weight=158 2459 268818 81220 14384 20184 14392 278920 321 74 12361 361 33560 18581 72290 92739 8351 56458 54837 1836 54 910 6666 83782 115880 75305 5690 3667 1396 40660 44890
leaf_count=158 2459 268818 81220 14384 20184 14392 278920 321 74 12361 361 33560 18581 72290 92739 8351 56458 54837 1836 54 910 6666 83782 115880 75305 5690 3667 1396 40660 44890
internal_value=0 -1.67405e-05 2.72882e-05 0.000168972 2.03244e-05 -7.18101e-05 -3.42934e-06 -2.25796e-05 -0.000420654 -6.1845e-05 -0.000766632 3.48849e-05 8.45099e-06 2.68632e-05 5.9589e-05 -0.000196553 4.96025e-05 -9.18151e-05 0.000154135 0.00137776 -0.000236644 7.98514e-05 2.24896e-05 2.76603e-05 -3.70231e-05 -7.25069e-07 -2.11009e-05 0.000111328 -9.2911e-06 -1.62863e-05
internal_weight=0 873795 537409 24494 512915 168615 705180 273241 756 156895 435 346145 431939 147329 112923 11720 75039 69229 24282 212 9261 9898 233222 199662 87666 284610 272485 8062 166770 126110
internal_count=1411204 873795 537409 24494 512915 168615 705180 273241 756 156895 435 346145 431939 147329 112923 11720 75039 69229 24282 212 9261 9898 233222 199662 87666 284610 272485 8062 166770 126110
is_linear=0
shrinkage=0.114226


Tree=2
num_leaves=31
num_cat=0
split_feature=182 126 91 78 166 119 92 159 78 79 152 61 37 152 60 65 130 134 153 153 137 152 182 167 51 49 53 98 10 212
split_gain=0.0458803 0.0418301 0.019107 0.0135577 0.0114598 0.0096829 0.0849909 0.0155377 0.00874962 0.00847678 0.00698157 0.00610771 0.0055228 0.00511885 0.00504988 0.00500029 0.00472023 0.00636584 0.00393472 0.00383904 0.00331537 0.00308034 0.00274257 0.00299613 0.00269813 0.00218301 0.00229859 0.00212416 0.00200463 0.0019792
threshold=-0.0038423538208007808 -0.0007946491241455077 -0.050308227539062493 -0.0048618316650390616 -0.0096626281738281233 0.41259765625000006 -0.0022706985473632808 0.0010962486267089846 0.0033788681030273442 -0.016494750976562497 -0.0044460296630859366 -0.032501220703124993 46.859375000000007 -0.0030984878540039058 -0.0014901161193847654 -0.064270019531249986 0.00027525424957275396 0.0016121864318847658 -0.0075435638427734366 0.0039424896240234384 0.0078544616699218767 0.0033121109008789067 0.0029344558715820317 0.032608032226562507 0.043075561523437507 0.0070819854736328134 0.0081520080566406267 0.023872375488281253 -0.074005126953124986 0.0060176849365234384
decision_type=4 4 4 4 6 6 6 6 6 4 6 6 6 4 6 6 6 4 6 6 4 6 6 4 6 4 6 4 6 6
left_child=2 3 10 4 11 16 -7 -8 9 18 12 27 -1 -11 -15 -10 17 28 -4 -6 -19 -13 -5 -24 29 -18 -27 -2 -3 -17
right_child=1 5 8 22 19 6 7 -9 15 13 -12 21 -14 14 -16 24 25 20 -20 -21 -22 -23 23 -25 -26 26 -28 -29 -30 -31
leaf_value=0.00072105788867514291 -0.00027029822288195766 1.3352018453052005e-05 0.00017942060749090211 -2.0610079950667574e-05 -2.4475476056522994e-05 0.0027422426643679814 -0.0022014235894947942 0 0.00018623938834750828 3.9430721356947178e-05 1.7492231508670559e-05 -7.6562737883048123e-05 0 -1.949785442452988e-05 2.1326934038308234e-05 6.9475534006468705e-05 -2.3278548750918299e-06 1.7899316048677524e-05 3.9188143177351612e-05 -9.679379674760884e-05 5.7694196569475439e-05 -0.00017338482803948554 -2.7284638109171942e-05 -7.5904065168008926e-05 -7.1158350788613022e-06 0 -5.6769631584547043e-05 0 -3.8789196178772887e-06 -4.0149429811789471e-07
leaf_weight=910 5161 150873 6657 204509 43773 59 199 94 5209 94982 961 24243 367 62528 102643 61663 144101 89129 8284 15190 48575 8948 54648 32756 4798 15383 23057 61 198767 2676
leaf_count=910 5161 150873 6657 204509 43773 59 199 94 5209 94982 961 24243 367 62528 102643 61663 144101 89129 8284 15190 48575 8948 54648 32756 4798 15383 23057 61 198767 2676
internal_value=0 -1.18076e-05 3.58072e-05 -4.1618e-05 -7.91312e-05 5.35617e-06 -0.00058902 -0.00161736 3.33572e-05 2.33987e-05 0.000372831 -0.000129156 0.00056073 1.81246e-05 5.25998e-06 6.88438e-05 5.82128e-06 1.17834e-05 0.000108451 -4.48234e-05 3.26717e-05 -0.00010572 -2.87576e-05 -4.66635e-05 5.85312e-05 -9.54229e-06 -3.39558e-05 -0.000258656 3.26729e-06 6.49981e-05
internal_weight=0 1.05953e+06 351678 389289 97376 670237 352 293 349440 275094 2238 38413 1277 260153 165171 74346 669885 487344 14941 58963 137704 33191 291913 87404 69137 182541 38440 5222 349640 64339
internal_count=1411204 1059526 351678 389289 97376 670237 352 293 349440 275094 2238 38413 1277 260153 165171 74346 669885 487344 14941 58963 137704 33191 291913 87404 69137 182541 38440 5222 349640 64339
is_linear=0
shrinkage=0.114226


Tree=3
num_leaves=31
num_cat=0
split_feature=153 115 126 60 182 179 134 152 31 119 152 182 208 180 32 194 104 139 72 120 91 134 69 135 182 182 67 152 172 0
split_gain=0.0398577 0.0512745 0.036029 0.0199892 0.0228265 0.00887715 0.0140448 0.00625011 0.00565014 0.00471487 0.0046519 0.0041559 0.0126706 0.0159947 0.00791082 0.00583975 0.00398514 0.00377199 0.0037547 0.00366443 0.00327737 0.00297821 0.0028981 0.00246368 0.00236168 0.00233736 0.00394945 0.00195685 0.00175541 0.00130467
threshold=-0.016456604003906247 -0.059616088867187493 0.0010466575622558596 -0.0042285919189453116 0.0035905838012695317 0.019447326660156253 0.0062541961669921884 9.6708536148071303e-05 52.171875000000007 0.23669433593750003 0.0007579326629638673 0.0089988708496093767 0.0086631774902343767 -0.0061855316162109366 49.296875000000007 0.030403137207031253 -0.00011345744132995604 -0.0086326599121093733 0.0043659210205078134 3.4809112548828132e-05 -0.031997680664062493 0.00082230567932128917 0.11822509765625001 0.0020551681518554692 -0.0034284591674804683 0.0089988708496093767 -0.096038818359374986 0.0016589164733886721 0.0038061141967773442 -0.00065398216247558583
decision_type=4 4 4 6 6 4 4 6 6 6 4 6 6 6 4 4 6 6 6 6 4 6 6 6 4 6 4 6 6 4
left_child=1 19 3 4 7 11 9 20 17 21 24 15 14 -14 -13 27 28 -6 -11 -1 -2 -7 -9 -17 -5 -12 -27 -4 -3 -8
right_child=2 16 5 10 8 6 29 22 -10 18 25 12 13 -15 -16 23 -18 -19 -20 -21 -22 -23 -24 -25 -26 26 -28 -29 -30 -31
leaf_value=0.00070607299698287145 7.3583760946261585e-05 7.2752127723776539e-05 1.1057378159966673e-05 1.3516256068815451e-05 -0.0002304761662166789 1.8224276360458688e-05 0.00022307341308178025 -5.757360774602687e-05 -1.7879298825672204e-05 0 -2.3521006237279035e-05 -0.00020915860258155034 0.00050241040373594551 -1.5013242378516521e-05 -2.924775975622517e-05 0 0 -0.00011177046441779066 -0.00080183931887225991 0 -1.3431314642565651e-05 4.4280286913280416e-05 0.00031020869903123309 0.00014576397991227359 -4.8959218984803655e-06 -0.00051292135930992334 1.6243636992301381e-05 -1.7569408997517549e-05 0.0001904756933982624 0.00010179449018033521
leaf_weight=2148 5721 10351 136258 132001 6324 184883 3520 61723 8991 61 207449 4682 1183 1299 16287 1712 5299 35659 152 105 103463 101353 195 5643 287117 175 27840 38562 4873 16175
leaf_count=2148 5721 10351 136258 132001 6324 184883 3520 61723 8991 61 207449 4682 1183 1299 16287 1712 5299 35659 152 105 103463 101353 195 5643 287117 175 27840 38562 4873 16175
internal_value=0 0.000149908 -2.42567e-06 -1.65499e-05 -4.6236e-05 2.15715e-05 3.39323e-05 -2.54818e-05 -0.000113913 2.70678e-05 -6.32399e-06 2.67662e-06 -4.18431e-05 0.000191131 -7.42565e-05 8.9629e-06 8.7396e-05 -0.00013207 -0.000482631 0.000673888 -7.94467e-06 2.78039e-05 -5.4772e-05 0.000109241 6.61817e-07 -1.91877e-05 9.29092e-06 4.16444e-06 0.000117095 0.000128624
internal_weight=0 22776 1.38843e+06 876658 222076 511770 306144 171102 50974 286449 654582 205626 23451 2482 20969 182175 20523 41983 213 2253 109184 286236 61918 7355 419118 235464 28015 174820 15224 19695
internal_count=1411204 22776 1388428 876658 222076 511770 306144 171102 50974 286449 654582 205626 23451 2482 20969 182175 20523 41983 213 2253 109184 286236 61918 7355 419118 235464 28015 174820 15224 19695
is_linear=0
shrinkage=0.114226


Tree=4
num_leaves=31
num_cat=0
split_feature=182 78 115 72 90 153 64 44 208 60 134 152 172 194 130 115 38 180 152 72 130 153 60 102 202 155 153 44 139 208
split_gain=0.03593 0.0403059 0.0340585 0.0146792 0.0109517 0.0105178 0.00840122 0.00670526 0.00614367 0.00815878 0.00506031 0.00426374 0.00647942 0.0040012 0.00351601 0.00340213 0.00321003 0.00295866 0.0029226 0.00371597 0.00395924 0.00286016 0.00282996 0.00265214 0.00223283 0.00206757 0.00197725 0.00197374 0.00176392 0.00207111
threshold=-0.010250091552734373 -0.0005409717559814452 -0.048782348632812493 -0.0060482025146484366 0.012615203857421877 0.0027360916137695317 -0.029472351074218747 -0.0034170150756835933 0.012554168701171877 0.0060176849365234384 0.0011286735534667971 0.0069904327392578134 -0.00027477741241455073 0.0027265548706054692 0.0029039382934570317 -0.13769531249999997 63.921875000000007 -0.0076389312744140616 0.0017466545104980471 0.0099754333496093767 0.00025999546051025396 -0.0026559829711914058 0.0074481964111328134 0.0074329376220703134 0.0058803558349609384 0.0052127838134765634 -0.00062775611877441395 0.0029191970825195317 -5.2571296691894524e-05 0.031089782714843753
decision_type=4 4 4 4 4 6 4 4 4 4 4 6 6 6 6 6 6 6 4 6 6 6 6 4 6 6 4 6 4 4
left_child=2 3 15 4 5 23 27 -7 11 14 -11 22 24 -6 26 -1 -12 -14 -5 20 -20 28 -3 -2 -13 -21 -10 -4 29 -8
right_child=1 8 6 18 13 7 21 -9 9 10 16 12 17 -15 -16 -17 -18 -19 19 25 -22 -23 -24 -25 -26 -27 -28 -29 -30 -31
leaf_value=0.0015552886800139227 0 -6.9864147418057771e-06 0.00016203616514647888 -1.3285042153140813e-05 -0.00038056540959606336 -0.00015017937686016909 -1.1748365093668922e-05 -2.9667606402433315e-05 2.2012304224380502e-05 0 7.1856465431587705e-05 -0.00015900244852458379 0.00017497827083598429 0 -3.1008755335163257e-05 0.00036666276365934628 2.6187938913599485e-06 -1.4688712235530369e-05 -7.9810098225552163e-06 -0.00042935731042933361 -5.5123553656614865e-05 -9.8805022644999445e-06 3.745593469977024e-05 -4.8379262868285948e-05 0 0 6.4635089725318494e-06 0 7.1930210952323166e-05 4.9845860070151249e-05
leaf_weight=91 23125 143586 11093 350710 2044 22717 9804 11368 220623 22647 65865 6871 1292 367 22600 3444 13631 2888 51035 524 53914 10031 21366 41872 377 180 254785 1265 26355 14734
leaf_count=91 23125 143586 11093 350710 2044 22717 9804 11368 220623 22647 65865 6871 1292 367 22600 3444 13631 2888 51035 524 53914 10031 21366 41872 377 180 254785 1265 26355 14734
internal_value=0 -4.33446e-06 7.6002e-05 -2.78127e-05 -6.74928e-05 -6.03683e-05 5.76904e-05 -0.000112957 1.2402e-05 1.79529e-05 4.76867e-05 -5.91229e-06 -7.34916e-05 -0.000318072 1.16512e-05 0.000426764 6.12565e-05 1.98222e-05 -1.87662e-05 -3.60032e-05 -3.31628e-05 3.79965e-05 -6.16585e-07 -3.12325e-05 -0.00014124 -0.000314885 1.3892e-05 0.000146578 4.94193e-05 2.11178e-05
internal_weight=0 1.33439e+06 76817 557856 101493 99082 73282 34085 776531 600151 102143 176380 11428 2411 498008 3535 79496 4180 456363 105653 104949 60924 164952 64997 7248 704 475408 12358 50893 24538
internal_count=1411204 1334387 76817 557856 101493 99082 73282 34085 776531 600151 102143 176380 11428 2411 498008 3535 79496 4180 456363 105653 104949 60924 164952 64997 7248 704 475408 12358 50893 24538
is_linear=0
shrinkage=0.114226


end of trees

feature_importances:
log_return_60-mean_log_returns_60_id12=12
log_close/mean_300-mean_close/mean_300_id12=11
log_close/mean_60-mean_close/mean_60_id12=9
log_close/mean_60_id5=6
log_close/mean_60_id6=6
log_return_60_id12=6
log_close/mean_60-mean_close/mean_60_id3=6
log_close/mean_60_id3=5
mean_close/mean_60=5
log_close/mean_60-mean_close/mean_60_id1=4
log_close/mean_900-mean_close/mean_900_id10=4
log_return_300_id4=3
log_return_900_id12=3
log_close/mean_300-mean_close/mean_300_id11=3
RSI_id4=2
RSI_id10=2
log_close/mean_300_id0=2
log_return_60_id3=2
log_close/mean_900_id3=2
log_return_60_id4=2
log_return_60_id8=2
log_close/mean_900_id10=2
log_close/mean_60_id13=2
log_return_60-mean_log_returns_60_id5=2
log_close/mean_60-mean_close/mean_60_id10=2
log_close/mean_300-mean_close/mean_300_id7=2
log_close/mean_900-mean_close/mean_900_id3=2
log_close/mean_900-mean_close/mean_900_id12=2
MACD_id0=1
MACD_id2=1
MACD_id8=1
MACD_id10=1
RSI_id3=1
RSI_id9=1
RSI_id13=1
log_close/mean_60_id1=1
log_return_60_id1=1
log_return_300_id1=1
log_return_900_id1=1
log_close/mean_60_id2=1
log_close/mean_300_id3=1
log_return_900_id3=1
log_close/mean_900_id4=1
log_return_300_id5=1
log_return_60_id6=1
log_close/mean_60_id8=1
log_close/mean_300_id8=1
log_return_300_id8=1
log_close/mean_300_id9=1
log_close/mean_60_id10=1
log_close/mean_300_id10=1
log_return_300_id10=1
log_return_60-mean_log_returns_60_id0=1
log_return_60-mean_log_returns_60_id3=1
log_close/mean_60-mean_close/mean_60_id4=1
log_return_60-mean_log_returns_60_id4=1
log_close/mean_60-mean_close/mean_60_id6=1
log_return_60-mean_log_returns_60_id13=1
log_return_300-mean_log_returns_300_id0=1
log_close/mean_300-mean_close/mean_300_id4=1
log_return_300-mean_log_returns_300_id4=1
log_return_300-mean_log_returns_300_id10=1
log_return_900-mean_log_returns_900_id3=1
log_return_900-mean_log_returns_900_id4=1
log_close/mean_900-mean_close/mean_900_id7=1
log_return_900-mean_log_returns_900_id7=1
log_close/mean_900-mean_close/mean_900_id11=1

parameters:
[boosting: gbdt]
[objective: regression]
[metric: correlation]
[tree_learner: serial]
[device_type: cpu]
[data: ]
[valid: ]
[num_iterations: 2500]
[learning_rate: 0.114226]
[num_leaves: 31]
[num_threads: 0]
[deterministic: 0]
[force_col_wise: 0]
[force_row_wise: 0]
[histogram_pool_size: -1]
[max_depth: 6]
[min_data_in_leaf: 50]
[min_sum_hessian_in_leaf: 0.001]
[bagging_fraction: 1]
[pos_bagging_fraction: 1]
[neg_bagging_fraction: 1]
[bagging_freq: 0]
[bagging_seed: 8586]
[feature_fraction: 1]
[feature_fraction_bynode: 1]
[feature_fraction_seed: 8586]
[extra_trees: 1]
[extra_seed: 8586]
[early_stopping_round: 75]
[first_metric_only: 1]
[max_delta_step: 0]
[lambda_l1: 0.885038]
[lambda_l2: 2.13844]
[linear_lambda: 0]
[min_gain_to_split: 0]
[drop_rate: 0.1]
[max_drop: 50]
[skip_drop: 0.5]
[xgboost_dart_mode: 0]
[uniform_drop: 0]
[drop_seed: 8586]
[top_rate: 0.2]
[other_rate: 0.1]
[min_data_per_group: 100]
[max_cat_threshold: 32]
[cat_l2: 10]
[cat_smooth: 10]
[max_cat_to_onehot: 4]
[top_k: 20]
[monotone_constraints: ]
[monotone_constraints_method: basic]
[monotone_penalty: 0]
[feature_contri: ]
[forcedsplits_filename: ]
[refit_decay_rate: 0.9]
[cegb_tradeoff: 1]
[cegb_penalty_split: 0]
[cegb_penalty_feature_lazy: ]
[cegb_penalty_feature_coupled: ]
[path_smooth: 0]
[interaction_constraints: ]
[verbosity: -1]
[saved_feature_importance_type: 0]
[linear_tree: 0]
[max_bin: 574]
[max_bin_by_feature: ]
[min_data_in_bin: 3]
[bin_construct_sample_cnt: 200000]
[data_random_seed: 8586]
[is_enable_sparse: 1]
[enable_bundle: 1]
[use_missing: 1]
[zero_as_missing: 1]
[feature_pre_filter: 1]
[pre_partition: 0]
[two_round: 0]
[header: 0]
[label_column: ]
[weight_column: ]
[group_column: ]
[ignore_column: ]
[categorical_feature: ]
[forcedbins_filename: ]
[precise_float_parser: 0]
[objective_seed: 30655]
[num_class: 1]
[is_unbalance: 0]
[scale_pos_weight: 1]
[sigmoid: 1]
[boost_from_average: 1]
[reg_sqrt: 0]
[alpha: 0.9]
[fair_c: 1]
[poisson_max_delta_step: 0.7]
[tweedie_variance_power: 1.5]
[lambdarank_truncation_level: 30]
[lambdarank_norm: 1]
[label_gain: ]
[eval_at: ]
[multi_error_top_k: 1]
[auc_mu_weights: ]
[num_machines: 1]
[local_listen_port: 12400]
[time_out: 120]
[machine_list_filename: ]
[machines: ]
[gpu_platform_id: -1]
[gpu_device_id: -1]
[gpu_use_dp: 0]
[num_gpu: 1]

end of parameters

pandas_categorical:[]
