tree
version=v3
num_class=1
num_tree_per_iteration=1
label_index=0
max_feature_idx=215
objective=regression
feature_names=MACD_id0 MACD_id1 MACD_id2 MACD_id3 MACD_id4 MACD_id5 MACD_id6 MACD_id7 MACD_id8 MACD_id9 MACD_id10 MACD_id11 MACD_id12 MACD_id13 Volume_Ratio_id0 Volume_Ratio_id1 Volume_Ratio_id2 Volume_Ratio_id3 Volume_Ratio_id4 Volume_Ratio_id5 Volume_Ratio_id6 Volume_Ratio_id7 Volume_Ratio_id8 Volume_Ratio_id9 Volume_Ratio_id10 Volume_Ratio_id11 Volume_Ratio_id12 Volume_Ratio_id13 RSI_id0 RSI_id1 RSI_id2 RSI_id3 RSI_id4 RSI_id5 RSI_id6 RSI_id7 RSI_id8 RSI_id9 RSI_id10 RSI_id11 RSI_id12 RSI_id13 log_close/mean_60_id0 log_return_60_id0 log_close/mean_300_id0 log_return_300_id0 log_close/mean_900_id0 log_return_900_id0 log_close/mean_60_id1 log_return_60_id1 log_close/mean_300_id1 log_return_300_id1 log_close/mean_900_id1 log_return_900_id1 log_close/mean_60_id2 log_return_60_id2 log_close/mean_300_id2 log_return_300_id2 log_close/mean_900_id2 log_return_900_id2 log_close/mean_60_id3 log_return_60_id3 log_close/mean_300_id3 log_return_300_id3 log_close/mean_900_id3 log_return_900_id3 log_close/mean_60_id4 log_return_60_id4 log_close/mean_300_id4 log_return_300_id4 log_close/mean_900_id4 log_return_900_id4 log_close/mean_60_id5 log_return_60_id5 log_close/mean_300_id5 log_return_300_id5 log_close/mean_900_id5 log_return_900_id5 log_close/mean_60_id6 log_return_60_id6 log_close/mean_300_id6 log_return_300_id6 log_close/mean_900_id6 log_return_900_id6 log_close/mean_60_id7 log_return_60_id7 log_close/mean_300_id7 log_return_300_id7 log_close/mean_900_id7 log_return_900_id7 log_close/mean_60_id8 log_return_60_id8 log_close/mean_300_id8 log_return_300_id8 log_close/mean_900_id8 log_return_900_id8 log_close/mean_60_id9 log_return_60_id9 log_close/mean_300_id9 log_return_300_id9 log_close/mean_900_id9 log_return_900_id9 log_close/mean_60_id10 log_return_60_id10 log_close/mean_300_id10 log_return_300_id10 log_close/mean_900_id10 log_return_900_id10 log_close/mean_60_id11 log_return_60_id11 log_close/mean_300_id11 log_return_300_id11 log_close/mean_900_id11 log_return_900_id11 log_close/mean_60_id12 log_return_60_id12 log_close/mean_300_id12 log_return_300_id12 log_close/mean_900_id12 log_return_900_id12 log_close/mean_60_id13 log_return_60_id13 log_close/mean_300_id13 log_return_300_id13 log_close/mean_900_id13 log_return_900_id13 mean_close/mean_60 mean_log_returns_60 log_close/mean_60-mean_close/mean_60_id0 log_return_60-mean_log_returns_60_id0 log_close/mean_60-mean_close/mean_60_id1 log_return_60-mean_log_returns_60_id1 log_close/mean_60-mean_close/mean_60_id2 log_return_60-mean_log_returns_60_id2 log_close/mean_60-mean_close/mean_60_id3 log_return_60-mean_log_returns_60_id3 log_close/mean_60-mean_close/mean_60_id4 log_return_60-mean_log_returns_60_id4 log_close/mean_60-mean_close/mean_60_id5 log_return_60-mean_log_returns_60_id5 log_close/mean_60-mean_close/mean_60_id6 log_return_60-mean_log_returns_60_id6 log_close/mean_60-mean_close/mean_60_id7 log_return_60-mean_log_returns_60_id7 log_close/mean_60-mean_close/mean_60_id8 log_return_60-mean_log_returns_60_id8 log_close/mean_60-mean_close/mean_60_id9 log_return_60-mean_log_returns_60_id9 log_close/mean_60-mean_close/mean_60_id10 log_return_60-mean_log_returns_60_id10 log_close/mean_60-mean_close/mean_60_id11 log_return_60-mean_log_returns_60_id11 log_close/mean_60-mean_close/mean_60_id12 log_return_60-mean_log_returns_60_id12 log_close/mean_60-mean_close/mean_60_id13 log_return_60-mean_log_returns_60_id13 mean_close/mean_300 mean_log_returns_300 log_close/mean_300-mean_close/mean_300_id0 log_return_300-mean_log_returns_300_id0 log_close/mean_300-mean_close/mean_300_id1 log_return_300-mean_log_returns_300_id1 log_close/mean_300-mean_close/mean_300_id2 log_return_300-mean_log_returns_300_id2 log_close/mean_300-mean_close/mean_300_id3 log_return_300-mean_log_returns_300_id3 log_close/mean_300-mean_close/mean_300_id4 log_return_300-mean_log_returns_300_id4 log_close/mean_300-mean_close/mean_300_id5 log_return_300-mean_log_returns_300_id5 log_close/mean_300-mean_close/mean_300_id6 log_return_300-mean_log_returns_300_id6 log_close/mean_300-mean_close/mean_300_id7 log_return_300-mean_log_returns_300_id7 log_close/mean_300-mean_close/mean_300_id8 log_return_300-mean_log_returns_300_id8 log_close/mean_300-mean_close/mean_300_id9 log_return_300-mean_log_returns_300_id9 log_close/mean_300-mean_close/mean_300_id10 log_return_300-mean_log_returns_300_id10 log_close/mean_300-mean_close/mean_300_id11 log_return_300-mean_log_returns_300_id11 log_close/mean_300-mean_close/mean_300_id12 log_return_300-mean_log_returns_300_id12 log_close/mean_300-mean_close/mean_300_id13 log_return_300-mean_log_returns_300_id13 mean_close/mean_900 mean_log_returns_900 log_close/mean_900-mean_close/mean_900_id0 log_return_900-mean_log_returns_900_id0 log_close/mean_900-mean_close/mean_900_id1 log_return_900-mean_log_returns_900_id1 log_close/mean_900-mean_close/mean_900_id2 log_return_900-mean_log_returns_900_id2 log_close/mean_900-mean_close/mean_900_id3 log_return_900-mean_log_returns_900_id3 log_close/mean_900-mean_close/mean_900_id4 log_return_900-mean_log_returns_900_id4 log_close/mean_900-mean_close/mean_900_id5 log_return_900-mean_log_returns_900_id5 log_close/mean_900-mean_close/mean_900_id6 log_return_900-mean_log_returns_900_id6 log_close/mean_900-mean_close/mean_900_id7 log_return_900-mean_log_returns_900_id7 log_close/mean_900-mean_close/mean_900_id8 log_return_900-mean_log_returns_900_id8 log_close/mean_900-mean_close/mean_900_id9 log_return_900-mean_log_returns_900_id9 log_close/mean_900-mean_close/mean_900_id10 log_return_900-mean_log_returns_900_id10 log_close/mean_900-mean_close/mean_900_id11 log_return_900-mean_log_returns_900_id11 log_close/mean_900-mean_close/mean_900_id12 log_return_900-mean_log_returns_900_id12 log_close/mean_900-mean_close/mean_900_id13 log_return_900-mean_log_returns_900_id13
feature_infos=[-0.4306640625:0.4130859375] [-43.5625:41.46875] [-1.181640625:1.23828125] [-0.0014696121215820312:0.00171661376953125] [-0.00029134750366210938:0.00032258033752441406] [-0.0268707275390625:0.01190185546875] [-2.24609375:1.115234375] [-0.0251007080078125:0.0312042236328125] [-0.002529144287109375:0.0017547607421875] [-0.302978515625:0.1483154296875] [-18.40625:25.9375] [-0.288818359375:0.26611328125] [-0.00078868865966796875:0.00084781646728515625] [-8.1717967987060547e-05:0.00012683868408203125] [0:237.875] [0.00080585479736328125:86.6875] [5.9604644775390625e-08:93.8125] [0:69.3125] [0:203.875] [4.6014785766601562e-05:137.25] [0:108.25] [1.3709068298339844e-06:100.625] [0:195.375] [1.430511474609375e-06:140.375] [0:146.75] [0:201.125] [0:148] [5.245208740234375e-06:69.9375] [0:100] [25.796875:76.9375] [28.703125:69.25] [28.046875:67.6875] [0:74.25] [27.171875:66.8125] [26.78125:72.75] [26.640625:72.8125] [0:65.6875] [28.15625:69.8125] [0:100] [28.984375:67.0625] [25.984375:74.5] [25.125:70.25] [-0.27001953125:0.18603515625] [-0.360595703125:0.303466796875] [-0.439697265625:0.1947021484375] [-0.56591796875:0.280029296875] [-0.55419921875:0.287353515625] [-0.58935546875:0.51611328125] [-0.2034912109375:0.153076171875] [-0.23779296875:0.270751953125] [-0.27001953125:0.1588134765625] [-0.380126953125:0.211181640625] [-0.3828125:0.2152099609375] [-0.498779296875:0.316650390625] [-0.2020263671875:0.257080078125] [-0.354248046875:0.344482421875] [-0.3037109375:0.241455078125] [-0.379638671875:0.2734375] [-0.390625:0.3076171875] [-0.51220703125:0.46240234375] [-0.185546875:0.1580810546875] [-0.2393798828125:0.318359375] [-0.314697265625:0.1866455078125] [-0.433837890625:0.26904296875] [-0.41748046875:0.2322998046875] [-0.49853515625:0.3486328125] [-0.298828125:0.37158203125] [-0.51318359375:0.611328125] [-0.424560546875:0.64306640625] [-0.6689453125:1.1484375] [-0.50341796875:1.091796875] [-0.7216796875:1.9599609375] [-0.2213134765625:0.11090087890625] [-0.2587890625:0.2568359375] [-0.295166015625:0.15380859375] [-0.384033203125:0.21533203125] [-0.376220703125:0.18896484375] [-0.432373046875:0.275634765625] [-0.2249755859375:0.159912109375] [-0.26513671875:0.312744140625] [-0.275390625:0.1951904296875] [-0.371826171875:0.261474609375] [-0.38232421875:0.1658935546875] [-0.47705078125:0.33056640625] [-0.18505859375:0.177734375] [-0.2393798828125:0.24169921875] [-0.2880859375:0.2362060546875] [-0.37255859375:0.352783203125] [-0.365234375:0.320068359375] [-0.451416015625:0.363525390625] [-0.232177734375:0.1522216796875] [-0.3154296875:0.32470703125] [-0.41064453125:0.20458984375] [-0.55029296875:0.3486328125] [-0.54736328125:0.296875] [-0.6123046875:0.466796875] [-0.2298583984375:0.16650390625] [-0.26953125:0.27490234375] [-0.278076171875:0.1580810546875] [-0.3466796875:0.2332763671875] [-0.3505859375:0.2244873046875] [-0.462890625:0.353271484375] [-0.393798828125:0.305908203125] [-0.429443359375:0.3857421875] [-0.42333984375:0.27734375] [-0.548828125:0.423583984375] [-0.43994140625:0.3583984375] [-0.8251953125:0.5341796875] [-0.126708984375:0.189697265625] [-0.1915283203125:0.2666015625] [-0.274169921875:0.1358642578125] [-0.38623046875:0.246337890625] [-0.380615234375:0.170654296875] [-0.48974609375:0.28369140625] [-0.2037353515625:0.188232421875] [-0.2337646484375:0.2493896484375] [-0.259033203125:0.307861328125] [-0.34814453125:0.417724609375] [-0.332763671875:0.4912109375] [-0.413818359375:0.6650390625] [-0.213623046875:0.22265625] [-0.251953125:0.27490234375] [-0.2666015625:0.27197265625] [-0.34521484375:0.303466796875] [-0.34765625:0.29833984375] [-0.474609375:0.359619140625] [-0.203369140625:0.1494140625] [-0.237060546875:0.25390625] [-0.117431640625:0.09637451171875] [-0.16552734375:0.1348876953125] [-0.059417724609375:0.07470703125] [-0.0655517578125:0.0987548828125] [-0.1572265625:0.239013671875] [-0.31787109375:0.330810546875] [-0.0902099609375:0.1383056640625] [-0.09161376953125:0.1553955078125] [-0.2666015625:0.3427734375] [-0.480224609375:0.564453125] [-0.1363525390625:0.07305908203125] [-0.14501953125:0.12225341796875] [-0.046295166015625:0.04888916015625] [-0.066650390625:0.0750732421875] [-0.109375:0.165283203125] [-0.16748046875:0.218994140625] [-0.122314453125:0.1395263671875] [-0.15478515625:0.1669921875] [-0.0673828125:0.0753173828125] [-0.08197021484375:0.11309814453125] [-0.355712890625:0.2822265625] [-0.396484375:0.389404296875] [-0.0595703125:0.07958984375] [-0.10595703125:0.10687255859375] [-0.103515625:0.167724609375] [-0.145751953125:0.2159423828125] [-0.101806640625:0.18212890625] [-0.1407470703125:0.255615234375] [-0.268310546875:0.10906982421875] [-0.37109375:0.2098388671875] [-0.1712646484375:0.1854248046875] [-0.195556640625:0.273681640625] [-0.05267333984375:0.10247802734375] [-0.091796875:0.12744140625] [-0.11083984375:0.228271484375] [-0.310791015625:0.26611328125] [-0.0885009765625:0.1588134765625] [-0.141357421875:0.1910400390625] [-0.4189453125:0.607421875] [-0.646484375:1.0703125] [-0.1419677734375:0.1365966796875] [-0.145263671875:0.1990966796875] [-0.053131103515625:0.09368896484375] [-0.0986328125:0.1331787109375] [-0.124755859375:0.218017578125] [-0.1669921875:0.313232421875] [-0.1763916015625:0.1905517578125] [-0.2137451171875:0.279052734375] [-0.074951171875:0.1077880859375] [-0.08502197265625:0.1087646484375] [-0.288818359375:0.2413330078125] [-0.362060546875:0.32568359375] [-0.1171875:0.1072998046875] [-0.226318359375:0.150634765625] [-0.10992431640625:0.267333984375] [-0.205810546875:0.36376953125] [-0.1326904296875:0.2315673828125] [-0.1817626953125:0.2423095703125] [-0.3701171875:0.14306640625] [-0.46044921875:0.313720703125] [-0.18408203125:0.26904296875] [-0.2176513671875:0.4677734375] [-0.09619140625:0.11822509765625] [-0.1339111328125:0.1405029296875] [-0.1646728515625:0.251220703125] [-0.330322265625:0.34814453125] [-0.1031494140625:0.177490234375] [-0.1820068359375:0.23681640625] [-0.43505859375:1.009765625] [-0.62060546875:1.796875] [-0.14697265625:0.1737060546875] [-0.1827392578125:0.1905517578125] [-0.10302734375:0.115234375] [-0.1817626953125:0.1524658203125] [-0.144287109375:0.27978515625] [-0.222900390625:0.31787109375] [-0.208251953125:0.266845703125] [-0.220458984375:0.4052734375] [-0.082763671875:0.11749267578125] [-0.131103515625:0.17724609375] [-0.255126953125:0.29931640625] [-0.515625:0.4306640625] [-0.171630859375:0.1436767578125] [-0.2276611328125:0.21728515625] [-0.1119384765625:0.419189453125] [-0.197509765625:0.5673828125] [-0.1663818359375:0.25732421875] [-0.243408203125:0.334716796875]
tree_sizes=1665 1444 1480 1488 1079

Tree=0
num_leaves=15
num_cat=0
split_feature=96 73 163 144 190 144 204 75 204 205 36 132 161 68
split_gain=0.0513914 0.0930191 0.074112 0.030345 0.0165693 0.0148119 0.0121553 0.0431986 0.0117811 0.00835114 0.00800017 0.00939126 0.0058015 0.00152734
threshold=-0.0006973743438720702 -0.16125488281249997 0.010532379150390627 -0.0021734237670898433 0.0032758712768554692 0.00027740001678466802 -0.032638549804687493 -0.19659423828124997 -0.019889831542968747 0.022041320800781253 59.171875000000007 7.6591968536376967e-05 0.0080451965332031267 -0.0027532577514648433
decision_type=6 4 6 6 6 4 4 6 4 6 6 6 6 4
left_child=1 2 13 8 -5 6 7 -2 -3 -8 12 -12 -7 -1
right_child=5 3 -4 4 -6 10 9 -9 -10 -11 11 -13 -14 -15
leaf_value=0.0003709351691127676 0.0008830629676184463 4.7901973748579302e-05 0.0023327350092399407 5.825244083775272e-07 -1.8986508268228108e-05 1.5066395120876733e-05 2.5943317794403049e-05 6.244742566517686e-05 1.1727657533378038e-05 3.643938433391219e-06 -0.00011859365705805443 2.3269087050626639e-05 -2.3267355108100222e-06 1.0898509729414288e-05
leaf_weight=109 126 20432 54 224911 135059 262237 309654 8376 115837 34488 1929 1228 42223 51
leaf_count=109 126 20432 54 224911 135059 262237 309654 8376 115837 34488 1929 1228 42223 51
internal_value=1.08985e-05 2.80065e-07 0.000905131 -1.53785e-07 -6.8146e-06 1.88826e-05 2.49973e-05 7.71468e-05 1.72968e-05 2.36513e-05 1.18086e-05 -5.71995e-05 1.25894e-05 0.000277145
internal_weight=0 496453 214 496239 359970 660261 352644 8502 136269 344142 307617 3157 304460 160
internal_count=1156714 496453 214 496239 359970 660261 352644 8502 136269 344142 307617 3157 304460 160
is_linear=0
shrinkage=1


Tree=1
num_leaves=13
num_cat=0
split_feature=78 140 45 144 160 95 119 58 93 92 1 62
split_gain=0.0464506 0.0247733 0.0565087 0.0316771 0.0251073 0.0121121 0.0308335 0.0408747 0.0218393 0.0140159 0.0105258 0.00506344
threshold=-0.00073981285095214833 0.010200500488281252 -0.23162841796874997 -0.0018448829650878904 0.0033884048461914067 -0.14337158203124997 -0.029991149902343747 0.011455535888671877 0.24816894531250003 0.022163391113281253 -1.4155273437499998 -0.022743225097656247
decision_type=4 6 4 6 4 4 4 6 6 6 6 6
left_child=1 3 -3 10 -5 6 7 -2 9 -7 -1 -4
right_child=5 2 11 4 -6 8 -8 -9 -10 -11 -12 -13
leaf_value=3.2644077210438389e-05 7.1831476640219071e-05 0.0013586435834982604 0.00013689133114319732 -1.1294878146342567e-05 -3.890250459520312e-05 8.7399841141956679e-06 -0.00088606911459169092 0.00087132013114830801 -0.00070742185681992964 -1.4101076533573776e-05 2.779606958634663e-07 -9.4763342166364426e-06
leaf_weight=22994 3600 72 1152 232205 88041 629673 55 131 79 55189 123162 361
leaf_count=22994 3600 72 1152 232205 88041 629673 55 131 79 55189 123162 361
internal_value=0 -1.0616e-05 0.000160864 -1.12418e-05 -1.89465e-05 7.21922e-06 8.55628e-05 0.000105674 6.75711e-06 6.87052e-06 5.50529e-06 8.89895e-05
internal_weight=0 467987 1585 466402 320246 688727 3786 3731 684941 684862 146156 1513
internal_count=1156714 467987 1585 466402 320246 688727 3786 3731 684941 684862 146156 1513
is_linear=0
shrinkage=0.0436828


Tree=2
num_leaves=13
num_cat=0
split_feature=54 91 72 4 93 64 145 20 124 8 90 102
split_gain=0.0342911 0.101969 0.0254728 0.0231579 0.0175535 0.0175499 0.0151004 0.00915047 0.00667733 0.00612375 0.009119 0.00483582
threshold=0.0023889541625976567 -0.070037841796874986 -7.6055526733398424e-05 -6.2584877014160146e-07 0.045349121093750007 -0.015186309814453123 -0.012569427490234373 2.3857421875000004 -0.00044262409210205073 -3.8713216781616204e-05 0.024803161621093753 -0.045028686523437493
decision_type=6 4 4 4 6 4 4 6 6 4 6 6
left_child=2 -2 3 7 6 -5 -3 -1 -6 11 -11 -4
right_child=1 4 9 5 8 -7 -8 -9 -10 10 -12 -13
leaf_value=1.0828419640467595e-05 0.00172885458342272 5.6085783099938149e-05 3.3328240260990705e-05 -2.7858625506884753e-05 3.0226779455283014e-05 -8.4639182571732835e-06 1.2213932150174197e-05 6.9355543055339754e-05 -3.3361407454099582e-05 3.1905116520533725e-06 -0.00011260293094867533 1.8503282361823586e-06
leaf_weight=37404 64 16145 24310 121835 3387 351002 281285 6201 20911 275519 1294 17357
leaf_count=37404 64 16145 24310 121835 3387 351002 281285 6201 20911 275519 1294 17357
internal_value=0 1.2119e-05 -4.66527e-06 -1.06693e-05 1.17046e-05 -1.35031e-05 1.46621e-05 1.96067e-05 -2.36842e-05 5.00883e-06 2.5771e-06 2.06897e-05
internal_weight=0 321792 834922 516442 321728 472837 297430 43605 24298 318480 276813 41667
internal_count=1156714 321792 834922 516442 321728 472837 297430 43605 24298 318480 276813 41667
is_linear=0
shrinkage=0.0436828


Tree=3
num_leaves=13
num_cat=0
split_feature=144 126 115 130 208 103 161 130 45 94 105 51
split_gain=0.0383375 0.0545109 0.0196717 0.0183559 0.0204061 0.013214 0.0123851 0.0104726 0.00795616 0.00722854 0.00687276 0.0050638
threshold=-0.0057239532470703116 -0.0016398429870605467 -0.15753173828124997 -0.0013642311096191404 0.089324951171875014 -0.023468017578124997 0.0058116912841796884 -0.00052809715270996083 -0.037567138671874993 0.036361694335937507 -0.014011383056640623 0.010219573974609377
decision_type=4 6 4 4 4 4 6 6 4 4 4 6
left_child=2 3 -1 8 -5 6 -4 9 -2 -3 -7 -9
right_child=1 7 5 4 -6 10 -8 11 -10 -11 -12 -13
leaf_value=0.00077819344299922784 8.1659642162464505e-05 1.0898259692036001e-05 7.0062362602015843e-06 -2.2965662905990078e-06 -2.9633488490345805e-05 -8.2983574338983065e-06 0.00015896967304839069 1.2408023546943253e-06 5.9124914844392397e-06 -8.9660776165931642e-06 2.631239221675891e-05 -1.0862797967227851e-05
leaf_weight=66 3103 341046 2092 74017 190008 11737 2737 306956 23963 37847 79710 83432
leaf_count=66 3103 341046 2092 74017 190008 11737 2737 306956 23963 37847 79710 83432
internal_value=0 -2.3894e-06 2.63908e-05 -1.85015e-05 -2.20446e-05 2.56532e-05 9.72512e-05 3.68174e-06 1.53309e-05 8.86196e-06 2.16545e-05 -1.29546e-06
internal_weight=0 1.06037e+06 96342 291091 264025 96276 4829 769281 27066 378893 91447 390388
internal_count=1156714 1060372 96342 291091 264025 96276 4829 769281 27066 378893 91447 390388
is_linear=0
shrinkage=0.0436828


Tree=4
num_leaves=9
num_cat=0
split_feature=91 78 144 130 174 144 72 29
split_gain=0.0625765 0.0366884 0.0286337 0.0264348 0.021316 0.0146009 0.0100361 0.00847994
threshold=-0.17944335937499997 -0.0011763572692871092 -0.0015482902526855467 0.0022993087768554692 -0.012432098388671873 3.6388635635375983e-05 0.00030386447906494146 60.296875000000007
decision_type=4 4 4 4 6 4 6 4
left_child=-1 2 4 -4 -2 6 -3 -7
right_child=1 5 3 -5 -6 7 -8 -9
leaf_value=0.0010863912455134424 4.0848573214412574e-05 1.4955121567894105e-06 -1.1508736568262851e-05 -4.464624943294105e-05 -2.6778599008780374e-06 2.6154455597847685e-07 1.6975097898485348e-05 -6.8225762475165964e-05
leaf_weight=99 26073 122762 208835 60012 118209 371447 245800 3477
leaf_count=99 26073 122762 208835 60012 118209 371447 245800 3477
internal_value=0 -8.53057e-08 -1.0539e-05 -1.89793e-05 5.05156e-06 5.69695e-06 1.18726e-05 -3.21392e-07
internal_weight=0 1.15662e+06 413129 268847 144282 743486 368562 374924
internal_count=1156714 1156615 413129 268847 144282 743486 368562 374924
is_linear=0
shrinkage=0.0436828


end of trees

feature_importances:
log_close/mean_60-mean_close/mean_60_id8=6
log_close/mean_60-mean_close/mean_60_id1=3
log_return_300_id0=2
log_close/mean_60_id5=2
log_close/mean_60_id6=2
log_return_60_id8=2
log_return_300_id8=2
log_return_300-mean_log_returns_300_id1=2
log_close/mean_900-mean_close/mean_900_id8=2
MACD_id1=1
MACD_id4=1
MACD_id8=1
Volume_Ratio_id6=1
RSI_id1=1
RSI_id8=1
log_return_300_id1=1
log_close/mean_60_id2=1
log_close/mean_900_id2=1
log_close/mean_300_id3=1
log_close/mean_900_id3=1
log_close/mean_300_id4=1
log_return_60_id5=1
log_return_300_id5=1
log_close/mean_60_id8=1
log_close/mean_300_id8=1
log_close/mean_900_id8=1
log_return_900_id8=1
log_close/mean_60_id9=1
log_close/mean_60_id10=1
log_return_60_id10=1
log_return_300_id10=1
log_return_60_id12=1
log_return_900_id12=1
log_close/mean_900_id13=1
mean_close/mean_60=1
log_close/mean_60-mean_close/mean_60_id2=1
log_close/mean_60-mean_close/mean_60_id6=1
log_return_60-mean_log_returns_60_id8=1
log_close/mean_300-mean_close/mean_300_id1=1
log_return_300-mean_log_returns_300_id2=1
log_close/mean_300-mean_close/mean_300_id8=1
log_close/mean_900-mean_close/mean_900_id1=1
log_return_900-mean_log_returns_900_id8=1
log_close/mean_900-mean_close/mean_900_id10=1

parameters:
[boosting: gbdt]
[objective: regression]
[metric: correlation]
[tree_learner: serial]
[device_type: cpu]
[data: ]
[valid: ]
[num_iterations: 2500]
[learning_rate: 0.0436828]
[num_leaves: 16]
[num_threads: 0]
[deterministic: 0]
[force_col_wise: 0]
[force_row_wise: 0]
[histogram_pool_size: -1]
[max_depth: 4]
[min_data_in_leaf: 50]
[min_sum_hessian_in_leaf: 0.001]
[bagging_fraction: 1]
[pos_bagging_fraction: 1]
[neg_bagging_fraction: 1]
[bagging_freq: 0]
[bagging_seed: 8586]
[feature_fraction: 1]
[feature_fraction_bynode: 1]
[feature_fraction_seed: 8586]
[extra_trees: 1]
[extra_seed: 8586]
[early_stopping_round: 100]
[first_metric_only: 1]
[max_delta_step: 0]
[lambda_l1: 0.451435]
[lambda_l2: 2.16496]
[linear_lambda: 0]
[min_gain_to_split: 0]
[drop_rate: 0.1]
[max_drop: 50]
[skip_drop: 0.5]
[xgboost_dart_mode: 0]
[uniform_drop: 0]
[drop_seed: 8586]
[top_rate: 0.2]
[other_rate: 0.1]
[min_data_per_group: 100]
[max_cat_threshold: 32]
[cat_l2: 10]
[cat_smooth: 10]
[max_cat_to_onehot: 4]
[top_k: 20]
[monotone_constraints: ]
[monotone_constraints_method: basic]
[monotone_penalty: 0]
[feature_contri: ]
[forcedsplits_filename: ]
[refit_decay_rate: 0.9]
[cegb_tradeoff: 1]
[cegb_penalty_split: 0]
[cegb_penalty_feature_lazy: ]
[cegb_penalty_feature_coupled: ]
[path_smooth: 0]
[interaction_constraints: ]
[verbosity: -1]
[saved_feature_importance_type: 0]
[linear_tree: 0]
[max_bin: 613]
[max_bin_by_feature: ]
[min_data_in_bin: 3]
[bin_construct_sample_cnt: 200000]
[data_random_seed: 8586]
[is_enable_sparse: 1]
[enable_bundle: 1]
[use_missing: 1]
[zero_as_missing: 1]
[feature_pre_filter: 1]
[pre_partition: 0]
[two_round: 0]
[header: 0]
[label_column: ]
[weight_column: ]
[group_column: ]
[ignore_column: ]
[categorical_feature: ]
[forcedbins_filename: ]
[precise_float_parser: 0]
[objective_seed: 30655]
[num_class: 1]
[is_unbalance: 0]
[scale_pos_weight: 1]
[sigmoid: 1]
[boost_from_average: 1]
[reg_sqrt: 0]
[alpha: 0.9]
[fair_c: 1]
[poisson_max_delta_step: 0.7]
[tweedie_variance_power: 1.5]
[lambdarank_truncation_level: 30]
[lambdarank_norm: 1]
[label_gain: ]
[eval_at: ]
[multi_error_top_k: 1]
[auc_mu_weights: ]
[num_machines: 1]
[local_listen_port: 12400]
[time_out: 120]
[machine_list_filename: ]
[machines: ]
[gpu_platform_id: -1]
[gpu_device_id: -1]
[gpu_use_dp: 0]
[num_gpu: 1]

end of parameters

pandas_categorical:[]
