tree
version=v3
num_class=1
num_tree_per_iteration=1
label_index=0
max_feature_idx=215
objective=regression
feature_names=MACD_id0 MACD_id1 MACD_id2 MACD_id3 MACD_id4 MACD_id5 MACD_id6 MACD_id7 MACD_id8 MACD_id9 MACD_id10 MACD_id11 MACD_id12 MACD_id13 Volume_Ratio_id0 Volume_Ratio_id1 Volume_Ratio_id2 Volume_Ratio_id3 Volume_Ratio_id4 Volume_Ratio_id5 Volume_Ratio_id6 Volume_Ratio_id7 Volume_Ratio_id8 Volume_Ratio_id9 Volume_Ratio_id10 Volume_Ratio_id11 Volume_Ratio_id12 Volume_Ratio_id13 RSI_id0 RSI_id1 RSI_id2 RSI_id3 RSI_id4 RSI_id5 RSI_id6 RSI_id7 RSI_id8 RSI_id9 RSI_id10 RSI_id11 RSI_id12 RSI_id13 log_close/mean_60_id0 log_return_60_id0 log_close/mean_300_id0 log_return_300_id0 log_close/mean_900_id0 log_return_900_id0 log_close/mean_60_id1 log_return_60_id1 log_close/mean_300_id1 log_return_300_id1 log_close/mean_900_id1 log_return_900_id1 log_close/mean_60_id2 log_return_60_id2 log_close/mean_300_id2 log_return_300_id2 log_close/mean_900_id2 log_return_900_id2 log_close/mean_60_id3 log_return_60_id3 log_close/mean_300_id3 log_return_300_id3 log_close/mean_900_id3 log_return_900_id3 log_close/mean_60_id4 log_return_60_id4 log_close/mean_300_id4 log_return_300_id4 log_close/mean_900_id4 log_return_900_id4 log_close/mean_60_id5 log_return_60_id5 log_close/mean_300_id5 log_return_300_id5 log_close/mean_900_id5 log_return_900_id5 log_close/mean_60_id6 log_return_60_id6 log_close/mean_300_id6 log_return_300_id6 log_close/mean_900_id6 log_return_900_id6 log_close/mean_60_id7 log_return_60_id7 log_close/mean_300_id7 log_return_300_id7 log_close/mean_900_id7 log_return_900_id7 log_close/mean_60_id8 log_return_60_id8 log_close/mean_300_id8 log_return_300_id8 log_close/mean_900_id8 log_return_900_id8 log_close/mean_60_id9 log_return_60_id9 log_close/mean_300_id9 log_return_300_id9 log_close/mean_900_id9 log_return_900_id9 log_close/mean_60_id10 log_return_60_id10 log_close/mean_300_id10 log_return_300_id10 log_close/mean_900_id10 log_return_900_id10 log_close/mean_60_id11 log_return_60_id11 log_close/mean_300_id11 log_return_300_id11 log_close/mean_900_id11 log_return_900_id11 log_close/mean_60_id12 log_return_60_id12 log_close/mean_300_id12 log_return_300_id12 log_close/mean_900_id12 log_return_900_id12 log_close/mean_60_id13 log_return_60_id13 log_close/mean_300_id13 log_return_300_id13 log_close/mean_900_id13 log_return_900_id13 mean_close/mean_60 mean_log_returns_60 log_close/mean_60-mean_close/mean_60_id0 log_return_60-mean_log_returns_60_id0 log_close/mean_60-mean_close/mean_60_id1 log_return_60-mean_log_returns_60_id1 log_close/mean_60-mean_close/mean_60_id2 log_return_60-mean_log_returns_60_id2 log_close/mean_60-mean_close/mean_60_id3 log_return_60-mean_log_returns_60_id3 log_close/mean_60-mean_close/mean_60_id4 log_return_60-mean_log_returns_60_id4 log_close/mean_60-mean_close/mean_60_id5 log_return_60-mean_log_returns_60_id5 log_close/mean_60-mean_close/mean_60_id6 log_return_60-mean_log_returns_60_id6 log_close/mean_60-mean_close/mean_60_id7 log_return_60-mean_log_returns_60_id7 log_close/mean_60-mean_close/mean_60_id8 log_return_60-mean_log_returns_60_id8 log_close/mean_60-mean_close/mean_60_id9 log_return_60-mean_log_returns_60_id9 log_close/mean_60-mean_close/mean_60_id10 log_return_60-mean_log_returns_60_id10 log_close/mean_60-mean_close/mean_60_id11 log_return_60-mean_log_returns_60_id11 log_close/mean_60-mean_close/mean_60_id12 log_return_60-mean_log_returns_60_id12 log_close/mean_60-mean_close/mean_60_id13 log_return_60-mean_log_returns_60_id13 mean_close/mean_300 mean_log_returns_300 log_close/mean_300-mean_close/mean_300_id0 log_return_300-mean_log_returns_300_id0 log_close/mean_300-mean_close/mean_300_id1 log_return_300-mean_log_returns_300_id1 log_close/mean_300-mean_close/mean_300_id2 log_return_300-mean_log_returns_300_id2 log_close/mean_300-mean_close/mean_300_id3 log_return_300-mean_log_returns_300_id3 log_close/mean_300-mean_close/mean_300_id4 log_return_300-mean_log_returns_300_id4 log_close/mean_300-mean_close/mean_300_id5 log_return_300-mean_log_returns_300_id5 log_close/mean_300-mean_close/mean_300_id6 log_return_300-mean_log_returns_300_id6 log_close/mean_300-mean_close/mean_300_id7 log_return_300-mean_log_returns_300_id7 log_close/mean_300-mean_close/mean_300_id8 log_return_300-mean_log_returns_300_id8 log_close/mean_300-mean_close/mean_300_id9 log_return_300-mean_log_returns_300_id9 log_close/mean_300-mean_close/mean_300_id10 log_return_300-mean_log_returns_300_id10 log_close/mean_300-mean_close/mean_300_id11 log_return_300-mean_log_returns_300_id11 log_close/mean_300-mean_close/mean_300_id12 log_return_300-mean_log_returns_300_id12 log_close/mean_300-mean_close/mean_300_id13 log_return_300-mean_log_returns_300_id13 mean_close/mean_900 mean_log_returns_900 log_close/mean_900-mean_close/mean_900_id0 log_return_900-mean_log_returns_900_id0 log_close/mean_900-mean_close/mean_900_id1 log_return_900-mean_log_returns_900_id1 log_close/mean_900-mean_close/mean_900_id2 log_return_900-mean_log_returns_900_id2 log_close/mean_900-mean_close/mean_900_id3 log_return_900-mean_log_returns_900_id3 log_close/mean_900-mean_close/mean_900_id4 log_return_900-mean_log_returns_900_id4 log_close/mean_900-mean_close/mean_900_id5 log_return_900-mean_log_returns_900_id5 log_close/mean_900-mean_close/mean_900_id6 log_return_900-mean_log_returns_900_id6 log_close/mean_900-mean_close/mean_900_id7 log_return_900-mean_log_returns_900_id7 log_close/mean_900-mean_close/mean_900_id8 log_return_900-mean_log_returns_900_id8 log_close/mean_900-mean_close/mean_900_id9 log_return_900-mean_log_returns_900_id9 log_close/mean_900-mean_close/mean_900_id10 log_return_900-mean_log_returns_900_id10 log_close/mean_900-mean_close/mean_900_id11 log_return_900-mean_log_returns_900_id11 log_close/mean_900-mean_close/mean_900_id12 log_return_900-mean_log_returns_900_id12 log_close/mean_900-mean_close/mean_900_id13 log_return_900-mean_log_returns_900_id13
feature_infos=[-0.54736328125:0.436279296875] [-35.4375:44.625] [-3.51953125:2.57421875] [-0.0015592575073242188:0.00171661376953125] [-0.00028371810913085938:0.0003204345703125] [-0.026092529296875:0.0251312255859375] [-2.06640625:1.3125] [-0.0533447265625:0.12493896484375] [-0.00243377685546875:0.001979827880859375] [-0.319091796875:0.31298828125] [-22.71875:27.359375] [-0.51611328125:0.435302734375] [-0.00078868865966796875:0.00082921981811523438] [-8.9526176452636719e-05:0.00011146068572998047] [0:263] [0:87.625] [0:93.8125] [0:62.03125] [0:160.25] [0:137.25] [0:123.5] [0:120.3125] [0:218.125] [0:117.125] [-0.03143310546875:137.875] [0:182.75] [0:100.375] [0:105.625] [0:85.6875] [0:77.375] [0:74.5] [0:68.0625] [0:72.9375] [0:68.9375] [0:72.5625] [0:69.4375] [0:67.5625] [0:70.625] [0:100] [0:68.4375] [0:74.5] [0:69.9375] [-0.369140625:0.1715087890625] [-0.451416015625:0.347900390625] [-0.480224609375:0.2626953125] [-0.5751953125:0.35205078125] [-0.57763671875:0.300537109375] [-0.6708984375:0.52734375] [-0.2034912109375:0.166259765625] [-0.23779296875:0.286865234375] [-0.264892578125:0.153564453125] [-0.374267578125:0.27001953125] [-0.378173828125:0.1834716796875] [-0.48193359375:0.27880859375] [-0.27734375:0.257080078125] [-0.34326171875:0.344482421875] [-0.28662109375:0.2587890625] [-0.36328125:0.30908203125] [-0.37255859375:0.321044921875] [-0.51708984375:0.4580078125] [-0.1781005859375:0.1439208984375] [-0.233154296875:0.318359375] [-0.314697265625:0.158447265625] [-0.433837890625:0.31494140625] [-0.41748046875:0.18359375] [-0.49853515625:0.344970703125] [-0.322998046875:0.3603515625] [-0.489013671875:0.6162109375] [-0.435791015625:0.6435546875] [-0.66064453125:1.1318359375] [-0.50244140625:1.091796875] [-0.75439453125:1.9599609375] [-0.24755859375:0.1358642578125] [-0.263916015625:0.2568359375] [-0.295166015625:0.18798828125] [-0.384033203125:0.304931640625] [-0.376220703125:0.251220703125] [-0.432373046875:0.33740234375] [-0.2249755859375:0.1544189453125] [-0.26513671875:0.315673828125] [-0.275390625:0.2015380859375] [-0.360595703125:0.325439453125] [-0.36865234375:0.1693115234375] [-0.486572265625:0.319091796875] [-0.201904296875:0.43212890625] [-0.224609375:0.473388671875] [-0.268310546875:0.461181640625] [-0.352294921875:0.466796875] [-0.344970703125:0.480712890625] [-0.50341796875:0.52197265625] [-0.232177734375:0.142333984375] [-0.305419921875:0.34375] [-0.41064453125:0.2318115234375] [-0.548828125:0.401611328125] [-0.54296875:0.32666015625] [-0.5927734375:0.483154296875] [-0.2298583984375:0.1961669921875] [-0.26953125:0.27490234375] [-0.278076171875:0.1485595703125] [-0.337158203125:0.2705078125] [-0.3427734375:0.2076416015625] [-0.452880859375:0.3291015625] [-0.357177734375:0.329345703125] [-0.429443359375:0.3857421875] [-0.410400390625:0.279296875] [-0.548828125:0.423583984375] [-0.438232421875:0.362060546875] [-0.8251953125:0.5302734375] [-0.140625:0.20751953125] [-0.21728515625:0.28515625] [-0.266845703125:0.1422119140625] [-0.379638671875:0.291748046875] [-0.3740234375:0.1947021484375] [-0.4833984375:0.34912109375] [-0.2037353515625:0.188232421875] [-0.2337646484375:0.27783203125] [-0.251220703125:0.32861328125] [-0.34521484375:0.43505859375] [-0.322021484375:0.50537109375] [-0.37744140625:0.669921875] [-0.213623046875:0.203857421875] [-0.251953125:0.285888671875] [-0.25830078125:0.278076171875] [-0.33642578125:0.323486328125] [-0.343994140625:0.309814453125] [-0.480224609375:0.407958984375] [-0.203369140625:0.1470947265625] [-0.237060546875:0.25390625] [-0.3193359375:0.1412353515625] [-0.368408203125:0.2130126953125] [-0.057220458984375:0.0865478515625] [-0.07244873046875:0.12841796875] [-0.1517333984375:0.239013671875] [-0.306396484375:0.330810546875] [-0.0738525390625:0.11419677734375] [-0.08734130859375:0.1517333984375] [-0.2880859375:0.33544921875] [-0.43896484375:0.56298828125] [-0.1192626953125:0.12078857421875] [-0.12890625:0.1502685546875] [-0.058135986328125:0.047271728515625] [-0.061279296875:0.07452392578125] [-0.09759521484375:0.376708984375] [-0.1689453125:0.416015625] [-0.09478759765625:0.0869140625] [-0.1187744140625:0.159423828125] [-0.0999755859375:0.073974609375] [-0.11553955078125:0.09674072265625] [-0.31982421875:0.291748046875] [-0.386474609375:0.4091796875] [-0.11553955078125:0.080078125] [-0.135498046875:0.1094970703125] [-0.09466552734375:0.181396484375] [-0.1917724609375:0.2484130859375] [-0.101806640625:0.157470703125] [-0.1429443359375:0.2705078125] [-0.267578125:0.14208984375] [-0.37109375:0.2734375] [-0.327392578125:0.2298583984375] [-0.369384765625:0.28271484375] [-0.055328369140625:0.12005615234375] [-0.0926513671875:0.1251220703125] [-0.12103271484375:0.237060546875] [-0.317626953125:0.27978515625] [-0.09600830078125:0.1588134765625] [-0.11865234375:0.1910400390625] [-0.3935546875:0.607421875] [-0.63232421875:1.0703125] [-0.1358642578125:0.1707763671875] [-0.1600341796875:0.26171875] [-0.0533447265625:0.0908203125] [-0.10205078125:0.126220703125] [-0.12103271484375:0.41357421875] [-0.1904296875:0.408935546875] [-0.1510009765625:0.2117919921875] [-0.2196044921875:0.30517578125] [-0.11273193359375:0.12298583984375] [-0.11639404296875:0.155029296875] [-0.2724609375:0.259521484375] [-0.35546875:0.3515625] [-0.128662109375:0.0989990234375] [-0.220458984375:0.1444091796875] [-0.11492919921875:0.286376953125] [-0.1873779296875:0.379150390625] [-0.1326904296875:0.23486328125] [-0.1834716796875:0.27197265625] [-0.3701171875:0.1671142578125] [-0.46044921875:0.30322265625] [-0.36083984375:0.26904296875] [-0.380859375:0.4765625] [-0.09619140625:0.10711669921875] [-0.1343994140625:0.1468505859375] [-0.163330078125:0.249755859375] [-0.324462890625:0.342041015625] [-0.10247802734375:0.177490234375] [-0.18310546875:0.2235107421875] [-0.433837890625:1.009765625] [-0.6484375:1.796875] [-0.137939453125:0.2103271484375] [-0.1768798828125:0.291259765625] [-0.1015625:0.109130859375] [-0.2020263671875:0.1697998046875] [-0.1448974609375:0.41162109375] [-0.223876953125:0.4267578125] [-0.20361328125:0.29052734375] [-0.1883544921875:0.423828125] [-0.11956787109375:0.1339111328125] [-0.13916015625:0.220703125] [-0.2490234375:0.302490234375] [-0.546875:0.430908203125] [-0.1654052734375:0.14208984375] [-0.224853515625:0.21630859375] [-0.1236572265625:0.43212890625] [-0.1842041015625:0.56884765625] [-0.1654052734375:0.249755859375] [-0.23583984375:0.326171875]
tree_sizes=3275

Tree=0
num_leaves=31
num_cat=0
split_feature=105 169 150 78 32 72 68 109 24 134 27 64 205 135 79 146 182 78 211 70 49 210 43 208 167 44 136 160 159 214
split_gain=0.071948 0.407524 0.0688547 0.0312744 0.061388 0.022199 0.0350359 0.0208187 0.0206799 0.015503 0.0154561 0.0154241 0.0141352 0.0137349 0.0119377 0.0115051 0.01336 0.011202 0.0111247 0.0110156 0.00948471 0.0114541 0.00900265 0.00893865 0.00800168 0.00684063 0.00653584 0.00640474 0.00640267 0.00622667
threshold=-0.33422851562499994 0.0082054138183593767 0.0016722679138183596 -0.0022077560424804683 64.718750000000014 0.0015025138854980471 -0.095153808593749986 0.068389892578125014 0.67797851562500011 -0.00027740001678466791 1.6840820312500002 -0.010723114013671873 0.063873291015625014 0.0056324005126953134 0.084686279296875014 -0.00074458122253417958 -0.0050754547119140616 -0.00032269954681396479 -0.017234802246093747 0.024147033691406253 -0.0052738189697265616 -0.0019617080688476558 -0.072662353515624986 0.038009643554687507 -0.0026025772094726558 -0.0052928924560546866 0.0040721893310546884 -0.00078749656677246083 0.020729064941406253 0.0053157806396484384
decision_type=4 6 6 4 4 6 6 6 6 4 4 6 4 6 6 6 6 4 6 4 6 6 4 4 6 6 4 6 6 6
left_child=1 -1 5 4 23 11 18 12 13 29 -6 17 26 -3 -8 16 -11 19 -7 -2 21 -12 -13 -4 -20 -17 -5 -25 -14 -9
right_child=2 8 3 7 10 6 14 9 -10 15 20 22 28 -15 -16 25 -18 -19 24 -21 -22 -23 -24 27 -26 -27 -28 -29 -30 -31
leaf_value=0.0010511724005107229 5.5993620230569089e-06 7.2692632384678255e-06 8.7065169247942064e-06 5.9489733825185793e-06 -8.0257861979950478e-06 2.3766109234036322e-05 8.8775600160275931e-06 -6.2623237329135456e-05 0.00015432107907614663 -0.00010343810966978498 -4.1609947297931755e-06 -0.00010798422210605298 1.1276847655433467e-05 -0.00018354448086799153 -0.00014534992785954212 -6.6718274952099466e-05 9.5645543097955385e-06 9.4188075862623055e-06 1.4890882417865318e-05 -1.6251314392812803e-06 -9.6404122500863349e-06 -3.8054051152735651e-05 8.924279423250088e-06 7.3153609619771622e-06 -0.00012513731393661064 6.1724663822843042e-05 1.4185449229276097e-06 -2.8475327294191634e-06 2.9875847997810295e-05 -0.000235772303049284
leaf_weight=58 76671 147 34032 138837 27914 26679 219331 221 82 285 2051 87 23771 77 66 50 170 47694 72040 47615 5258 7148 370765 11702 51 284 65199 25146 2979 76
leaf_count=58 76671 147 34032 138837 27914 26679 219331 221 82 285 2051 87 23771 77 66 50 170 47694 72040 47615 5258 7148 370765 11702 51 284 65199 25146 2979 76
internal_value=7.26926e-06 0.000170951 7.2196e-06 2.8105e-06 -2.22689e-06 8.98285e-06 1.14324e-05 5.28615e-06 7.26926e-06 -4.5778e-05 -1.33579e-05 7.54057e-06 5.54218e-06 -5.93591e-05 8.8137e-06 -1.31096e-05 -5.36671e-05 4.65832e-06 1.72135e-05 2.8031e-06 -2.34058e-05 -3.08849e-05 8.88672e-06 4.47725e-06 1.47392e-05 3.16697e-05 4.48395e-06 4.75551e-07 1.34816e-05 -0.00012005
internal_weight=0 364 1.20612e+06 345123 113251 860999 318167 231872 306 1086 42371 542832 230786 224 219397 789 455 171980 98770 124286 14457 9199 370852 70880 72091 334 204036 36848 26750 297
internal_count=1206486 364 1206122 345123 113251 860999 318167 231872 306 1086 42371 542832 230786 224 219397 789 455 171980 98770 124286 14457 9199 370852 70880 72091 334 204036 36848 26750 297
is_linear=0
shrinkage=1


end of trees

feature_importances:
log_close/mean_60_id6=2
Volume_Ratio_id10=1
Volume_Ratio_id13=1
RSI_id4=1
log_return_60_id0=1
log_close/mean_300_id0=1
log_return_60_id1=1
log_close/mean_900_id3=1
log_close/mean_300_id4=1
log_close/mean_900_id4=1
log_close/mean_60_id5=1
log_return_60_id6=1
log_return_300_id10=1
log_return_60_id11=1
log_close/mean_60-mean_close/mean_60_id3=1
log_return_60-mean_log_returns_60_id3=1
log_close/mean_60-mean_close/mean_60_id4=1
log_close/mean_60-mean_close/mean_60_id9=1
log_close/mean_60-mean_close/mean_60_id11=1
log_return_300-mean_log_returns_300_id0=1
log_close/mean_300-mean_close/mean_300_id1=1
log_return_300-mean_log_returns_300_id4=1
log_return_300-mean_log_returns_300_id5=1
log_close/mean_300-mean_close/mean_300_id12=1
log_return_900-mean_log_returns_900_id8=1
log_close/mean_900-mean_close/mean_900_id10=1
log_close/mean_900-mean_close/mean_900_id11=1
log_return_900-mean_log_returns_900_id11=1
log_close/mean_900-mean_close/mean_900_id13=1

parameters:
[boosting: gbdt]
[objective: regression]
[metric: correlation]
[tree_learner: serial]
[device_type: cpu]
[data: ]
[valid: ]
[num_iterations: 2500]
[learning_rate: 0.0116758]
[num_leaves: 31]
[num_threads: 0]
[deterministic: 0]
[force_col_wise: 0]
[force_row_wise: 0]
[histogram_pool_size: -1]
[max_depth: 7]
[min_data_in_leaf: 50]
[min_sum_hessian_in_leaf: 0.001]
[bagging_fraction: 1]
[pos_bagging_fraction: 1]
[neg_bagging_fraction: 1]
[bagging_freq: 0]
[bagging_seed: 8586]
[feature_fraction: 1]
[feature_fraction_bynode: 1]
[feature_fraction_seed: 8586]
[extra_trees: 1]
[extra_seed: 8586]
[early_stopping_round: 75]
[first_metric_only: 1]
[max_delta_step: 0]
[lambda_l1: 0.302275]
[lambda_l2: 1.97827]
[linear_lambda: 0]
[min_gain_to_split: 0]
[drop_rate: 0.1]
[max_drop: 50]
[skip_drop: 0.5]
[xgboost_dart_mode: 0]
[uniform_drop: 0]
[drop_seed: 8586]
[top_rate: 0.2]
[other_rate: 0.1]
[min_data_per_group: 100]
[max_cat_threshold: 32]
[cat_l2: 10]
[cat_smooth: 10]
[max_cat_to_onehot: 4]
[top_k: 20]
[monotone_constraints: ]
[monotone_constraints_method: basic]
[monotone_penalty: 0]
[feature_contri: ]
[forcedsplits_filename: ]
[refit_decay_rate: 0.9]
[cegb_tradeoff: 1]
[cegb_penalty_split: 0]
[cegb_penalty_feature_lazy: ]
[cegb_penalty_feature_coupled: ]
[path_smooth: 0]
[interaction_constraints: ]
[verbosity: -1]
[saved_feature_importance_type: 0]
[linear_tree: 0]
[max_bin: 681]
[max_bin_by_feature: ]
[min_data_in_bin: 3]
[bin_construct_sample_cnt: 200000]
[data_random_seed: 8586]
[is_enable_sparse: 1]
[enable_bundle: 1]
[use_missing: 1]
[zero_as_missing: 1]
[feature_pre_filter: 1]
[pre_partition: 0]
[two_round: 0]
[header: 0]
[label_column: ]
[weight_column: ]
[group_column: ]
[ignore_column: ]
[categorical_feature: ]
[forcedbins_filename: ]
[precise_float_parser: 0]
[objective_seed: 30655]
[num_class: 1]
[is_unbalance: 0]
[scale_pos_weight: 1]
[sigmoid: 1]
[boost_from_average: 1]
[reg_sqrt: 0]
[alpha: 0.9]
[fair_c: 1]
[poisson_max_delta_step: 0.7]
[tweedie_variance_power: 1.5]
[lambdarank_truncation_level: 30]
[lambdarank_norm: 1]
[label_gain: ]
[eval_at: ]
[multi_error_top_k: 1]
[auc_mu_weights: ]
[num_machines: 1]
[local_listen_port: 12400]
[time_out: 120]
[machine_list_filename: ]
[machines: ]
[gpu_platform_id: -1]
[gpu_device_id: -1]
[gpu_use_dp: 0]
[num_gpu: 1]

end of parameters

pandas_categorical:[]
