tree
version=v3
num_class=1
num_tree_per_iteration=1
label_index=0
max_feature_idx=215
objective=regression
feature_names=MACD_id0 MACD_id1 MACD_id2 MACD_id3 MACD_id4 MACD_id5 MACD_id6 MACD_id7 MACD_id8 MACD_id9 MACD_id10 MACD_id11 MACD_id12 MACD_id13 Volume_Ratio_id0 Volume_Ratio_id1 Volume_Ratio_id2 Volume_Ratio_id3 Volume_Ratio_id4 Volume_Ratio_id5 Volume_Ratio_id6 Volume_Ratio_id7 Volume_Ratio_id8 Volume_Ratio_id9 Volume_Ratio_id10 Volume_Ratio_id11 Volume_Ratio_id12 Volume_Ratio_id13 RSI_id0 RSI_id1 RSI_id2 RSI_id3 RSI_id4 RSI_id5 RSI_id6 RSI_id7 RSI_id8 RSI_id9 RSI_id10 RSI_id11 RSI_id12 RSI_id13 log_close/mean_60_id0 log_return_60_id0 log_close/mean_300_id0 log_return_300_id0 log_close/mean_900_id0 log_return_900_id0 log_close/mean_60_id1 log_return_60_id1 log_close/mean_300_id1 log_return_300_id1 log_close/mean_900_id1 log_return_900_id1 log_close/mean_60_id2 log_return_60_id2 log_close/mean_300_id2 log_return_300_id2 log_close/mean_900_id2 log_return_900_id2 log_close/mean_60_id3 log_return_60_id3 log_close/mean_300_id3 log_return_300_id3 log_close/mean_900_id3 log_return_900_id3 log_close/mean_60_id4 log_return_60_id4 log_close/mean_300_id4 log_return_300_id4 log_close/mean_900_id4 log_return_900_id4 log_close/mean_60_id5 log_return_60_id5 log_close/mean_300_id5 log_return_300_id5 log_close/mean_900_id5 log_return_900_id5 log_close/mean_60_id6 log_return_60_id6 log_close/mean_300_id6 log_return_300_id6 log_close/mean_900_id6 log_return_900_id6 log_close/mean_60_id7 log_return_60_id7 log_close/mean_300_id7 log_return_300_id7 log_close/mean_900_id7 log_return_900_id7 log_close/mean_60_id8 log_return_60_id8 log_close/mean_300_id8 log_return_300_id8 log_close/mean_900_id8 log_return_900_id8 log_close/mean_60_id9 log_return_60_id9 log_close/mean_300_id9 log_return_300_id9 log_close/mean_900_id9 log_return_900_id9 log_close/mean_60_id10 log_return_60_id10 log_close/mean_300_id10 log_return_300_id10 log_close/mean_900_id10 log_return_900_id10 log_close/mean_60_id11 log_return_60_id11 log_close/mean_300_id11 log_return_300_id11 log_close/mean_900_id11 log_return_900_id11 log_close/mean_60_id12 log_return_60_id12 log_close/mean_300_id12 log_return_300_id12 log_close/mean_900_id12 log_return_900_id12 log_close/mean_60_id13 log_return_60_id13 log_close/mean_300_id13 log_return_300_id13 log_close/mean_900_id13 log_return_900_id13 mean_close/mean_60 mean_log_returns_60 log_close/mean_60-mean_close/mean_60_id0 log_return_60-mean_log_returns_60_id0 log_close/mean_60-mean_close/mean_60_id1 log_return_60-mean_log_returns_60_id1 log_close/mean_60-mean_close/mean_60_id2 log_return_60-mean_log_returns_60_id2 log_close/mean_60-mean_close/mean_60_id3 log_return_60-mean_log_returns_60_id3 log_close/mean_60-mean_close/mean_60_id4 log_return_60-mean_log_returns_60_id4 log_close/mean_60-mean_close/mean_60_id5 log_return_60-mean_log_returns_60_id5 log_close/mean_60-mean_close/mean_60_id6 log_return_60-mean_log_returns_60_id6 log_close/mean_60-mean_close/mean_60_id7 log_return_60-mean_log_returns_60_id7 log_close/mean_60-mean_close/mean_60_id8 log_return_60-mean_log_returns_60_id8 log_close/mean_60-mean_close/mean_60_id9 log_return_60-mean_log_returns_60_id9 log_close/mean_60-mean_close/mean_60_id10 log_return_60-mean_log_returns_60_id10 log_close/mean_60-mean_close/mean_60_id11 log_return_60-mean_log_returns_60_id11 log_close/mean_60-mean_close/mean_60_id12 log_return_60-mean_log_returns_60_id12 log_close/mean_60-mean_close/mean_60_id13 log_return_60-mean_log_returns_60_id13 mean_close/mean_300 mean_log_returns_300 log_close/mean_300-mean_close/mean_300_id0 log_return_300-mean_log_returns_300_id0 log_close/mean_300-mean_close/mean_300_id1 log_return_300-mean_log_returns_300_id1 log_close/mean_300-mean_close/mean_300_id2 log_return_300-mean_log_returns_300_id2 log_close/mean_300-mean_close/mean_300_id3 log_return_300-mean_log_returns_300_id3 log_close/mean_300-mean_close/mean_300_id4 log_return_300-mean_log_returns_300_id4 log_close/mean_300-mean_close/mean_300_id5 log_return_300-mean_log_returns_300_id5 log_close/mean_300-mean_close/mean_300_id6 log_return_300-mean_log_returns_300_id6 log_close/mean_300-mean_close/mean_300_id7 log_return_300-mean_log_returns_300_id7 log_close/mean_300-mean_close/mean_300_id8 log_return_300-mean_log_returns_300_id8 log_close/mean_300-mean_close/mean_300_id9 log_return_300-mean_log_returns_300_id9 log_close/mean_300-mean_close/mean_300_id10 log_return_300-mean_log_returns_300_id10 log_close/mean_300-mean_close/mean_300_id11 log_return_300-mean_log_returns_300_id11 log_close/mean_300-mean_close/mean_300_id12 log_return_300-mean_log_returns_300_id12 log_close/mean_300-mean_close/mean_300_id13 log_return_300-mean_log_returns_300_id13 mean_close/mean_900 mean_log_returns_900 log_close/mean_900-mean_close/mean_900_id0 log_return_900-mean_log_returns_900_id0 log_close/mean_900-mean_close/mean_900_id1 log_return_900-mean_log_returns_900_id1 log_close/mean_900-mean_close/mean_900_id2 log_return_900-mean_log_returns_900_id2 log_close/mean_900-mean_close/mean_900_id3 log_return_900-mean_log_returns_900_id3 log_close/mean_900-mean_close/mean_900_id4 log_return_900-mean_log_returns_900_id4 log_close/mean_900-mean_close/mean_900_id5 log_return_900-mean_log_returns_900_id5 log_close/mean_900-mean_close/mean_900_id6 log_return_900-mean_log_returns_900_id6 log_close/mean_900-mean_close/mean_900_id7 log_return_900-mean_log_returns_900_id7 log_close/mean_900-mean_close/mean_900_id8 log_return_900-mean_log_returns_900_id8 log_close/mean_900-mean_close/mean_900_id9 log_return_900-mean_log_returns_900_id9 log_close/mean_900-mean_close/mean_900_id10 log_return_900-mean_log_returns_900_id10 log_close/mean_900-mean_close/mean_900_id11 log_return_900-mean_log_returns_900_id11 log_close/mean_900-mean_close/mean_900_id12 log_return_900-mean_log_returns_900_id12 log_close/mean_900-mean_close/mean_900_id13 log_return_900-mean_log_returns_900_id13
feature_infos=[-0.046539306640625:0.09912109375] [-32.5625:26.375] [-3.34375:2.556640625] [-0.00030565261840820312:0.00040841102600097656] [-2.3007392883300781e-05:3.5405158996582031e-05] [-0.026092529296875:0.0239410400390625] [-1.5693359375:1.2861328125] [-0.05133056640625:0.04364013671875] [-0.002475738525390625:0.001495361328125] [-0.3046875:0.304931640625] [-18.125:38.0625] [-0.51806640625:0.4267578125] [-0.00046563148498535156:0.00077199935913085938] [-9.2208385467529297e-05:0.00010168552398681641] [0:97.625] [0:81] [0:79.0625] [0:77.4375] [0:139.5] [0:139] [0:104.6875] [0:123.5625] [0:165.125] [0:133.875] [0:130.75] [0:180] [0:86.4375] [0:106.875] [0:100] [0:74.25] [0:74.0625] [0:68.3125] [0:80.0625] [0:69.0625] [0:74.1875] [0:75.9375] [0:66] [0:71.1875] [0:100] [0:67.25] [0:75] [0:67.6875] [-0.27001953125:0.2164306640625] [-0.3134765625:0.309814453125] [-0.360107421875:0.24169921875] [-0.466796875:0.359619140625] [-0.462646484375:0.30517578125] [-0.55029296875:0.50439453125] [-0.2034912109375:0.166259765625] [-0.23779296875:0.270751953125] [-0.2384033203125:0.14453125] [-0.317138671875:0.276123046875] [-0.32470703125:0.18359375] [-0.474365234375:0.28271484375] [-0.219970703125:0.302001953125] [-0.31201171875:0.326171875] [-0.3037109375:0.2802734375] [-0.379638671875:0.344482421875] [-0.390625:0.301513671875] [-0.50244140625:0.421630859375] [-0.154052734375:0.1273193359375] [-0.2088623046875:0.318359375] [-0.280517578125:0.12274169921875] [-0.3984375:0.311279296875] [-0.3857421875:0.1702880859375] [-0.462890625:0.31494140625] [-0.238037109375:0.23486328125] [-0.31396484375:0.312744140625] [-0.26953125:0.40087890625] [-0.321533203125:0.62744140625] [-0.331787109375:0.56884765625] [-0.355712890625:0.69091796875] [-0.2281494140625:0.1107177734375] [-0.2587890625:0.2568359375] [-0.27783203125:0.1802978515625] [-0.373291015625:0.291015625] [-0.355224609375:0.2301025390625] [-0.4072265625:0.3291015625] [-0.2249755859375:0.2225341796875] [-0.26513671875:0.3134765625] [-0.275390625:0.2293701171875] [-0.33984375:0.333984375] [-0.3447265625:0.226318359375] [-0.472412109375:0.322021484375] [-0.194580078125:0.1556396484375] [-0.2462158203125:0.231689453125] [-0.2880859375:0.2122802734375] [-0.37255859375:0.25244140625] [-0.365234375:0.240234375] [-0.505859375:0.3662109375] [-0.205322265625:0.122802734375] [-0.296875:0.3486328125] [-0.392822265625:0.1776123046875] [-0.53125:0.401611328125] [-0.52880859375:0.18798828125] [-0.583984375:0.432373046875] [-0.2313232421875:0.1961669921875] [-0.276123046875:0.27490234375] [-0.28173828125:0.1483154296875] [-0.337158203125:0.269775390625] [-0.343017578125:0.2041015625] [-0.462158203125:0.306396484375] [-0.423583984375:0.305908203125] [-0.429443359375:0.3857421875] [-0.416259765625:0.27490234375] [-0.548828125:0.423583984375] [-0.435791015625:0.356201171875] [-0.8251953125:0.5341796875] [-0.1385498046875:0.195556640625] [-0.2039794921875:0.28515625] [-0.25537109375:0.1422119140625] [-0.349365234375:0.299072265625] [-0.35400390625:0.1904296875] [-0.46923828125:0.74072265625] [-0.2037353515625:0.170166015625] [-0.2337646484375:0.256103515625] [-0.251220703125:0.29638671875] [-0.312744140625:0.417724609375] [-0.3115234375:0.471435546875] [-0.391845703125:0.6357421875] [-0.213623046875:0.203857421875] [-0.251953125:0.265869140625] [-0.289794921875:0.27783203125] [-0.35498046875:0.42236328125] [-0.36376953125:0.35986328125] [-0.458251953125:0.39697265625] [-0.203369140625:0.1463623046875] [-0.237060546875:0.25390625] [-0.219970703125:0.1868896484375] [-0.2493896484375:0.21337890625] [-0.0618896484375:0.0484619140625] [-0.0753173828125:0.09710693359375] [-0.15625:0.2783203125] [-0.28955078125:0.295166015625] [-0.0740966796875:0.1202392578125] [-0.08837890625:0.138427734375] [-0.16650390625:0.2239990234375] [-0.294189453125:0.2890625] [-0.1363525390625:0.09490966796875] [-0.145263671875:0.139892578125] [-0.05242919921875:0.201904296875] [-0.07171630859375:0.2039794921875] [-0.109375:0.1405029296875] [-0.1727294921875:0.2130126953125] [-0.111083984375:0.07635498046875] [-0.1402587890625:0.175048828125] [-0.12646484375:0.0870361328125] [-0.13720703125:0.09991455078125] [-0.377197265625:0.2822265625] [-0.392333984375:0.385498046875] [-0.06341552734375:0.07879638671875] [-0.10479736328125:0.095458984375] [-0.09747314453125:0.145751953125] [-0.1517333984375:0.2159423828125] [-0.0809326171875:0.10504150390625] [-0.10870361328125:0.1656494140625] [-0.2484130859375:0.1343994140625] [-0.331787109375:0.27392578125] [-0.211669921875:0.2142333984375] [-0.25146484375:0.27783203125] [-0.05523681640625:0.093505859375] [-0.09259033203125:0.10736083984375] [-0.12261962890625:0.26025390625] [-0.31005859375:0.322265625] [-0.0909423828125:0.12078857421875] [-0.1201171875:0.126953125] [-0.1329345703125:0.3642578125] [-0.225830078125:0.56689453125] [-0.1419677734375:0.1624755859375] [-0.1634521484375:0.2493896484375] [-0.055023193359375:0.20458984375] [-0.10107421875:0.205078125] [-0.11724853515625:0.18603515625] [-0.1890869140625:0.2169189453125] [-0.1663818359375:0.1368408203125] [-0.2091064453125:0.168701171875] [-0.1278076171875:0.112060546875] [-0.12298583984375:0.1531982421875] [-0.281982421875:0.259521484375] [-0.362060546875:0.369873046875] [-0.10552978515625:0.0926513671875] [-0.205810546875:0.1480712890625] [-0.10394287109375:0.25634765625] [-0.166748046875:0.36376953125] [-0.12548828125:0.251220703125] [-0.1842041015625:0.35986328125] [-0.333984375:0.1640625] [-0.447998046875:0.302978515625] [-0.2454833984375:0.26318359375] [-0.270263671875:0.45458984375] [-0.08917236328125:0.1065673828125] [-0.13427734375:0.1470947265625] [-0.17236328125:0.27294921875] [-0.309814453125:0.3388671875] [-0.104248046875:0.12042236328125] [-0.127197265625:0.17626953125] [-0.2093505859375:0.50244140625] [-0.31884765625:0.60107421875] [-0.14697265625:0.190185546875] [-0.1737060546875:0.281982421875] [-0.0997314453125:0.203125] [-0.158447265625:0.1976318359375] [-0.130126953125:0.1971435546875] [-0.2171630859375:0.30078125] [-0.2015380859375:0.15966796875] [-0.1898193359375:0.2431640625] [-0.1258544921875:0.1263427734375] [-0.13916015625:0.2109375] [-0.255859375:0.298828125] [-0.5439453125:0.4306640625] [-0.1585693359375:0.1431884765625] [-0.2222900390625:0.60595703125] [-0.1236572265625:0.40087890625] [-0.2110595703125:0.5400390625] [-0.1671142578125:0.32568359375] [-0.2342529296875:0.37451171875]
tree_sizes=3306 3185 3181 3261 3238 3246 3145 3228 3118 3226 3196 3199 3225 3146 3218 3079 3090 3226

Tree=0
num_leaves=31
num_cat=0
split_feature=168 55 72 190 194 76 124 61 138 138 161 114 128 126 91 206 163 109 128 6 195 160 112 208 47 203 27 118 126 58
split_gain=0.0395021 0.0188304 0.0189286 0.0110761 0.0173451 0.00961254 0.0103358 0.0102718 0.00822333 0.013812 0.00809939 0.00885297 0.00717434 0.00628134 0.00607866 0.0100286 0.00909393 0.00676453 0.00550488 0.00747116 0.00496555 0.00493778 0.00451371 0.00756987 0.00440745 0.0102777 0.0205303 0.00398344 0.00389726 0.00372617
threshold=-0.0044536590576171866 -0.027473449707031247 -0.043212890624999993 0.035568237304687507 0.0063800811767578134 -0.075653076171874986 -0.026878356933593747 -0.067413330078124986 -0.0030908584594726558 0.00014215707778930667 0.0047855377197265634 1.0000000180025095e-35 0.00011169910430908204 -0.0054454803466796866 0.022689819335937503 -0.0025892257690429683 -0.0056781768798828116 0.0063285827636718759 -0.0075283050537109366 0.15203857421875003 -0.0077304840087890616 0.0027513504028320317 0.021293640136718753 -0.029289245605468747 -0.15466308593749997 -0.012401580810546873 2.3349609375000004 0.0030050277709960942 -0.00035917758941650385 0.082305908203125014
decision_type=6 4 4 6 4 6 4 6 4 4 4 6 4 6 4 6 6 6 4 6 4 6 6 6 4 6 4 6 6 4
left_child=1 2 3 21 -5 6 22 18 24 -10 -8 12 -12 -9 -11 16 17 -16 28 27 -4 -1 -3 -24 25 26 -2 -20 -7 -26
right_child=8 5 20 4 -6 7 10 13 9 14 11 -13 -14 -15 15 -17 -18 -19 19 -21 -22 -23 23 -25 29 -27 -28 -29 -30 -31
leaf_value=-3.0157696054608517e-07 5.8064790790955473e-06 1.5866304482163973e-05 4.5494145769818672e-07 4.2297699212971131e-05 0.00034405595226581667 -4.6302272377171536e-05 -3.0157696054608517e-07 1.7349279021220343e-05 2.0763432627206469e-07 -4.9953941831694873e-06 3.7252078099674699e-05 -3.0157696054608517e-07 0.00014581743966125813 5.3123597736554602e-06 2.488608499950759e-05 -5.557068077031501e-06 -3.0157696054608517e-07 -3.0157696054608517e-07 5.444202131139174e-06 -2.8384967243020369e-05 3.0397097804469415e-05 7.3490213702433722e-05 -3.0157696054608517e-07 -0.00019311820077867381 4.8878218775728506e-06 -2.2250043999244266e-05 0.00031249902318053409 -7.509814988293171e-06 -3.0157696054608517e-07 -3.3091370891987199e-05
leaf_weight=247 380 7559 4355 268 193 2084 684 20954 545581 575383 724 278 879 194971 14434 61064 33427 7109 28445 3981 6983 1156 202 112 69774 295 152 14977 1706 1041
leaf_count=247 380 7559 4355 268 193 2084 684 20954 545581 575383 724 278 879 194971 14434 61064 33427 7109 28445 3981 6983 1156 202 112 69774 295 152 14977 1706 1041
internal_value=-3.01577e-07 6.51752e-06 3.05246e-05 9.21745e-05 0.000187633 5.34525e-06 2.47926e-05 4.55379e-06 -1.81667e-06 -2.21181e-06 6.12971e-05 8.31976e-05 0.000102106 6.51939e-06 -4.13305e-06 7.09626e-08 6.47521e-06 1.68374e-05 -3.5732e-06 -1.49083e-06 1.96366e-05 5.46321e-05 1.1824e-05 -5.84853e-05 4.8889e-06 5.27404e-05 0.000109935 7.83182e-07 -2.7396e-05 4.21039e-06
internal_weight=0 290758 13202 1864 461 277556 10438 267118 1.30864e+06 1.237e+06 2565 1881 1603 215925 691417 116034 54970 21543 51193 47403 11338 1403 7873 314 71642 827 532 43422 3790 70815
internal_count=1599398 290758 13202 1864 461 277556 10438 267118 1308640 1236998 2565 1881 1603 215925 691417 116034 54970 21543 51193 47403 11338 1403 7873 314 71642 827 532 43422 3790 70815
is_linear=0
shrinkage=1


Tree=1
num_leaves=31
num_cat=0
split_feature=138 7 97 36 135 73 46 176 198 171 95 168 33 78 135 168 23 198 181 10 160 75 0 140 169 170 212 78 192 180
split_gain=0.0446783 0.0301015 0.0327233 0.0125056 0.0114622 0.0109362 0.00722784 0.0106849 0.0108182 0.0128055 0.00922994 0.0115488 0.010975 0.00995376 0.0077712 0.0070569 0.00874002 0.00553272 0.00524481 0.00522969 0.00471881 0.00987477 0.00476329 0.00585745 0.00531474 0.00460864 0.00822937 0.00443333 0.00567077 0.00472125
threshold=-0.0011324882507324217 -0.0061950683593749991 -0.059616088867187493 59.578125000000007 0.0031824111938476567 -0.018478393554687497 -0.12603759765624997 0.0025815963745117192 -0.011959075927734373 0.0055522918701171884 0.22430419921875003 0.0010523796081542971 55.109375000000007 0.0032663345336914067 -0.0009529590606689452 -0.0094642639160156233 2.0224609375000004 -0.0026655197143554683 0.017875671386718753 -0.041336059570312493 0.0058193206787109384 -0.063751220703124986 0.0011391639709472658 0.00055813789367675792 -0.016670227050781247 -0.00045335292816162104 -0.022346496582031247 -0.0038061141967773433 -0.0080680847167968733 0.022590637207031253
decision_type=6 6 4 4 4 4 4 6 6 6 4 4 6 6 6 6 6 6 6 6 6 4 4 6 6 6 4 4 6 4
left_child=1 2 4 5 -1 15 7 -2 -9 14 11 -8 27 25 -10 16 -3 -7 -15 -4 22 -22 24 -24 -5 26 -14 28 -12 -29
right_child=6 3 19 20 -6 17 10 8 9 -11 12 -13 13 18 -16 -17 -18 -19 -20 -21 21 -23 23 -25 -26 -27 -28 29 -30 -31
leaf_value=0 0 1.6222024752722538e-05 3.5242538174724815e-05 -1.5675890121723631e-05 0.00024427108511071601 6.9800830988359298e-06 -8.2759079600235093e-07 0 -0.00030526428065047641 -6.6323027869745611e-06 9.8401095948763232e-06 -5.3009544620223125e-06 -1.9190285260798799e-05 -8.5606037343635491e-06 0 6.4485303503229706e-06 5.0725263516323725e-05 1.971206893629892e-06 5.2302502080236831e-05 -3.7608652510611742e-05 5.393439322531705e-05 -3.3044629043348858e-07 -2.1830566095257933e-05 1.1632874980312264e-06 2.1441069917352674e-06 0 5.4162159240483532e-05 2.3863448634700187e-06 -1.3132712632102328e-05 3.9616579347897369e-05
leaf_weight=166 683 11923 7299 8797 452 215569 534186 234 223 252 5697 448572 548 4406 68 14982 4841 171253 682 325 1750 5598 13119 6138 32378 1495 5104 84187 16985 1486
leaf_count=166 683 11923 7299 8797 452 215569 534186 234 223 252 5697 448572 548 4406 68 14982 4841 171253 682 325 1750 5598 13119 6138 32378 1495 5104 84187 16985 1486
internal_value=0 5.10983e-06 4.39793e-05 4.43373e-06 0.000189623 5.7613e-06 -2.28642e-06 -4.80122e-05 -0.000100322 -0.000150634 -2.21824e-06 -2.87795e-06 3.0886e-06 2.14816e-05 -0.000245882 1.7402e-05 2.66898e-05 4.78423e-06 0 3.10302e-05 -3.6409e-06 1.14648e-05 -5.61649e-06 -1.40673e-05 -1.46032e-06 3.70449e-05 4.5565e-05 9.34118e-07 -6.99318e-06 3.13072e-06
internal_weight=0 494590 8242 486348 618 418568 1.10481e+06 1460 777 543 1.10335e+06 982758 120590 12235 291 31746 16764 386822 5088 7624 67780 7348 60432 19257 41175 7147 5652 108355 22682 85673
internal_count=1599398 494590 8242 486348 618 418568 1104808 1460 777 543 1103348 982758 120590 12235 291 31746 16764 386822 5088 7624 67780 7348 60432 19257 41175 7147 5652 108355 22682 85673
is_linear=0
shrinkage=0.0204528


Tree=2
num_leaves=31
num_cat=0
split_feature=138 73 109 105 36 187 33 168 65 31 115 20 189 193 207 166 116 104 48 73 190 47 58 77 5 205 75 34 98 175
split_gain=0.0348661 0.0357152 0.0198628 0.0375816 0.0139691 0.0109815 0.0181323 0.00998726 0.00887023 0.00875319 0.00677576 0.00639472 0.00796539 0.00575542 0.0052549 0.00525161 0.00524261 0.00502745 0.00429632 0.00403921 0.00378386 0.011495 0.00375149 0.0036026 0.00773249 0.0044535 0.00357842 0.00522528 0.00887117 0.00346829
threshold=0.00047838687896728521 -0.026969909667968747 -0.11062622070312499 -1.0000000180025095e-35 58.078125000000007 0.071807861328125014 54.671875000000007 -0.0032835006713867183 -0.25781249999999994 53.546875000000007 -0.076324462890624986 3.2587890625000004 -0.028022766113281247 0.0027036666870117192 0.0030527114868164067 -0.0045566558837890616 0.0038633346557617192 -0.0016922950744628904 0.0017628669738769533 -0.012035369873046873 -0.0066547393798828116 0.11126708984375001 -0.0035181045532226558 0.13372802734375003 -0.00015765428543090818 -0.025794982910156247 -0.092254638671874986 43.484375000000007 0.010364532470703127 -0.015998840332031247
decision_type=6 4 4 4 4 4 6 6 6 6 4 4 4 6 6 6 4 4 4 4 4 4 6 6 6 6 4 6 6 6
left_child=1 2 3 -1 10 6 -6 8 26 14 15 12 13 -4 -8 -2 -7 -17 -12 -10 21 -18 29 -9 -25 -26 27 -3 -29 -14
right_child=4 7 11 -5 5 16 9 23 19 -11 18 -13 22 -15 -16 17 20 -19 -20 -21 -22 -23 -24 24 25 -27 -28 28 -30 -31
leaf_value=0 -1.3480453553219851e-06 -5.986305396505258e-06 1.5804692633613566e-05 0.00064089262647500035 1.502051624751821e-06 2.6647620854971757e-05 4.7290782751482774e-05 3.8634468588502937e-07 1.2252628046314589e-05 0 -3.7785590648165206e-06 4.5867296484172004e-05 4.0365356665310347e-05 -3.3557929224818575e-05 4.4725761775441514e-06 -0.00018616231864761483 -9.2335717258605661e-05 0 -8.1978518607751937e-06 4.9989613904064054e-06 -1.8947656685996979e-06 -2.0323855840747247e-07 2.8199021679555771e-06 1.051939262679655e-05 -5.8456724856996235e-05 0 -4.6983395125605805e-06 0.00015629099850981079 -1.8317987262194818e-05 1.8114897757087068e-05
leaf_weight=83 455 187 1806 62 64734 515 7184 613331 39863 3552 430555 4933 6795 1913 1978 220 1333 98 123740 233321 1448 1312 3775 1946 1851 943 42067 287 80 9031
leaf_count=83 455 187 1806 62 64734 515 7184 613331 39863 3552 430555 4933 6795 1913 1978 220 1333 98 123740 233321 1448 1312 3775 1946 1851 943 42067 287 80 9031
internal_value=0 2.45865e-06 2.50762e-05 0.000267859 -3.70972e-06 4.11167e-06 6.02511e-06 1.76186e-06 4.72226e-06 2.83922e-05 -4.88105e-06 2.35155e-05 1.84248e-05 -7.3406e-06 3.89633e-05 -6.6166e-05 -2.62206e-05 -0.000132165 -4.78025e-06 6.08815e-06 -3.49271e-05 -4.98324e-05 2.37408e-05 2.35683e-07 -1.74855e-05 -3.99793e-05 -3.83598e-06 4.63715e-05 9.56369e-05 2.82011e-05
internal_weight=0 962274 28398 145 637124 82056 77448 933876 315805 12714 555068 28253 23320 3719 9162 773 4608 318 554295 273184 4093 2645 19601 618071 4740 2794 42621 554 367 15826
internal_count=1599398 962274 28398 145 637124 82056 77448 933876 315805 12714 555068 28253 23320 3719 9162 773 4608 318 554295 273184 4093 2645 19601 618071 4740 2794 42621 554 367 15826
is_linear=0
shrinkage=0.0204528


Tree=3
num_leaves=31
num_cat=0
split_feature=72 138 165 208 161 143 92 132 109 194 168 138 36 192 160 168 59 205 194 124 30 72 77 168 126 194 183 147 117 215
split_gain=0.0386767 0.0361907 0.0279022 0.0115298 0.0113922 0.0155135 0.0382932 0.0184988 0.00970894 0.0104811 0.00714988 0.012358 0.0103389 0.00973937 0.00662853 0.00568497 0.00555426 0.0075912 0.00496974 0.00483384 0.00467218 0.00376902 0.00348657 0.00277776 0.00277718 0.00235839 0.00235187 0.00459389 0.00220101 0.00214988
threshold=-0.043212890624999993 -0.0031270980834960933 -0.0099754333496093733 -0.0034837722778320308 0.0048961639404296884 -0.0054492950439453116 -0.00033581256866455073 -0.0020875930786132808 -0.010555267333984373 -0.011920928955078123 -0.0042552947998046866 0.00042736530303955084 57.421875000000007 -0.012363433837890623 0.0059642791748046884 -0.014385223388671873 -0.0017104148864746092 0.011241912841796877 0.0079460144042968767 0.027473449707031253 56.796875000000007 0.0036897659301757817 0.16571044921875003 -0.00070977210998535145 0.0011649131774902346 0.010112762451171877 0.014675140380859377 0.0055255889892578134 -0.055984497070312493 0.013149261474609377
decision_type=4 6 4 4 6 6 4 6 4 6 4 6 4 6 6 6 6 4 4 6 4 4 6 6 6 6 4 4 4 6
left_child=2 8 3 -1 -4 6 -6 18 14 19 -3 -12 24 20 -2 16 17 -16 -7 26 -14 -15 -21 -11 -13 -9 28 -28 -10 -5
right_child=1 10 4 29 5 7 -8 25 9 23 11 12 13 21 15 -17 -18 -19 -20 22 -22 -23 -24 -25 -26 -27 27 -29 -30 -31
leaf_value=-0.00021922217473955731 1.0495549163493497e-05 2.5364884011683367e-06 7.1516078788904564e-06 -1.3350646819156566e-05 9.3426090019253631e-05 2.0992614975727374e-05 0.00046711065856913598 0.00016846934820149994 -1.7361868417546646e-05 1.0456031887365525e-05 1.9172324122062448e-07 -3.8050341782090538e-06 1.9985183993425645e-05 -5.8460831243405708e-06 3.0467350171327734e-05 1.8440230966283093e-05 0 9.8149473081829528e-05 -0.00010920395057051982 -1.4210615832667247e-05 -4.4548892652579635e-05 4.4681415494768765e-06 -9.8701571964705201e-05 1.256541323338773e-06 -7.0346683736360473e-06 0 -1.1082075515171856e-05 1.6932938919355066e-05 7.6237335654431601e-06 6.5960953702543925e-05
leaf_weight=107 19450 177584 488 456 446 232 205 500 1437 101556 616066 356822 14915 28968 2238 7887 749 1533 170 6343 406 29995 255 18331 179078 86 12835 2839 17235 186
leaf_count=107 19450 177584 488 456 446 232 205 500 1437 101556 616066 356822 14915 28968 2238 7887 749 1533 170 6343 406 29995 255 18331 179078 86 12835 2839 17235 186
internal_value=0 -1.33291e-07 7.49126e-05 -2.34366e-05 0.000113468 0.000139974 0.000224963 7.51845e-05 8.17257e-06 6.05163e-06 -1.27931e-06 -1.83875e-06 -3.90251e-06 3.18015e-06 1.86163e-05 3.06685e-05 5.0137e-05 6.02375e-05 -1.35964e-05 -2.72621e-06 1.77232e-05 -4.57162e-07 -1.87728e-05 9.1193e-06 -4.89991e-06 0.000150175 1.13518e-07 -5.47214e-06 5.25082e-06 0
internal_weight=0 1.59652e+06 2876 749 2127 1639 651 988 192688 160831 1.40383e+06 1.22625e+06 610184 74284 31857 12407 4520 3771 402 40944 15321 58963 6598 119887 535900 586 34346 15674 18672 642
internal_count=1599398 1596522 2876 749 2127 1639 651 988 192688 160831 1403834 1226250 610184 74284 31857 12407 4520 3771 402 40944 15321 58963 6598 119887 535900 586 34346 15674 18672 642
is_linear=0
shrinkage=0.0204528


Tree=4
num_leaves=31
num_cat=0
split_feature=138 75 84 93 163 73 132 125 206 212 193 73 154 190 130 33 140 150 95 72 106 191 77 139 140 174 72 13 46 121
split_gain=0.0346259 0.0243746 0.0145907 0.00885943 0.00951352 0.0102635 0.00930346 0.0089098 0.00875763 0.00869963 0.0127632 0.00792667 0.007789 0.00868422 0.00720139 0.00714583 0.00772098 0.00644277 0.00599866 0.0136614 0.00662952 0.00527819 0.00605503 0.0059337 0.00489193 0.00477324 0.00477174 0.00409455 0.00407895 0.00393461
threshold=0.00016361474990844729 -0.039077758789062493 -0.016441345214843747 -0.098724365234374986 -0.012027740478515623 0.076568603515625014 -0.011272430419921873 -0.048782348632812493 -0.0078029632568359366 0.013561248779296877 -0.0011162757873535154 0.065643310546875014 0.0056324005126953134 0.013362884521484377 0.0027627944946289067 54.609375000000007 -0.0051021575927734366 0.0013003349304199221 0.22625732421875003 -0.0032911300659179683 -0.094940185546874986 -0.00033080577850341791 -0.037063598632812493 -0.0063877105712890616 -0.0018076896667480467 0.0025987625122070317 0.0018410682678222658 1.4096498489379885e-05 -0.026847839355468747 -0.070037841796874986
decision_type=6 4 6 6 4 6 6 6 6 4 6 6 6 6 6 6 6 4 4 4 6 6 4 6 6 4 6 6 4 6
left_child=1 2 9 4 8 15 -7 -8 12 25 29 24 13 28 -4 17 -17 -6 19 20 -3 -20 23 -23 -10 -1 -5 -14 -2 -11
right_child=3 18 14 26 5 6 7 -9 11 10 -12 -13 27 -15 -16 16 -18 -19 21 -21 -22 22 -24 -25 -26 -27 -28 -29 -30 -31
leaf_value=2.5694682022444785e-06 0 9.0235240138792124e-06 6.1123670369636249e-06 -2.4728952455183906e-06 1.5132990988884155e-06 0 -0.00025088445995966524 0 2.8986573288573914e-05 0.00013673216611407384 1.544087212708863e-05 -0.00012476724760783928 9.8093011905158809e-06 -3.0349948931155432e-05 2.5837322762826618e-05 9.7197179065502197e-05 1.1653892286372668e-05 -1.1892697186990965e-05 1.2001490310902383e-06 8.5963131458417721e-07 -1.2669675674424435e-06 -4.2309025014753911e-05 -3.2073878374653796e-06 -9.2200617723343839e-06 -1.8364436573491461e-06 4.4887852819684703e-05 -6.1003217280019777e-06 -5.7720487580947401e-05 4.9984984506132611e-05 4.1933367240096866e-05
leaf_weight=2909 692 155354 32078 336303 50625 76 188 54 2733 1109 1322 196 833 568 11065 517 6968 20868 51709 540218 29833 3924 28868 7584 8324 2438 294515 533 6409 585
leaf_count=2909 692 155354 32078 336303 50625 76 188 54 2733 1109 1322 196 833 568 11065 517 6968 20868 51709 540218 29833 3924 28868 7584 8324 2438 294515 533 6409 585
internal_value=0 2.76148e-06 1.6429e-05 -3.27997e-06 2.33562e-06 -7.61952e-07 -0.000116424 -0.00018366 1.48541e-05 4.1537e-05 7.08111e-05 2.00291e-06 2.99297e-05 3.82169e-05 1.13663e-05 -1.87375e-07 1.87046e-05 -2.28286e-06 1.89007e-06 2.52058e-06 7.32055e-06 -2.98582e-06 -8.55392e-06 -2.12355e-05 5.02877e-06 2.34396e-05 -4.17975e-06 -1.04634e-05 4.48872e-05 0.000109018
internal_weight=0 868996 51506 730402 99584 79296 318 242 20288 8363 3016 11253 9035 7669 43143 78978 7485 71493 817490 725405 185187 92085 40376 11508 11057 5347 630818 1366 7101 1694
internal_count=1599398 868996 51506 730402 99584 79296 318 242 20288 8363 3016 11253 9035 7669 43143 78978 7485 71493 817490 725405 185187 92085 40376 11508 11057 5347 630818 1366 7101 1694
is_linear=0
shrinkage=0.0204528


Tree=5
num_leaves=31
num_cat=0
split_feature=138 72 51 195 175 138 160 169 21 3 93 176 127 163 193 113 13 40 192 131 114 115 110 168 77 111 117 65 38 129
split_gain=0.0286822 0.0274577 0.0217782 0.0257524 0.0129191 0.0121935 0.0166779 0.0107664 0.0103156 0.00983906 0.00707375 0.00695989 0.0101528 0.00717744 0.0053648 0.0051305 0.00722221 0.00717788 0.00573219 0.00486931 0.00476718 0.00442402 0.00610284 0.00501767 0.00429591 0.00552766 0.00538093 0.00420943 0.00482356 0.00400551
threshold=0.00084042549133300792 -0.0048580169677734366 -0.079376220703124986 0.040328979492187507 0.040359497070312507 -0.0052013397216796866 0.0080833435058593767 -0.024284362792968747 1.0971679687500002 -1.5109777450561522e-05 -0.063232421874999986 -0.0025987625122070308 0.012813568115234377 -0.0025987625122070308 -0.016120910644531247 -0.062210083007812493 1.9967555999755864e-06 53.796875000000007 -0.0036592483520507808 -0.0031709671020507808 0.0012316703796386721 0.072052001953125014 -0.0023050308227539058 0.00016301870346069339 0.14227294921875003 0.11474609375000001 0.047210693359375007 0.11474609375000001 90.062500000000014 -0.012332916259765623
decision_type=6 4 4 4 4 6 6 6 6 6 4 6 6 6 6 6 6 6 6 6 4 6 6 6 6 6 4 4 4 4
left_child=1 2 3 -1 -2 6 9 -8 -5 10 -4 12 13 14 20 18 19 -18 -14 -17 -6 23 -23 -3 25 -25 -26 28 -7 -9
right_child=4 21 5 8 11 27 7 29 -10 -11 -12 -13 15 -15 -16 16 17 -19 -20 -21 -22 22 -24 24 26 -27 -28 -29 -30 -31
leaf_value=5.6485429203721711e-06 -5.1317526669780975e-06 1.4219289326192764e-06 -0.00011043343517265174 5.1426940321370809e-05 1.176686171969459e-05 3.2591921666053653e-07 6.3137478519971466e-05 -2.7801243744054353e-05 0.00025153062527140673 1.6233092365587396e-05 -5.5392378943495026e-07 -1.267158664561779e-06 9.071480586346778e-05 4.8106435457041877e-06 1.2229029639234427e-05 -6.088746122463146e-05 2.9553196997203885e-05 -3.9999470073237511e-05 -7.2928517420361985e-06 0 5.291994519037751e-05 -2.0645069412588012e-05 5.4340134600862369e-05 -1.744999585102897e-06 0 0.00011256731633385797 -6.6106562533940023e-05 -3.7829927030845901e-06 9.8189369319978077e-06 2.5386402044545473e-05
leaf_weight=999 462893 596355 251 320 2375 38492 4602 498 406 36133 15036 44075 397 12839 6800 1932 1694 952 320 818 4627 467 1440 274339 1278 173 985 20322 60584 6996
leaf_count=999 462893 596355 251 320 2375 38492 4602 498 406 36133 15036 44075 397 12839 6800 1932 1694 952 320 818 4627 467 1440 274339 1278 173 985 20322 60584 6996
internal_value=0 1.95769e-06 9.12715e-06 8.19758e-05 -3.83478e-06 8.39349e-06 1.56866e-05 3.7563e-05 0.000175206 1.03763e-05 -2.91954e-06 3.87037e-06 1.10389e-05 1.66276e-05 2.70112e-05 -1.19451e-05 -1.98012e-05 1.35568e-06 3.5425e-05 -4.31873e-05 4.0164e-05 4.353e-07 3.15884e-05 3.57598e-07 -1.90541e-06 -1.64166e-06 -3.01734e-05 4.44347e-06 6.2154e-06 2.07285e-05
internal_weight=0 1.05968e+06 184639 1725 539722 182914 63516 12096 726 51420 15287 76829 32754 26641 13802 6113 5396 2646 717 2750 7002 875037 1907 873130 276775 274512 2263 119398 99076 7494
internal_count=1599398 1059676 184639 1725 539722 182914 63516 12096 726 51420 15287 76829 32754 26641 13802 6113 5396 2646 717 2750 7002 875037 1907 873130 276775 274512 2263 119398 99076 7494
is_linear=0
shrinkage=0.0204528


Tree=6
num_leaves=31
num_cat=0
split_feature=168 138 74 17 63 198 75 34 92 91 72 97 88 8 206 79 35 177 139 59 30 159 48 61 38 151 129 146 72 74
split_gain=0.0272166 0.018707 0.0347301 0.0123038 0.0121892 0.0112818 0.0312948 0.0116342 0.0100177 0.00811223 0.00787039 0.00610492 0.00565395 0.00544817 0.00519012 0.0134521 0.0108629 0.0185526 0.00752795 0.0128421 0.00509469 0.00469865 0.00452831 0.00810916 0.00431551 0.00420128 0.0034161 0.00448953 0.00414204 0.00311099
threshold=-0.00017803907394409177 -0.0012459754943847654 -0.046188354492187493 1.5678710937500002 -0.11776733398437499 -0.015384674072265623 -0.17364501953124997 47.203125000000007 -0.0007011890411376952 0.080169677734375014 -0.011882781982421873 0.085601806640625014 -0.0033311843872070308 1.3381242752075197e-05 -0.00071883201599121083 -0.042648315429687493 45.796875000000007 -0.0066814422607421866 0.0091133117675781267 -0.001221656799316406 51.953125000000007 0.0077686309814453134 0.0011267662048339846 -0.078948974609374986 75.968750000000014 0.0010190010070800783 -0.012332916259765623 0.0010132789611816408 -4.783272743225097e-05 -0.0056285858154296866
decision_type=6 6 4 4 6 6 6 6 4 4 4 6 6 4 6 4 6 6 4 4 6 4 4 4 6 4 4 4 6 6
left_child=1 2 3 12 26 6 13 8 -7 22 -6 14 -1 -5 15 16 17 -11 -17 -20 -13 -9 23 -2 -8 -14 28 -28 -4 -12
right_child=9 -3 4 5 10 7 24 21 -10 11 29 20 25 -15 -16 18 -18 -19 19 -21 -22 -23 -24 -25 -26 -27 27 -29 -30 -31
leaf_value=2.2615122557391064e-05 -8.3215590598433666e-05 -2.1997779151451939e-07 -3.9015100739933205e-05 0.0001679266077263545 1.8351545229905445e-05 0 6.7038267785016117e-05 0 8.2908436590897671e-05 0.00041464563815824267 8.393504203686014e-06 0.00021925679052130101 0 0.00054990117566441172 -2.8875221883706357e-06 7.3887865241637767e-07 1.1951680969611891e-05 0 3.8466600340173462e-05 9.4517141689314841e-09 0 -0.00013995820290906458 -6.2238503493984164e-06 -2.3697677878015162e-06 -1.2879669857019023e-05 -9.0010679728242781e-05 -7.6605768704572201e-06 5.7827733700981234e-06 7.894588227820356e-06 3.7976723333034847e-06
leaf_weight=4244 524 448194 2465 178 21631 975 4131 128 1075 106 99143 98 211 68 51039 50121 333 78 6750 8820 69 223 201380 454628 118 343 30174 15197 766 196188
leaf_count=4244 524 448194 2465 178 21631 975 4131 128 1075 106 99143 98 211 68 51039 50121 333 78 6750 8820 69 223 201380 454628 118 343 30174 15197 766 196188
internal_value=0 2.58688e-06 5.94369e-06 4.07336e-05 4.80768e-06 5.86274e-05 7.84027e-05 1.8087e-05 3.95654e-05 -2.75194e-06 6.28142e-06 2.15489e-06 1.32576e-05 0.000310766 1.90528e-06 5.72645e-06 0.000110195 0.000240978 4.77357e-06 1.72221e-05 0.000125795 -8.31585e-05 -3.64224e-06 -2.48159e-06 6.28442e-05 -4.31939e-05 -4.631e-06 -2.97313e-06 -2.53057e-05 5.3689e-06
internal_weight=0 825452 377258 11694 365564 6896 4495 2401 2050 773946 316962 117414 4798 246 117247 66208 517 184 65691 15570 167 351 656532 455152 4249 554 48602 45371 3231 295331
internal_count=1599398 825452 377258 11694 365564 6896 4495 2401 2050 773946 316962 117414 4798 246 117247 66208 517 184 65691 15570 167 351 656532 455152 4249 554 48602 45371 3231 295331
is_linear=0
shrinkage=0.0204528


Tree=7
num_leaves=31
num_cat=0
split_feature=138 76 91 15 72 95 206 55 30 23 199 89 170 61 159 79 72 92 41 99 101 191 152 26 48 191 99 42 103 198
split_gain=0.0338296 0.0443995 0.0154801 0.0138027 0.012437 0.00835516 0.00975483 0.0141138 0.0171961 0.00832151 0.00674441 0.0158764 0.00798904 0.0064882 0.00617638 0.00530774 0.00652487 0.00668906 0.00511538 0.0122795 0.00947828 0.0135358 0.00472567 0.00445813 0.00414408 0.00404474 0.00500089 0.0040106 0.00386253 0.00384374
threshold=-0.00036466121673583979 -0.11575317382812499 0.067474365234375014 2.4716796875000004 -0.011043548583984373 0.28112792968750006 -0.0019712448120117183 -0.073181152343749986 41.671875000000007 2.6923828125000004 0.0072307586669921884 0.063812255859375014 -0.0030584335327148433 -0.093353271484374986 -0.0091896057128906233 0.060165405273437507 -0.0044345855712890616 0.024986267089843753 51.359375000000007 -0.070037841796874986 -0.061691284179687493 0.0098991394042968767 -0.00016051530838012693 0.18145751953125003 0.0009696483612060548 0.016029357910156253 0.11126708984375001 0.022453308105468753 -0.024971008300781247 -0.00074839591979980458
decision_type=6 6 4 4 4 4 4 4 6 6 6 6 4 4 6 6 4 4 4 4 6 6 6 6 4 4 6 4 6 6
left_child=1 2 9 -4 18 13 10 8 -8 -1 14 23 22 -2 -7 16 17 28 -3 -20 21 -21 -13 -12 -15 26 -9 29 -6 -27
right_child=5 4 3 -5 15 6 7 25 -10 -11 11 12 -14 24 -16 -17 -18 -19 19 20 -22 -23 -24 -25 -26 27 -28 -29 -30 -31
leaf_value=1.8672043560857873e-05 -9.4012304347670771e-05 1.6745523647567361e-05 9.3748519980742598e-05 0.00031818489053258658 1.064948633306436e-05 1.712405401075996e-05 -0.00043659410638431201 -9.4114978343950744e-07 0 0.00011952047242438179 2.9873804966002922e-05 2.8827965815835057e-05 -6.5800346532460672e-05 -2.2581294017577543e-06 -3.7603544653902424e-06 5.0776107029431653e-05 1.0813521759594312e-06 -3.5710017867880101e-06 0.00010495297948883734 1.6948540532874087e-05 4.9550312505908619e-06 -8.5909843643870915e-05 -6.8094161087143816e-05 9.5080316697593691e-06 -5.4717362295657694e-06 0 6.9079929079871204e-05 -9.3511431816279517e-05 1.3217637708385599e-06 -2.6293206498358469e-05
leaf_weight=1903 335 36995 790 204 80539 8112 68 40057 51 524 13740 939 1319 531397 20963 953 521939 22820 462 736 10807 1244 256 8866 257015 4660 429 296 26924 4055
leaf_count=1903 335 36995 790 204 80539 8112 68 40057 51 524 13740 939 1319 531397 20963 953 521939 22820 462 736 10807 1244 256 8866 257015 4660 429 296 26924 4055
internal_value=0 3.3466e-06 7.69285e-05 0.000148748 2.97663e-06 -2.64302e-06 2.76739e-06 -3.66655e-06 -0.000225292 4.39712e-05 8.81215e-06 1.66183e-05 -3.07469e-05 -3.36574e-06 1.77922e-06 2.20683e-06 2.12287e-06 6.23105e-06 1.28169e-05 1.21445e-06 -1.89428e-06 -4.34715e-05 9.92135e-07 2.22583e-05 -3.31637e-06 -2.95574e-06 0 -1.53528e-05 8.39048e-06 -1.17173e-05
internal_weight=0 706840 3421 994 703419 892558 103811 49616 119 2427 54195 25120 2514 788747 29075 653175 652222 130283 50244 13249 12787 1980 1195 22606 788412 49497 40486 9011 107463 8715
internal_count=1599398 706840 3421 994 703419 892558 103811 49616 119 2427 54195 25120 2514 788747 29075 653175 652222 130283 50244 13249 12787 1980 1195 22606 788412 49497 40486 9011 107463 8715
is_linear=0
shrinkage=0.0204528


Tree=8
num_leaves=31
num_cat=0
split_feature=138 156 191 117 36 168 168 169 168 194 206 77 170 40 151 212 79 79 209 107 162 168 125 136 129 81 61 80 146 191
split_gain=0.0356622 0.021272 0.0288045 0.0592727 0.00967869 0.00506048 0.00747283 0.00505956 0.00494545 0.00690921 0.00604232 0.0160415 0.0196782 0.0109469 0.00739241 0.00626493 0.00548582 0.00410327 0.0062464 0.00392354 0.00386563 0.0134587 0.00937075 0.00899013 0.00495574 0.00378367 0.00320866 0.00316824 0.00309982 0.00322844
threshold=-0.0010943412780761717 -0.027824401855468747 0.051406860351562507 0.076568603515625014 59.609375000000007 0.00018101930618286136 -0.014385223388671873 -0.000176548957824707 7.2807073593139662e-05 0.029136657714843753 -0.0078029632568359366 0.22198486328125003 0.00050520896911621105 41.453125000000007 -0.0038843154907226558 0.0045413970947265634 -0.082122802734374986 -0.10031127929687499 -0.023353576660156247 -0.070037841796874986 -0.0010743141174316404 -0.027900695800781247 -0.22064208984374997 0.0010848045349121096 -0.0014328956604003904 -0.079498291015624986 -0.066375732421874986 -0.010395050048828123 0.0040798187255859384 -0.0031843185424804683
decision_type=6 6 4 4 4 6 6 6 4 4 4 6 6 6 6 4 6 4 4 6 6 6 6 4 6 6 4 4 4 6
left_child=1 2 7 19 5 6 27 20 -2 17 11 14 15 -14 16 -13 -11 18 -10 -4 22 23 24 -22 -1 -5 -23 -3 29 -6
right_child=8 4 3 25 28 -7 -8 -9 9 10 -12 12 13 -15 -16 -17 -18 -19 -20 -21 21 26 -24 -25 -26 -27 -28 -29 -30 -31
leaf_value=-0.00010885227353808641 -4.1735855613062897e-07 3.3936463413668558e-05 6.2155053366290001e-05 0.00043271400103153516 0 0 5.2525164837816054e-06 -3.3008135151617124e-06 -0.000291892246645207 0.00013992175196257949 -1.0588553814443405e-06 6.4000166597369916e-05 -0.00027572867716714537 0 6.5076675425029671e-06 -4.62569855179664e-05 2.9161041570408697e-05 -3.892833568755744e-06 0 0 0 -8.1346461915761124e-05 2.0367123179454338e-05 0.0001353090146765188 0 0.00010677216149830645 2.3848379849088919e-05 1.2119117846608782e-05 7.9166033954968232e-06 -9.6258113407678755e-06
leaf_weight=373 455859 5226 1161 225 30777 72292 329685 3172 51 239 42055 309 220 91 11714 628 6969 577402 66 323 118 90 5208 819 238 102 4317 10394 8568 30707
leaf_count=373 455859 5226 1161 225 30777 72292 329685 3172 51 239 42055 309 220 91 11714 628 6969 577402 66 323 118 90 5208 819 238 102 4317 10394 8568 30707
internal_value=0 4.50837e-06 2.76847e-05 0.00010543 3.72372e-06 4.9119e-06 5.94208e-06 1.72657e-05 -2.0664e-06 -3.22835e-06 3.17287e-06 1.24105e-05 -5.70155e-05 -0.000198206 1.74374e-05 -9.21581e-07 3.40317e-05 -3.93256e-06 -0.000126315 4.38059e-05 2.38593e-05 3.71098e-05 1.02436e-05 0.000109555 -6.21761e-05 0.000357731 1.9766e-05 1.99579e-05 -3.2397e-06 -4.93076e-06
internal_weight=0 503795 16146 1811 487649 417597 345305 14335 1.0956e+06 639744 62225 20170 1248 311 18922 937 7208 577519 117 1484 11163 5344 5819 937 611 327 4407 15620 70052 61484
internal_count=1599398 503795 16146 1811 487649 417597 345305 14335 1095603 639744 62225 20170 1248 311 18922 937 7208 577519 117 1484 11163 5344 5819 937 611 327 4407 15620 70052 61484
is_linear=0
shrinkage=0.0204528


Tree=9
num_leaves=31
num_cat=0
split_feature=168 109 165 168 17 76 161 2 72 138 8 163 207 41 191 72 15 190 101 125 150 192 138 138 31 94 57 5 126 111
split_gain=0.024696 0.0265722 0.0210346 0.0153068 0.0105493 0.00858573 0.00787284 0.0130624 0.0077166 0.00720389 0.00763437 0.00876925 0.00984051 0.00586661 0.00879335 0.00783817 0.00561102 0.00524283 0.0048259 0.010055 0.00736636 0.00552044 0.00364373 0.00628877 0.00319457 0.00304111 0.00284205 0.00240094 0.00227708 0.00630959
threshold=-0.010005950927734373 -0.090118408203124986 0.0034723281860351567 -0.0022687911987304683 0.63549804687500011 0.0064907073974609384 0.0077571868896484384 -0.36596679687499994 -0.0091056823730468733 -0.00047528743743896479 0.00041568279266357427 -0.012157440185546873 -0.016944885253906247 59.109375000000007 -0.021476745605468747 0.0030717849731445317 1.3579101562500002 0.0087852478027343767 -0.13659667968749997 0.15655517578125003 -0.00072646141052246083 -0.0043544769287109366 -6.9350004196166979e-05 -0.0027971267700195308 57.890625000000007 -0.0060291290283203116 -0.053390502929687493 0.00044786930084228521 0.00011286139488220216 0.11822509765625001
decision_type=6 4 4 4 6 6 4 6 4 4 4 4 6 4 6 4 6 6 4 4 6 6 6 6 4 6 6 6 4 6
left_child=1 2 -1 22 5 6 25 -8 17 18 27 12 16 15 -15 -13 -12 -6 19 -5 -21 -22 23 -2 -7 26 -3 -11 -20 -30
right_child=3 4 -4 9 8 24 7 -9 -10 10 11 13 -14 14 -16 -17 -18 -19 28 20 21 -23 -24 -25 -26 -27 -28 -29 29 -31
leaf_value=0 7.566667807768356e-06 -3.2284447514538377e-05 0.00036292890875598685 3.7642621062137594e-06 1.5858199422145392e-05 0 8.5244744783533456e-05 1.3678339747400708e-05 9.8478150537369037e-06 -3.0837005664521156e-06 4.3548820273990818e-05 -4.8012300018417972e-06 1.5628311653620496e-06 -4.7046492259379773e-05 -3.7048014743936435e-06 1.1855809576852809e-05 0 4.3046887591955576e-05 2.4764655347466011e-06 0 0.0002975723260640447 0 -7.8426751016362478e-07 1.5798329779573778e-06 -2.1930954694431466e-05 1.3019534117344091e-05 -1.2012044382892795e-07 -6.6008872731905888e-06 -1.2511313485412991e-06 0.00012018414809383575
leaf_weight=83 115813 1274 159 1190 7128 4487 1236 13308 19875 608991 5723 24231 9365 2509 11560 22361 1468 7478 140884 80 130 82 94205 213819 6071 6867 17633 100202 161010 176
leaf_count=83 115813 1274 159 1190 7128 4487 1236 13308 19875 608991 5723 24231 9365 2509 11560 22361 1468 7478 140884 80 130 82 94205 213819 6071 6867 17633 100202 161010 176
internal_value=0 1.06923e-05 0.000225457 -5.99691e-07 9.98018e-06 3.85189e-06 8.27643e-06 2.03465e-05 1.87788e-05 -1.8867e-06 -2.92199e-06 3.12741e-06 1.63321e-05 -3.38863e-07 -1.20347e-05 3.01347e-06 3.43966e-05 3.03554e-05 7.67836e-07 3.76485e-05 0.000146314 0.000209323 2.69029e-06 3.70868e-06 -1.22496e-05 1.13951e-06 -2.73336e-06 -3.59247e-06 5.58933e-07 -1.06514e-06
internal_weight=0 85599 242 1.5138e+06 85357 50876 40318 14544 34481 1.08996e+06 786410 77217 16556 60661 14069 46592 7191 14606 303552 1482 292 212 423837 329632 10558 25774 18907 709193 302070 161186
internal_count=1599398 85599 242 1513799 85357 50876 40318 14544 34481 1089962 786410 77217 16556 60661 14069 46592 7191 14606 303552 1482 292 212 423837 329632 10558 25774 18907 709193 302070 161186
is_linear=0
shrinkage=0.0204528


Tree=10
num_leaves=31
num_cat=0
split_feature=138 79 97 194 203 150 8 168 165 115 157 198 89 72 201 122 19 72 192 161 192 2 215 206 162 151 161 193 199 205
split_gain=0.0295441 0.0167802 0.00962072 0.0204273 0.0117651 0.0113163 0.00824949 0.00744529 0.00789147 0.00634338 0.00602232 0.00591227 0.0058717 0.0110217 0.00738766 0.00515017 0.00502354 0.00590099 0.00479443 0.00467131 0.00457172 0.00418896 0.00415413 0.00401802 0.00450217 0.00392951 0.00535621 0.00358156 0.00378962 0.00406206
threshold=-0.00010529160499572753 -0.025962829589843747 -0.058059692382812493 0.016075134277343753 0.0036115646362304692 0.0016646385192871096 0.00022125244140625003 -0.0024290084838867183 -0.020637512207031247 -0.084259033203124986 -0.061416625976562493 -0.011341094970703123 0.038787841796875007 0.0013279914855957033 -0.0052471160888671866 0.064666748046875014 3.6064453125000004 -0.0026140213012695308 -0.0092506408691406233 0.00062680244445800792 0.0023412704467773442 -0.0097999572753906233 0.015438079833984377 -0.0040264129638671866 0.0013260841369628908 0.0011200904846191408 0.0030965805053710942 0.011142730712890627 0.015285491943359377 0.075531005859375014
decision_type=6 4 6 4 6 6 4 6 6 4 6 6 6 4 4 4 4 4 6 6 4 6 6 6 6 6 6 6 6 4
left_child=1 2 3 -1 5 -5 9 8 10 -2 15 -4 13 18 25 -3 17 -10 -8 -7 21 -14 -22 24 -16 26 -15 28 -13 -30
right_child=6 7 11 4 -6 19 12 -9 16 -11 -12 27 20 14 23 -17 -18 -19 -20 -21 22 -23 -24 -25 -26 -27 -28 -29 29 -31
leaf_value=1.3405508645855996e-05 -7.2136135492873122e-05 0 3.4427821922941607e-05 4.6479878933310112e-05 0 0 1.1595487889996903e-05 4.6765581279098721e-07 8.4227989963329985e-06 -3.4281500826017056e-06 -3.9543767964322247e-06 0 -1.1352921235974859e-06 3.7628377012693796e-05 2.4626581809080003e-05 7.7039793478351999e-05 1.7944584297417002e-05 2.6038129559026746e-06 -8.5617111093528782e-06 0.00036363485215808509 -6.3873638567632804e-07 -2.4158871459494043e-05 3.5400363910222032e-05 -3.7219714060503771e-07 -1.5807609953510209e-06 5.9266688262897333e-06 4.5619177674347855e-06 -2.2595657162411419e-05 0 6.9725176409823463e-05
leaf_weight=1130 573 872 5075 199 131 51 5997 398453 132896 714775 52398 2989 7558 8788 7048 710 14026 174496 23062 215 5480 7275 1614 18253 3560 5502 3470 1520 453 829
leaf_count=1130 573 872 5075 199 131 51 5997 398453 132896 714775 52398 2989 7558 8788 7048 710 14026 174496 23062 215 5480 7275 1614 18253 3560 5502 3470 1520 453 829
internal_value=0 2.83149e-06 2.63185e-05 7.28461e-05 0.00017113 0.000219184 -2.7288e-06 2.43843e-06 4.50792e-06 -3.49509e-06 -2.62236e-06 1.81456e-05 2.80137e-06 5.56101e-06 1.17705e-05 3.616e-05 5.73146e-06 5.14684e-06 -4.11317e-06 0.000315862 -6.34119e-06 -1.29936e-05 6.38814e-06 5.00447e-06 1.50436e-05 2.22924e-05 2.89531e-05 2.42434e-06 1.32946e-05 4.26953e-05
internal_weight=0 786443 12592 1726 596 465 812955 773851 375398 715348 53980 10866 97607 75680 46621 1582 321418 307392 29059 266 21927 14833 7094 28861 10608 17760 12258 5791 4271 1282
internal_count=1599398 786443 12592 1726 596 465 812955 773851 375398 715348 53980 10866 97607 75680 46621 1582 321418 307392 29059 266 21927 14833 7094 28861 10608 17760 12258 5791 4271 1282
is_linear=0
shrinkage=0.0204528


Tree=11
num_leaves=31
num_cat=0
split_feature=168 55 138 158 108 79 72 88 205 129 193 121 160 111 22 199 111 45 164 168 103 168 188 95 144 5 165 97 21 91
split_gain=0.0343901 0.0281532 0.0226686 0.0175746 0.0133292 0.0111706 0.0156983 0.00883519 0.00713623 0.00657963 0.00890922 0.00908219 0.00647614 0.00511868 0.00458232 0.00493069 0.00562256 0.0111984 0.00721087 0.00447294 0.00446545 0.00440332 0.00501431 0.00390409 0.00329978 0.00315539 0.00296944 0.00286858 0.00270186 0.0025965
threshold=-0.027900695800781247 -0.10845947265624999 0.0006835460662841798 -0.0043964385986328116 -0.0042057037353515616 0.075653076171875014 -0.0049839019775390616 -0.0050144195556640616 0.016197204589843753 -0.016212463378906247 0.0075397491455078134 -0.047744750976562493 0.0019922256469726567 0.091827392578125014 0.017402648925781253 0.0052661895751953134 0.082885742187500014 -0.011539459228515623 0.013179779052734377 0.011478424072265627 -0.053390502929687493 0.0041294097900390634 0.013439178466796877 0.14056396484375003 0.00035607814788818365 0.00036895275115966802 0.0096778869628906267 0.0072975158691406259 2.1494140625000004 -0.092254638671874986
decision_type=6 4 4 6 6 6 4 6 4 4 6 6 4 6 6 6 6 4 6 4 6 6 6 4 4 6 6 6 4 4
left_child=1 3 5 -1 12 6 9 24 29 10 -2 -12 -3 19 15 16 18 -18 -10 25 23 -17 -23 -11 -6 -8 -7 -21 -14 -4
right_child=2 4 8 -5 7 26 13 -9 14 20 11 -13 28 -15 -16 21 17 -19 -20 27 -22 22 -24 -25 -26 -27 -28 -29 -30 -31
leaf_value=0.00057881013739618278 0 0 -8.0949705487612855e-05 9.6759557831136074e-05 0 0.00012780559881184125 9.749878408471235e-07 -1.7892998194929556e-05 -2.6875761641487706e-06 1.1935400484561346e-05 -0.00012968410802480991 0 4.9735877336975168e-05 3.1037746272974773e-05 -3.3042443325063393e-06 -2.4677555332623437e-07 0.00031486557684793417 1.6344960645163052e-05 9.411982700939884e-05 -4.3087704076458423e-06 1.6585605992185866e-06 1.0156252708235218e-05 3.8530731295605478e-05 3.4274985983975325e-06 5.2631710899661354e-05 -2.88769084615934e-06 0 -2.8839669618473588e-05 0.00010596476548291247 -4.7434064487113822e-06
leaf_weight=65 2774 455 199 187 915 371 726081 2304 42481 93586 525 505 1975 2280 73138 11254 66 683 319 7569 40221 20138 3394 33761 1707 100009 88 3376 1189 427783
leaf_count=65 2774 455 199 187 915 371 726081 2304 42481 93586 525 505 1975 2280 73138 11254 66 683 319 7569 40221 20138 3394 33761 1707 100009 88 3376 1189 427783
internal_value=0 4.03291e-05 -2.1716e-07 0.000257548 3.28863e-05 1.62558e-06 1.57125e-06 8.96367e-06 -3.44717e-06 7.21528e-06 -1.87358e-05 -7.0044e-05 6.31138e-05 4.08857e-07 3.16468e-07 3.80386e-06 -6.02981e-07 5.45469e-05 -1.76617e-06 3.15351e-07 7.85458e-06 9.56127e-06 1.46073e-05 9.74571e-06 3.57501e-05 4.97218e-07 0.000102572 -1.26441e-05 7.35631e-05 -4.79877e-06
internal_weight=0 8797 1.5906e+06 252 8545 1.01115e+06 1.01069e+06 4926 579455 171372 3804 1030 3619 839315 151473 78335 43549 749 42800 837035 167568 34786 23532 127347 2622 826090 459 10945 3164 427982
internal_count=1599398 8797 1590601 252 8545 1011146 1010687 4926 579455 171372 3804 1030 3619 839315 151473 78335 43549 749 42800 837035 167568 34786 23532 127347 2622 826090 459 10945 3164 427982
is_linear=0
shrinkage=0.0204528


Tree=12
num_leaves=31
num_cat=0
split_feature=138 74 137 21 36 79 168 72 3 95 192 131 43 115 105 78 212 47 189 190 169 206 49 189 139 187 192 128 165 103
split_gain=0.0228447 0.0301053 0.013473 0.0113232 0.0103272 0.00989051 0.0088724 0.00809641 0.0137533 0.00704766 0.00728988 0.00630578 0.00562115 0.00473926 0.00715827 0.00461514 0.00506989 0.00782527 0.00537952 0.00496927 0.00764727 0.00779343 0.00648939 0.0107039 0.00495755 0.00447919 0.00375844 0.00450415 0.00325052 0.00321998
threshold=0.00090146064758300792 -0.049240112304687493 0.010440826416015627 2.0419921875000004 55.484375000000007 -0.084808349609374986 -0.0013403892517089842 -0.0041751861572265616 1.5050172805786135e-05 -0.021965026855468747 -0.00034153461456298823 0.0015606880187988283 -0.061172485351562493 -0.10574340820312499 -0.030998229980468747 -0.0036859512329101558 0.0019354820251464846 -0.041625976562499993 -0.015155792236328123 -0.018562316894531247 0.010097503662109377 -0.0042095184326171866 -0.0014081001281738279 0.021324157714843753 0.014507293701171877 -0.017539978027343747 0.0039463043212890634 -0.0034837722778320308 0.0065021514892578134 -0.11447143554687499
decision_type=6 4 4 6 4 4 6 4 4 4 6 6 4 4 4 4 4 4 6 4 4 6 6 6 6 6 6 4 4 6
left_child=1 2 12 9 13 -6 7 8 29 -4 25 -5 -1 14 -2 16 -7 18 -18 22 -21 -22 23 -17 -19 -11 -10 -28 -13 -3
right_child=4 6 3 11 5 15 -8 -9 26 10 -12 28 -14 -15 -16 19 17 24 -20 20 21 -23 -24 -25 -26 -27 27 -29 -30 -31
leaf_value=-0.00014520223855444696 -0.00020528404484893118 1.2482096918122691e-05 2.9363176788208352e-06 0 0.00024720508274328934 5.9424272821686923e-06 -5.9072501447007789e-07 1.6345991499042616e-06 0 4.0997048028520533e-05 7.6484142810945044e-05 5.8097355411437825e-05 0 -4.7237996803586889e-06 0 -6.8742480006543014e-06 -6.0649565081923326e-05 -9.2375374705866032e-06 -4.9607706003737805e-06 1.3746800152627784e-06 2.8717016455390415e-05 3.5984889288743239e-06 -2.2900807072882765e-05 0.00010003504987238296 4.346646569394877e-05 -3.2049049228515115e-05 -4.4170478581684311e-05 -6.8686243054711699e-06 0.00011980399107387171 4.2938288064367522e-06
leaf_weight=115 123 86237 3361 398 68 6863 511039 406832 19083 809 1773 1826 2303 435896 97 1123 2213 5605 1611 41933 11109 11285 5301 519 846 537 2038 6465 1216 30774
leaf_count=115 123 86237 3361 398 68 6863 511039 406832 19083 809 1773 1826 2303 435896 97 1123 2213 5605 1611 41933 11109 11285 5301 519 846 537 2038 6465 1216 30774
internal_value=0 1.7141e-06 3.35046e-05 4.41888e-05 -3.49239e-06 2.81944e-06 1.33699e-06 3.13869e-06 7.31254e-06 2.62231e-05 4.86163e-05 7.55644e-05 -6.86822e-06 -4.79209e-06 -0.000101152 2.53132e-06 -6.7958e-06 -1.61184e-05 -3.93917e-05 4.89179e-06 6.74787e-06 1.64343e-05 -1.10962e-05 2.19021e-05 -1.01717e-06 5.63829e-06 -5.48078e-06 -1.68017e-05 8.55754e-05 1.04002e-05
internal_weight=0 1.07481e+06 12338 9920 524592 88476 1.06247e+06 551429 144597 6480 3119 3440 2418 436116 220 88408 17138 10275 3824 71270 64327 22394 6943 1642 6451 1346 27586 8503 3042 117011
internal_count=1599398 1074806 12338 9920 524592 88476 1062468 551429 144597 6480 3119 3440 2418 436116 220 88408 17138 10275 3824 71270 64327 22394 6943 1642 6451 1346 27586 8503 3042 117011
is_linear=0
shrinkage=0.0204528


Tree=13
num_leaves=31
num_cat=0
split_feature=138 190 168 93 160 1 189 137 135 53 8 33 111 0 190 13 187 138 194 53 91 138 107 76 192 215 41 101 44 215
split_gain=0.037594 0.0256692 0.0142713 0.0122576 0.0120718 0.00941512 0.00896829 0.00828905 0.00640984 0.00886057 0.00640079 0.00626821 0.00837486 0.0192883 0.00849155 0.00753595 0.0145854 0.00686531 0.00566048 0.00534037 0.0049401 0.00665938 0.00571836 0.00488212 0.00486102 0.00446208 0.00446008 0.0043999 0.0054006 0.00455346
threshold=-0.0061626434326171866 0.028739929199218753 -0.00036180019378662104 -0.078430175781249986 0.0087776184082031267 -2.7236328124999996 -0.0098609924316406233 0.0072765350341796884 0.0035886764526367192 -0.038986206054687493 0.00041568279266357427 54.546875000000007 0.053710937500000007 -0.0007927417755126952 0.0056171417236328134 1.1950731277465822e-05 0.035659790039062507 0.0022134780883789067 -0.0054645538330078116 -0.0072650909423828116 -0.063232421874999986 0.00093817710876464855 0.16235351562500003 0.013484954833984377 0.0070056915283203134 0.0014576911926269533 50.328125000000007 0.031242370605468753 -0.0029783248901367183 0.059616088867187507
decision_type=6 4 4 6 6 6 6 4 4 6 4 6 6 6 6 6 6 6 6 6 4 4 4 6 6 4 4 4 4 6
left_child=1 4 -2 6 18 7 8 -6 -3 -10 20 12 26 14 -14 16 17 -13 27 -17 22 -22 -4 25 -18 -7 -12 29 -29 -1
right_child=2 3 10 -5 5 23 -8 -9 9 -11 11 15 13 -15 -16 19 24 -19 -20 -21 21 -23 -24 -25 -26 -27 -28 28 -30 -31
leaf_value=8.9178993232642836e-06 1.4075849580346078e-06 0 -0.00010398787033019742 1.5935207603378437e-05 0 1.4539022378539862e-05 6.4810212079792392e-05 0.00013958499314011298 0.00029421349854450807 2.6687025084331209e-05 4.3102738848466846e-06 1.129739158298365e-05 0.00027355192245423303 3.5931950294355526e-06 0 -8.0931010126261742e-05 -1.3285070539970746e-05 5.4672684317227627e-05 1.4623905631211513e-05 0 -1.0844799124060423e-06 -5.0859107882838539e-06 0 -1.3414746763189841e-05 2.6482757274039095e-05 5.2067505399099966e-05 -6.0849543649385195e-06 2.1870922102392417e-05 -2.4109409360574981e-05 -4.1161466896272039e-05
leaf_weight=16712 738567 128 442 1146 130 3697 1076 632 307 153 32466 3063 199 1018 53 437 4767 4786 29112 2422 352520 356414 491 813 1717 3191 36102 1182 4909 746
leaf_count=16712 738567 128 442 1146 130 3697 1076 632 307 153 32466 3063 199 1018 53 437 4767 4786 29112 2422 352520 356414 491 813 1717 3191 36102 1182 4909 746
internal_value=0 1.53732e-05 -6.33325e-07 7.63812e-05 1.24292e-05 3.54229e-05 0.000112917 0.00010784 0.000186252 0.000223845 -2.53535e-06 2.6474e-06 0 5.19222e-05 0.000212661 1.37105e-05 2.00165e-05 3.88194e-05 8.57378e-06 -1.49687e-05 -3.18256e-06 -3.108e-06 -5.0755e-05 2.71449e-05 -1.45851e-06 3.31499e-05 -1.04086e-06 7.38284e-07 -1.38082e-05 6.29402e-06
internal_weight=0 63934 1.53546e+06 2810 61124 8463 1664 762 588 460 796897 87030 69838 1270 252 17192 14333 7849 52661 2859 709867 708934 933 7701 6484 6888 68568 23549 6091 17458
internal_count=1599398 63934 1535464 2810 61124 8463 1664 762 588 460 796897 87030 69838 1270 252 17192 14333 7849 52661 2859 709867 708934 933 7701 6484 6888 68568 23549 6091 17458
is_linear=0
shrinkage=0.0204528


Tree=14
num_leaves=31
num_cat=0
split_feature=138 97 203 168 160 139 144 36 10 21 193 137 93 206 77 168 13 170 190 73 168 115 36 2 205 78 190 163 7 194
split_gain=0.0254351 0.0189888 0.0249811 0.00795441 0.0128284 0.0129357 0.00935303 0.00820992 0.00708541 0.013715 0.00612416 0.0102388 0.00604332 0.00889146 0.00905218 0.00666032 0.00869841 0.00728776 0.00532375 0.00520427 0.00456932 0.0099771 0.0118002 0.00400857 0.00319277 0.00316713 0.00334082 0.00313473 0.00312262 0.00288991
threshold=2.8371810913085941e-05 -0.054428100585937493 -0.019477844238281247 -0.0021142959594726558 0.0086250305175781267 -0.0077419281005859366 0.0034952163696289067 54.890625000000007 0.073944091796875014 1.0444335937500002 -0.0079078674316406233 0.015892028808593753 0.063812255859375014 -0.0030794143676757808 0.27746582031250006 0.0095481872558593767 1.8030405044555667e-05 0.00020521879196166995 -0.0027017593383789058 0.082000732421875014 0.0017027854919433596 -0.093872070312499986 43.421875000000007 -0.0020875930786132808 0.00022453069686889651 -0.0054569244384765616 -0.0090446472167968733 -0.0013966560363769529 -0.011299133300781248 0.015285491943359377
decision_type=6 4 6 6 4 6 4 4 4 6 6 4 4 6 6 6 6 6 4 6 4 4 6 6 6 4 6 6 6 6
left_child=1 2 8 4 7 6 23 -3 -1 -10 11 24 20 14 15 -14 17 -17 -8 25 -2 22 -22 -6 -4 26 -15 -28 -9 -30
right_child=12 3 10 -5 5 -7 18 28 9 -11 -12 -13 13 19 -16 16 -18 -19 -20 -21 21 -23 -24 -25 -26 -27 27 -29 29 -31
leaf_value=7.9961493501532813e-05 -1.7133687555821518e-06 4.7716685788697501e-06 0 2.5953043337634476e-07 2.3128207006867796e-05 4.7460889811227214e-06 -2.0911215511070466e-05 3.4756489925970646e-05 0 0.00038449731911079213 -2.1000552629775168e-05 0.00010759506189965664 3.4699366168888978e-06 1.8955634311953901e-05 -0.0001037772895341339 3.3573514526972439e-05 -3.7761689552206004e-05 1.3472619539954968e-06 5.6825912727201692e-05 -9.439925413396687e-05 -0.00027889068973033535 -5.0243444551600531e-06 0 -1.0885087589464761e-05 -0.00013706860084553791 -8.2083044978530083e-07 -1.5894028757691137e-06 -2.9926774634132051e-05 -4.1559644731430747e-06 1.105765638757843e-05
leaf_weight=414 341101 307621 64 404964 7010 18185 230 893 103 167 808 531 35056 892 288 10343 923 4878 5528 268 121 321882 170 1456 94 47492 3518 4717 74322 5359
leaf_count=414 341101 307621 64 404964 7010 18185 230 893 103 167 808 531 35056 892 288 10343 923 4878 5528 268 121 321882 170 1456 94 47492 3518 4717 74322 5359
internal_value=0 2.49745e-06 6.28884e-05 2.32761e-06 4.29888e-06 1.67232e-05 3.14442e-05 3.23997e-06 0.000166143 0.000265982 9.96935e-06 5.83642e-05 -2.66418e-06 1.76295e-06 7.97287e-06 8.76892e-06 1.9755e-05 2.37973e-05 5.2261e-05 -3.71049e-06 -3.40017e-06 -5.16006e-06 -0.000125668 1.62885e-05 -5.40327e-05 -3.13012e-06 -1.42264e-05 -1.88408e-05 -2.50392e-06 -3.02743e-06
internal_weight=0 827749 2181 825568 420604 32409 14224 388195 684 270 1497 689 771649 108375 51488 51200 16144 15221 5758 56887 663274 322173 291 8466 158 56619 9127 8235 80574 79681
internal_count=1599398 827749 2181 825568 420604 32409 14224 388195 684 270 1497 689 771649 108375 51488 51200 16144 15221 5758 56887 663274 322173 291 8466 158 56619 9127 8235 80574 79681
is_linear=0
shrinkage=0.0204528


Tree=15
num_leaves=31
num_cat=0
split_feature=138 72 190 109 135 74 138 36 206 187 213 198 191 207 124 115 58 13 74 30 30 104 101 187 205 194 47 0 30 157
split_gain=0.0283381 0.017033 0.0131542 0.0171005 0.00901021 0.00684745 0.00498994 0.0100655 0.010809 0.0118829 0.00780208 0.00936503 0.0075466 0.00793663 0.00655432 0.00551465 0.00492573 0.00486986 0.0041732 0.00845703 0.00401534 0.00417587 0.00397041 0.00514883 0.00733955 0.00358607 0.00542615 0.00727094 0.00348889 0.00333485
threshold=-0.0010333061218261717 -0.016914367675781247 0.033767700195312507 -0.086944580078124986 0.010295867919921877 -0.0029649734497070308 0.00098657608032226584 58.921875000000007 -0.0040988922119140616 0.046371459960937507 -0.0045299530029296866 0.055068969726562507 0.037460327148437507 0.014598846435546877 0.0028314590454101567 -0.085327148437499986 0.0092582702636718767 -7.1823596954345695e-06 0.0035390853881835942 51.515625000000007 45.484375000000007 -0.012203216552734373 0.0063285827636718759 0.00010046362876892091 -0.010265350341796873 -0.020149230957031247 0.091827392578125014 0.00034868717193603521 46.171875000000007 0.0030679702758789067
decision_type=6 4 6 4 4 6 6 4 6 4 6 6 6 6 6 4 6 6 6 4 6 4 6 6 6 6 4 4 4 4
left_child=1 2 16 4 -4 -3 -2 15 9 18 11 -11 -10 -14 -12 20 -1 -15 28 -20 21 -8 23 -18 -25 26 -7 -28 -9 -29
right_child=6 5 3 -5 -6 25 7 8 12 10 14 -13 13 17 -16 -17 22 -19 19 -21 -22 -23 -24 24 -26 -27 27 29 -30 -31
leaf_value=2.0521926207723035e-05 -5.6319511852816076e-07 5.8738133189913468e-06 0 4.8756048641979806e-05 0.00040825983907822791 -1.6165304518389308e-06 -0.00019154283432263087 2.3893010989515724e-05 -1.4368864009805772e-06 -7.3598142653911893e-06 0.000167274424068832 -7.7689151685941701e-05 0 -0.00011365767872413894 6.285172814425365e-06 -4.447741200791605e-06 0 0 4.0838994688669821e-05 8.8171038606159139e-06 0 0 5.1251316730752914e-06 -0.00015714175314313143 0 1.863349770357058e-06 7.893571802216013e-06 0 0 -5.1188785939423926e-05
leaf_weight=18380 576740 214640 66 1477 103 29516 165 3710 35667 3649 123 1153 601 690 1952 432687 365 350 7908 7564 239 81 2316 278 161 246977 1432 401 7165 2842
leaf_count=18380 576740 214640 66 1477 103 29516 165 3710 35667 3649 123 1153 601 690 1952 432687 365 350 7908 7564 239 81 2316 278 161 246977 1432 401 7165 2842
internal_value=0 3.93533e-06 2.11469e-05 7.82269e-05 0.000283327 3.11487e-06 -1.87965e-06 -3.37035e-06 3.72969e-06 1.22728e-05 -1.0909e-05 -2.60141e-05 -3.65407e-06 -4.6689e-05 2.00073e-05 -4.54577e-06 1.63809e-05 -8.13855e-05 1.86418e-05 2.57282e-05 -7.44409e-05 -0.000132882 -5.32938e-06 -4.57742e-05 -9.33505e-05 9.78919e-07 -5.16457e-06 -2.57651e-05 7.7873e-06 -4.32039e-05
internal_weight=0 518954 23146 1646 169 495808 1.08044e+06 503704 70532 33224 6877 4802 37308 1641 2075 433172 21500 1040 26347 15472 485 246 3120 804 439 281168 34191 4675 10875 3243
internal_count=1599398 518954 23146 1646 169 495808 1080444 503704 70532 33224 6877 4802 37308 1641 2075 433172 21500 1040 26347 15472 485 246 3120 804 439 281168 34191 4675 10875 3243
is_linear=0
shrinkage=0.0204528


Tree=16
num_leaves=31
num_cat=0
split_feature=138 55 188 73 59 124 165 93 53 115 79 8 138 94 70 40 135 131 87 61 175 72 177 47 77 79 5 89 47 61
split_gain=0.028025 0.0175679 0.018593 0.0124827 0.0136829 0.013672 0.00906202 0.00822172 0.00750305 0.00661325 0.0102152 0.00658527 0.00648805 0.00747392 0.0061928 0.0116395 0.00772585 0.00578154 0.00585101 0.00541068 0.00946522 0.00466457 0.00459503 0.0045045 0.0056808 0.00341605 0.00765666 0.00497626 0.00317799 0.00276192
threshold=-0.0018925666809082029 -0.13159179687499997 -0.0056896209716796866 -0.042129516601562493 0.024597167968750003 0.032150268554687507 -0.012653350830078123 0.25201416015625006 0.0047016143798828134 -0.074218749999999986 -0.093353271484374986 3.6746263504028327e-05 0.0012955665588378908 0.034133911132812507 -0.0034399032592773433 43.859375000000007 0.0009391307830810548 0.0068798065185546884 -0.042648315429687493 -0.037567138671874993 -0.0059795379638671866 -0.0035028457641601558 0.0046024322509765634 0.098937988281250014 0.24597167968750003 0.0072975158691406259 0.00030338764190673834 0.050003051757812507 -0.047744750976562493 -0.12380981445312499
decision_type=6 4 6 4 6 6 4 4 6 4 4 4 4 4 4 6 6 4 4 4 6 6 6 6 6 6 6 6 4 6
left_child=1 2 -1 4 5 6 -3 -7 19 14 -11 21 -12 -14 15 16 22 23 -19 -6 -21 -5 -2 24 -13 26 -15 -27 -20 -25
right_child=9 3 -4 11 8 7 -8 -9 -10 10 12 17 13 25 -16 -17 -18 18 28 20 -22 -23 -24 29 -26 27 -28 -29 -30 -31
leaf_value=0.00040653037355222415 -1.3698373814222198e-05 0 3.9626500398119547e-06 9.2450395194999065e-06 0 0 5.0478327776577541e-05 -0.00026829547742085582 0 0.00019349568847455475 -2.9534077182740072e-07 3.7978939408077376e-07 -4.7470307914902458e-06 -1.3844460612836935e-06 0 0 0 6.5400384489774807e-05 -2.3898010949959391e-05 -0.00024377104504170999 0 3.1256817988469417e-06 -0.00036314680911576555 -2.6852684506051937e-05 -9.169612877580569e-05 1.7240161240999852e-06 1.3231362007798683e-05 -1.677693865954715e-05 1.6661403920180525e-05 2.8953282151303876e-06
leaf_weight=93 83 1499 193 115937 100 54 7170 90 746 110 822421 98988 347247 34380 658 315 100 1021 841 180 85 104479 116 4312 279 18006 25435 8725 4544 1191
leaf_count=93 83 1499 193 115937 100 54 7170 90 746 110 822421 98988 347247 34380 658 315 100 1021 841 180 85 104479 116 4312 279 18006 25435 8725 4544 1191
internal_value=0 5.20046e-06 0.000165807 5.0405e-06 2.7798e-05 3.68092e-05 4.08703e-05 -0.000147588 -3.6099e-05 -1.40409e-06 -1.35e-06 4.33399e-06 -1.37402e-06 -3.39977e-06 -4.81708e-05 -9.48953e-05 -0.000186038 1.97386e-07 1.91166e-05 -0.00011183 -0.000160218 6.38246e-06 -0.00026061 -8.7981e-07 3.48594e-08 1.90907e-06 4.69084e-06 -4.00225e-06 8.7663e-06 -1.88946e-05
internal_weight=0 341802 286 341516 9924 8813 8669 144 1111 1.2576e+06 1.25632e+06 331592 1.25621e+06 433793 1272 614 299 111176 6406 365 265 220416 199 104770 99267 86546 59815 26731 5385 5503
internal_count=1599398 341802 286 341516 9924 8813 8669 144 1111 1257596 1256324 331592 1256214 433793 1272 614 299 111176 6406 365 265 220416 199 104770 99267 86546 59815 26731 5385 5503
is_linear=0
shrinkage=0.0204528


Tree=17
num_leaves=31
num_cat=0
split_feature=138 97 195 37 160 75 10 205 138 95 202 215 168 214 159 131 98 47 201 59 73 1 125 188 199 191 206 59 199 198
split_gain=0.0300309 0.0194855 0.0166223 0.0172502 0.0113508 0.0156669 0.00952649 0.00877826 0.00870992 0.0065425 0.00591038 0.00462673 0.00442199 0.00411222 0.00429994 0.0040828 0.0110763 0.00403892 0.00390445 0.00364036 0.00830588 0.00967823 0.00894755 0.00729384 0.00375045 0.00340555 0.00318836 0.00829053 0.00804947 0.00623903
threshold=-0.0030584335327148433 -0.050308227539062493 0.020195007324218753 39.359375000000007 0.0087776184082031267 -0.066894531249999986 0.015125274658203127 -0.050674438476562493 7.599592208862306e-05 0.053710937500000007 -0.012218475341796873 0.030937194824218753 0.0019693374633789067 0.029838562011718753 0.00068640708923339855 0.0061435699462890634 -0.0039958953857421866 0.11474609375000001 -0.015846252441406247 0.014060974121093752 0.071136474609375014 0.12435913085937501 0.012134552001953127 -0.0049953460693359366 0.027305603027343753 -0.0021562576293945308 -0.0069866180419921866 -0.11447143554687499 -0.0076313018798828116 -0.038223266601562493
decision_type=6 4 4 6 4 4 4 6 4 4 6 6 4 6 4 6 6 4 4 4 6 6 6 4 6 6 4 4 6 4
left_child=1 2 -1 -4 7 6 -6 13 -2 12 -5 -8 -10 14 25 -15 -17 -16 19 20 22 -22 -11 -21 -25 -3 27 28 -20 -28
right_child=8 4 3 10 5 -7 11 -9 9 18 -12 -13 -14 15 17 16 -18 -19 26 23 21 -23 -24 24 -26 -27 29 -29 -30 -31
leaf_value=1.9847194538163849e-05 6.8824942294513922e-07 1.280115928045092e-05 0.00042582689055968743 0.00017443080931007539 1.7313109795034072e-05 9.9273549462069342e-06 6.4433114867239877e-05 7.4953482070527872e-06 -1.8210182944003606e-06 3.4862669569388594e-05 1.0487414008791638e-05 0.00018250528313334729 -5.3463595993629865e-06 -1.5738078191097796e-05 -3.7195613104789454e-06 -0.00027792900165572216 0 -3.1951576838736356e-05 0 1.2480323291552079e-05 2.9733651022189948e-05 -0.0001632118023495198 0 -6.4576141338793398e-06 -5.2020783766126076e-05 -3.5134251776411064e-06 5.3248119089267096e-05 3.8876346226136689e-06 0.00017366524859883635 -3.1697330257850633e-06
leaf_weight=1267 641145 11308 101 248 2452 15196 2669 137512 335290 6997 349 251 283039 3197 14602 97 124 2723 94 10446 93 226 4906 5547 1031 9009 813 29675 238 78753
leaf_count=1267 641145 11308 101 248 2452 15196 2669 137512 335290 6997 349 251 283039 3197 14602 97 124 2723 94 10446 93 226 4906 5547 1031 9009 813 29675 238 78753
internal_value=0 7.39714e-06 7.18981e-05 0.0001541 6.71794e-06 2.1232e-05 5.16368e-05 4.99909e-06 -1.05566e-06 -2.54345e-06 9.29166e-05 7.75628e-05 -3.44829e-06 -3.15702e-06 -9.73302e-07 -2.47433e-05 -0.000116183 -8.64319e-06 1.4266e-06 8.07624e-06 1.6669e-05 -8.10312e-05 2.00035e-05 1.41426e-06 -1.48848e-05 5.15517e-06 -2.71941e-07 5.32151e-06 0.000107642 -2.48674e-06
internal_weight=0 201105 1965 698 199140 20568 5372 178572 1.39829e+06 757148 597 2920 618329 41060 37642 3418 221 17325 138819 29246 12222 319 11903 17024 6578 20317 109573 30007 332 79566
internal_count=1599398 201105 1965 698 199140 20568 5372 178572 1398293 757148 597 2920 618329 41060 37642 3418 221 17325 138819 29246 12222 319 11903 17024 6578 20317 109573 30007 332 79566
is_linear=0
shrinkage=0.0204528


end of trees

feature_importances:
log_close/mean_60-mean_close/mean_60_id5=28
log_close/mean_300-mean_close/mean_300_id5=25
log_close/mean_60_id5=18
log_close/mean_900-mean_close/mean_900_id1=10
log_close/mean_900-mean_close/mean_900_id9=10
log_return_60_id6=9
log_close/mean_900-mean_close/mean_900_id2=9
log_close/mean_900-mean_close/mean_900_id3=9
RSI_id8=8
log_return_60_id5=8
log_close/mean_300-mean_close/mean_300_id1=8
log_return_900-mean_log_returns_900_id1=8
log_return_900_id0=7
log_return_900_id5=7
log_return_60_id12=7
log_close/mean_900-mean_close/mean_900_id5=7
log_return_900-mean_log_returns_900_id8=7
RSI_id2=6
log_return_60_id3=6
log_return_900_id8=6
log_return_60_id9=6
log_return_300-mean_log_returns_300_id3=6
log_return_900-mean_log_returns_900_id2=6
MACD_id8=5
MACD_id13=5
log_return_900_id2=5
log_close/mean_300_id5=5
log_return_300_id5=5
log_return_60_id8=5
log_return_300_id8=5
log_return_60_id11=5
log_return_300_id11=5
log_return_60-mean_log_returns_60_id3=5
log_return_300-mean_log_returns_300_id1=5
log_return_300-mean_log_returns_300_id2=5
mean_log_returns_900=5
log_return_900-mean_log_returns_900_id5=5
log_return_900-mean_log_returns_900_id13=5
MACD_id5=4
Volume_Ratio_id7=4
RSI_id5=4
log_return_60_id2=4
log_close/mean_900_id5=4
log_close/mean_60_id6=4
log_return_900_id9=4
log_close/mean_900_id13=4
log_return_900_id13=4
mean_close/mean_60=4
log_return_60-mean_log_returns_60_id0=4
log_return_60-mean_log_returns_60_id1=4
log_return_60-mean_log_returns_60_id5=4
log_return_300-mean_log_returns_300_id5=4
log_close/mean_300-mean_close/mean_300_id6=4
log_return_900-mean_log_returns_900_id0=4
log_close/mean_900-mean_close/mean_900_id12=4
MACD_id0=3
MACD_id2=3
MACD_id10=3
RSI_id12=3
RSI_id13=3
log_close/mean_60_id1=3
log_return_900_id1=3
log_close/mean_900_id2=3
log_return_900_id7=3
log_close/mean_300_id8=3
log_return_60_id10=3
log_return_300_id12=3
log_close/mean_60-mean_close/mean_60_id0=3
log_return_60-mean_log_returns_60_id4=3
log_close/mean_60-mean_close/mean_60_id6=3
log_close/mean_60-mean_close/mean_60_id11=3
log_return_60-mean_log_returns_60_id11=3
log_return_300-mean_log_returns_300_id0=3
log_return_300-mean_log_returns_300_id8=3
log_close/mean_900-mean_close/mean_900_id0=3
log_return_900-mean_log_returns_900_id3=3
log_return_900-mean_log_returns_900_id7=3
log_return_900-mean_log_returns_900_id9=3
MACD_id1=2
MACD_id3=2
MACD_id7=2
Volume_Ratio_id1=2
Volume_Ratio_id3=2
Volume_Ratio_id9=2
RSI_id3=2
RSI_id6=2
RSI_id10=2
log_close/mean_900_id0=2
log_return_900_id3=2
log_close/mean_900_id7=2
log_close/mean_900_id8=2
log_close/mean_300_id9=2
log_return_300_id9=2
log_close/mean_300_id10=2
log_return_300_id10=2
log_return_900_id10=2
log_close/mean_60_id12=2
log_return_60_id13=2
log_close/mean_60-mean_close/mean_60_id2=2
log_close/mean_60-mean_close/mean_60_id8=2
log_close/mean_60-mean_close/mean_60_id9=2
mean_log_returns_300=2
log_close/mean_300-mean_close/mean_300_id2=2
log_close/mean_300-mean_close/mean_300_id9=2
log_return_300-mean_log_returns_300_id9=2
log_return_900-mean_log_returns_900_id6=2
log_close/mean_900-mean_close/mean_900_id10=2
MACD_id6=1
Volume_Ratio_id5=1
Volume_Ratio_id6=1
Volume_Ratio_id8=1
Volume_Ratio_id12=1
Volume_Ratio_id13=1
RSI_id7=1
RSI_id9=1
log_close/mean_60_id0=1
log_return_60_id0=1
log_close/mean_300_id0=1
log_return_300_id0=1
log_return_60_id1=1
log_return_300_id1=1
log_return_300_id2=1
log_return_300_id3=1
log_close/mean_900_id4=1
log_close/mean_300_id6=1
log_return_300_id6=1
log_close/mean_60_id7=1
log_return_300_id7=1
log_close/mean_900_id10=1
log_close/mean_60_id11=1
log_close/mean_300_id11=1
log_close/mean_900_id11=1
log_return_900_id11=1
log_close/mean_300_id12=1
log_close/mean_900_id12=1
log_close/mean_300_id13=1
mean_log_returns_60=1
log_close/mean_60-mean_close/mean_60_id1=1
log_close/mean_60-mean_close/mean_60_id4=1
log_return_60-mean_log_returns_60_id7=1
log_return_60-mean_log_returns_60_id9=1
log_close/mean_60-mean_close/mean_60_id12=1
log_close/mean_60-mean_close/mean_60_id13=1
mean_close/mean_300=1
log_close/mean_300-mean_close/mean_300_id0=1
log_close/mean_300-mean_close/mean_300_id3=1
log_close/mean_300-mean_close/mean_300_id4=1
log_return_300-mean_log_returns_300_id6=1
log_close/mean_300-mean_close/mean_300_id8=1
log_close/mean_300-mean_close/mean_300_id11=1
log_return_300-mean_log_returns_300_id11=1
log_return_300-mean_log_returns_300_id12=1
log_close/mean_900-mean_close/mean_900_id7=1
log_return_900-mean_log_returns_900_id10=1
log_return_900-mean_log_returns_900_id12=1
log_close/mean_900-mean_close/mean_900_id13=1

parameters:
[boosting: gbdt]
[objective: regression]
[metric: correlation]
[tree_learner: serial]
[device_type: cpu]
[data: ]
[valid: ]
[num_iterations: 2500]
[learning_rate: 0.0204528]
[num_leaves: 31]
[num_threads: 0]
[deterministic: 0]
[force_col_wise: 0]
[force_row_wise: 0]
[histogram_pool_size: -1]
[max_depth: 7]
[min_data_in_leaf: 50]
[min_sum_hessian_in_leaf: 0.001]
[bagging_fraction: 1]
[pos_bagging_fraction: 1]
[neg_bagging_fraction: 1]
[bagging_freq: 0]
[bagging_seed: 8586]
[feature_fraction: 1]
[feature_fraction_bynode: 1]
[feature_fraction_seed: 8586]
[extra_trees: 1]
[extra_seed: 8586]
[early_stopping_round: 100]
[first_metric_only: 1]
[max_delta_step: 0]
[lambda_l1: 0.409409]
[lambda_l2: 1.94225]
[linear_lambda: 0]
[min_gain_to_split: 0]
[drop_rate: 0.1]
[max_drop: 50]
[skip_drop: 0.5]
[xgboost_dart_mode: 0]
[uniform_drop: 0]
[drop_seed: 8586]
[top_rate: 0.2]
[other_rate: 0.1]
[min_data_per_group: 100]
[max_cat_threshold: 32]
[cat_l2: 10]
[cat_smooth: 10]
[max_cat_to_onehot: 4]
[top_k: 20]
[monotone_constraints: ]
[monotone_constraints_method: basic]
[monotone_penalty: 0]
[feature_contri: ]
[forcedsplits_filename: ]
[refit_decay_rate: 0.9]
[cegb_tradeoff: 1]
[cegb_penalty_split: 0]
[cegb_penalty_feature_lazy: ]
[cegb_penalty_feature_coupled: ]
[path_smooth: 0]
[interaction_constraints: ]
[verbosity: -1]
[saved_feature_importance_type: 0]
[linear_tree: 0]
[max_bin: 550]
[max_bin_by_feature: ]
[min_data_in_bin: 3]
[bin_construct_sample_cnt: 200000]
[data_random_seed: 8586]
[is_enable_sparse: 1]
[enable_bundle: 1]
[use_missing: 1]
[zero_as_missing: 1]
[feature_pre_filter: 1]
[pre_partition: 0]
[two_round: 0]
[header: 0]
[label_column: ]
[weight_column: ]
[group_column: ]
[ignore_column: ]
[categorical_feature: ]
[forcedbins_filename: ]
[precise_float_parser: 0]
[objective_seed: 30655]
[num_class: 1]
[is_unbalance: 0]
[scale_pos_weight: 1]
[sigmoid: 1]
[boost_from_average: 1]
[reg_sqrt: 0]
[alpha: 0.9]
[fair_c: 1]
[poisson_max_delta_step: 0.7]
[tweedie_variance_power: 1.5]
[lambdarank_truncation_level: 30]
[lambdarank_norm: 1]
[label_gain: ]
[eval_at: ]
[multi_error_top_k: 1]
[auc_mu_weights: ]
[num_machines: 1]
[local_listen_port: 12400]
[time_out: 120]
[machine_list_filename: ]
[machines: ]
[gpu_platform_id: -1]
[gpu_device_id: -1]
[gpu_use_dp: 0]
[num_gpu: 1]

end of parameters

pandas_categorical:[]
